svm_type nu_svc
kernel_type rbf
gamma 16.0
nr_class 77
total_sv 460
rho -0.06021085116331437 0.3147113794208249 -0.03950862186132033 2.2041707038141842 -0.07853550894765349 0.02816843935346136 0.05996124150104949 -0.09060579135993231 -0.028425202838945122 0.0014553802868464542 -0.15857141538828198 -0.22888202051421905 -0.07346339758690235 0.11081273961264933 -0.09917272941804772 0.12523362417290443 -0.0064575381337511764 0.026966714777489208 -0.08142128246177353 -0.0877302040471863 -0.024853367876396745 0.24450710183677704 0.09994250902221857 -0.05049969628744191 -0.19139937984820624 -0.013155701172606225 0.0807142951651266 -0.08704063960956211 0.07691275768009659 -0.07743448508678079 -0.008060252524412614 -0.03544617722298428 0.004380523372334943 -0.07050494070312079 -0.22298217105111362 0.005821285835135529 -0.11222350399687933 0.025031598032206025 -0.03172856557439252 0.16311036863154155 0.03536369216438561 -0.08169261266635872 0.0257453417969486 -0.01357273317621777 -0.02603333633263615 0.004266281065852986 -0.03382316989589501 -0.12043504010389382 -0.12627097664055453 -0.03933704734672964 -0.04646517822992407 -0.012679833442454408 -0.015431470627390973 0.0021475839102458034 -0.038618201475544456 0.02203075162697561 0.028580890774417795 -0.13667099286177806 0.38345283675498526 0.05518313387561686 -0.19264270082630247 -0.09458711756078929 -0.08705051302957631 -0.1632939207826119 -0.05226256747021627 -0.02131575212856931 -0.11772008513907231 0.025948636067420785 0.025859808780971064 -0.06081704477018685 0.01408802380863034 -0.08209573325242121 1.12616106602182 -0.0773408580466489 0.0012526364647024945 0.014716415856863051 -0.029352559125550817 0.08249197105520457 -0.16615623235860916 -0.022607712405196368 0.12604316637222665 0.09622192974695382 -0.020695639553808737 -0.0012425727552026267 -3.051246453423387E-4 -0.03756889366387624 -0.037132616829207495 0.07592631694844111 0.011542197855081175 -0.002886552554704543 0.032976626571053616 0.020214212998024627 0.0374053200465374 0.03303610304012774 0.006283662797863108 0.027258134569894107 -0.018652019041427742 0.10434842242974583 0.04341893183170987 -0.07465791790029608 0.02036066925359856 -0.06856116079160877 -0.008005171087430525 0.07721826776944378 -0.02413284755776994 0.02029116266538096 0.01176096321087605 0.04599436953890333 -2.658389484289839E-4 -0.05065580364555179 0.04410750502846552 -0.0567552177130422 -0.04421319211849061 0.08946311409303362 0.06259206094934679 0.10754964671074113 0.007248956267887713 0.041852794399623555 0.12057564635254828 0.09677429583561761 0.08114387603621108 0.05947292767689665 -0.02458243659448325 0.02040140370242965 -0.04208802881134992 -0.01279132287807749 0.0012349350315246429 0.02266977002572333 0.010907750933306187 -0.09976571287575912 0.06275129039499718 0.08334688507140534 -0.2424518076528837 -0.1483061546397044 0.16183213220223652 -0.08957838305454223 0.005704039866426057 -0.014002992821996475 0.025811490815386164 -0.010175992577909222 0.074462777084263 0.06126388918642373 0.06498844678562428 0.04434200696221646 -0.07457766579917284 0.022245430955622914 0.030906980008267325 -0.026503849605823974 0.008802712699595778 3.016780351755951E-4 0.26363776129319194 -0.23322413909427203 -0.2775072645080369 -0.02897655383491011 0.14960046594138446 0.35793358435722866 -0.010664214964103493 0.013512554317522461 0.01563392238196158 -0.11946618658474811 -0.09351221562033928 -0.06823684543494016 -0.2528327562161664 0.031369782669687395 -0.06767502530547176 0.031205772134224832 0.16964303157009633 -0.283911680571367 -0.05592101844463336 -8.511975275240041E-4 -0.20960375952982682 0.23978239928045605 -0.1255835875007251 -0.026597714283180255 0.13973069222401355 0.21999903849712202 -0.13313995009220572 -1.7873884466983256 -0.008539376787946612 0.10138539520794694 0.10169984505977346 -0.3465612066900349 0.04094800290341697 -0.22920838939773877 -0.10528293525429536 0.15563939066970323 -0.008552139184277142 0.17753224991265473 0.27979526481689726 0.13872560247031457 -1.079937334529594 0.11939828541779485 0.022087428545958483 0.09175772469513235 0.014772251346706526 0.024570411548664503 -0.04067557075434663 0.041436157616611576 -0.03095591867213847 -0.2284410688387202 0.02301648378662688 0.14604365843990613 0.10234537434924844 0.043233592335970975 -0.35000402083660037 0.1900898893098581 -0.06140953697296548 0.45073993037376575 0.15081991581881649 -0.027916231772597708 0.0695357044141185 -0.0033616908088103283 -0.30582122161091657 -0.013787567308083963 -0.03870909882308412 0.010840456464660354 0.012927519547171602 0.09287206574014009 0.08039728827386106 0.08966580138047892 -0.4871573727503528 1.1775916569164402 0.30077144619580365 0.017596570087238254 0.10603935628768439 4.50850725734518 -0.09807985917701872 -0.015435959656301844 -0.0023387632005309493 -0.12106328715417965 -0.036738904808325014 -7.738210402521656E-4 -0.18618732590837764 -0.268555605913377 -0.10238915421190072 0.10239429357294427 -0.10934225807132752 -0.14799956692771302 0.03479957585262503 0.009915095548361862 0.031441608441465846 -0.11952113491819844 -0.07098448877148363 0.21373028350717224 -0.018868635052271078 -0.030634883329416256 -0.20968638232646408 -0.034698487907316895 0.09120710057799317 -0.06812423052450461 0.06243094286737296 -0.10201647016736874 -0.023368686884970062 -0.05744224632338809 -0.0037155234371394094 -0.09913998448144766 -0.28037252025259934 -0.014025943822301221 -0.18296819724673707 -0.030416938188164478 -0.06662207724824926 0.00535532396084502 -0.02105319240494916 -0.07383091239981415 0.011092741056090427 -0.09752126044828877 -0.04208234507085082 -0.06523767406240899 -0.13197810903329432 -0.16122597949476145 -0.19286656509157096 -0.15464757773262988 -0.031017773147054218 -0.019130630349299182 -0.03489577578719766 0.07989532454644649 -0.05429802664219117 -0.006581296080714009 -0.016412064825407163 -0.26573108051286415 0.23846584452025935 0.005653286271503202 -0.2854281596846973 -0.11217852092646964 -0.10487268223174441 -0.09264266068519854 -0.06517866267449052 -0.012223927905380662 -0.1051894367453756 -0.01724396180490545 0.0031003065070054295 -0.08773086005925425 -0.004679592964975329 -0.1721968979627144 1.5918766343470094 -0.12151567895184504 -0.0012787672518318307 -0.01872720909945899 0.042449078012924794 -0.19515892547697647 -0.777562140170361 0.062081613727589524 0.05069846705422418 0.013341145195065816 -0.019805827038596024 0.11393023956916136 0.009558068179062313 -1.28687611388466 -0.23957220288711284 -4.037178892327509 -0.6253555431551978 0.2596015465999506 -1.024507099832022 0.0574657999147348 0.05391907959123699 -1.4812704270533614 -3.2188315775586176 0.14131554274323138 -0.5135365076553966 0.20943834813777623 0.2044757874181012 -0.7247619321889573 -1.4628546467564632 0.05885880658174137 0.18470989649300126 0.17384460276709685 -0.5376319247728709 0.1574445339043922 -2.133967368321636 -0.25705393154004064 0.09687053236085197 -0.3598318224900336 -1.3696441892998668 -1.839264601106346 -4.834786958736466 -0.20703990103477388 0.22149934038200486 -2.855938881883386 -2.643985478073722 -1.6515590799703617 -2.764939028233171 0.08203609833360467 -0.7629007078654118 -0.8444758039617022 -0.06500427629785022 0.04625215639878708 0.23278433131915355 -0.606790579271879 0.07785491914443675 0.14314316959439957 0.09602229017687734 -0.7494393008975974 0.36298220581100993 -0.7542743959488085 -0.22980796588316746 0.21786803253920972 0.08460044792468772 -1.3863444651356054 0.032217071767680905 -1.0828779027291549 -0.6286744726314119 -0.6468636748583042 0.24187372205540134 0.0708645764074576 0.1542538417872927 -0.9488139520484554 -1.6853477515447985 0.15720575078174134 0.017536500910833037 0.3400598325627077 0.06725901326221582 0.08383358306612697 -0.2675860496051107 0.031552476082588786 0.05996122322934344 1.628590603735831 -0.02056369475213508 0.1842211548779931 0.035067127194910716 0.02445460867290938 0.030123989907217125 0.09229633906443985 0.01754078607931055 0.07836390602446477 0.05177836518395791 0.11964484145367034 0.031682929796461236 0.08553220776392287 0.09566181657015098 0.017090372726504672 0.008559482865182837 0.02000103143629784 0.06203406483815972 0.1064198819471771 -1.0633211527407642 -0.013561821585920945 0.11827569170986069 0.10758873607658517 -0.031871823862572216 0.006668184039390964 0.1487545675051545 -0.027963198857841785 0.03280136251813537 0.07172128991450603 0.07480613946322943 0.07207079449681292 0.07007102819198344 0.2263324599216595 0.07438771214652548 0.09954448020239992 0.054263553913702134 0.036249360052007566 0.08727718390977685 0.04290284998748507 0.03592339277590937 0.06807823616911242 0.0801054184109695 0.041852049833544236 0.064012839919856 0.03338079510814707 0.13212070829174355 0.05989055784936561 -0.006358249065826058 -0.010600754690748412 0.06777927157602918 0.0026675397307994574 0.031775371251737974 -0.13992466694094555 0.060753760534350776 -0.059129919711537686 0.06834210655834337 0.10202088026755105 0.09796424645862788 0.03774747605676389 0.04114213718226151 0.17868811013644967 0.08459663320508427 0.012248048468875278 0.07787644485313562 0.06332256400217358 0.04359917892792837 0.014001856881226746 -0.07376838601158148 -0.02183223710903139 -7.73162075930941E-5 -0.12278700088844921 -0.14020356488392186 -0.01661814270388376 -0.14933197674824622 0.10728761320083467 -0.03757540870892067 -0.08093072005030919 0.009833045943010037 -0.033138201972088055 -0.10705782041295732 -0.03875529441205629 -0.209571787573574 0.015764017035529758 -0.009027368799188971 0.5206789972691175 -0.01971000536853603 -0.1917447390268921 -0.11196679856651669 0.009577834625038745 -0.07606927674586086 -0.010904693718318358 -0.034887808653121605 -0.040588747718640246 -0.05814654974624137 -0.18598598754521337 0.0072981194738809966 -0.15827592807965837 -0.11348964136517369 -0.08090181530189033 -0.034904317678249634 0.0027472468531633564 -0.06719093476932225 0.012599493055879908 0.04155877861221208 0.0121156521768567 -0.02128838135575657 0.017610270095156515 -0.09681980749529168 0.0178611151504671 -0.09371046596093731 -0.10072321692172066 -0.011030994769838076 -0.01680500628164186 -0.14141347375533375 -0.05584812106388466 0.011867787112031559 0.004207687540926325 0.9408398250180061 0.36045555882243174 0.041536289697743416 0.8154264310153517 -0.057326900447238795 -0.06844816428886336 -0.07726487173072112 -0.03897216434658254 -0.005137891014282412 0.014652758906329328 0.0014956937932185939 0.019729849223887257 0.09620284213531702 -0.006958942286147133 -0.046730200036959726 -0.10909767729856039 -0.08022155085599195 -2.0134320581316248E-4 -0.03253375129623178 -0.07924119605586664 -0.02868164750712209 -9.311835702188854E-4 -0.14620710237139667 -0.19252366614772345 -0.04450624524432413 -0.046391557068489776 -0.05763371461243942 0.06247933087282029 0.01582439024390244 9.306389109446634E-4 0.0657068387040404 -0.09554217702567555 -0.05790391797279999 -0.06089335908669776 -0.00993657228797489 -0.03565175516411101 -0.01787845499416209 -0.03292411485471768 -0.15582597344459878 -0.11174341611939935 -0.034304618206685705 -0.08094306407513105 -0.019337027732446554 -0.053993497430969775 -0.001866846056794266 -0.06758527016036756 -0.22059150976903755 0.040323309547312405 -0.14899676149339022 0.06324044526484976 0.014413267513706546 -0.11506220264439514 0.02006281667604966 -0.15332266924541055 0.011682606054613005 0.0019596755946458544 -0.023536878771335677 0.004606796237773199 0.05213791283407465 -0.11216888577807545 0.2922202182291937 0.13821127998229926 -0.1462141959671857 -0.015478790600482888 -0.03197176931343195 -0.10506842767210314 -0.09241315974938347 -0.03195510099179482 -0.060599322333777655 0.06298525760331596 2.918751617700312 0.008550699228802902 -0.03249424603813266 -0.09271220763271859 -0.08544750215127142 -0.13382088257979793 -0.04923082210292132 -0.03320361939064145 -0.01804386398805607 -0.03990652259738841 -0.007198426254515284 -0.19870107710849141 -0.006829473221606126 -0.0869787282508689 -0.23076561486386066 -0.12282009295492013 -0.0013181933133420663 -0.015151025431219156 0.09519882004584583 0.05936098207520782 2.5229705317001963 -0.12176344963944395 1.4871808632635508 0.051789104378320606 0.02142494750298317 0.042688849401956316 0.08666437229176416 0.0024473180904188998 0.0981962307312823 0.08212616418732104 0.10389554071304864 0.03602906697664318 0.0975844256759196 0.09687291944553872 0.018331698743257067 0.036829496602730834 -0.030926505430821614 0.06038769818337144 0.11905245115926481 0.02955159915961452 -0.33645366339437144 -0.015154926356397232 0.08615777201796908 0.1116807869348585 -0.022576063143920473 0.11613691240024178 -0.22967806590627396 0.02754538778567324 0.07284502275604124 0.0786140134180371 0.09348070127194012 0.04648215042714442 0.143264624111257 0.09955596557378933 0.11365820734513032 0.08128937458881473 0.05097571197321438 -1.4447307741444284 0.023839905761834642 0.02664800068028719 0.01658906847143053 0.09990461912668615 -0.034413515975047715 0.05428619033426421 0.02938006017387646 0.15428452057004824 0.06415886481232054 -0.021277416672259235 -0.016875223302950285 0.08565150180067083 -0.0035990044109431413 -0.007156291593218816 -0.04707338476807275 0.07942286539904056 0.03489688879745765 0.11132092521738794 0.07632649682188875 0.07780621836948926 0.03836033992822552 0.03751072817199177 0.02984016981313828 0.11235353335883481 -0.0031687847797712046 0.08207584408586434 0.06344204837521013 0.054183508009507046 0.07439445697711891 1.048241481248514 -0.06066712926883947 3.975760342167437 0.0016349074822489152 0.001067568759963158 0.001580144610327251 0.026875341839392466 0.11490405448824953 0.021042254941077865 0.0040891244247849125 0.03146302367975109 -0.0019512163988693368 0.033176411333088754 0.03846239935589683 -0.00550566488632724 0.0689780824901761 -0.03024153938607731 0.0060116010036979995 0.04326791924075852 -0.07242781779959587 0.07744147876993539 0.0351653561826679 0.02885535709936946 -0.005056198715613292 -0.03338778227026273 0.04422402372873504 -0.08193820603518467 -0.001321701169685443 0.020409025130977736 0.023803076559929567 0.028091547458946625 0.015179787711873427 0.06856819887775542 0.030367558541177852 0.03687806929689604 0.016715805210897557 0.0063357155713469945 -0.047292025796611674 0.0017208704742862574 -0.003741509370548283 0.002871183955298862 -0.2624349902887921 0.05758419445346561 0.009290144832075915 0.006256621606523749 0.05340761824068828 0.01966091517016423 -0.020292409839998155 -0.022772127164167568 0.025940304338901564 -0.013541020410888798 0.012083960046815749 -0.040148809177535515 0.014037537547369312 -0.3279340329449407 0.028924875419559373 0.02609517653357805 0.03066568799599997 0.01056282119719773 0.006889294536667728 0.055891740538289 0.026763994207942732 -0.017775102500032496 0.017699408745516995 0.08400770996263661 0.01356548474237991 -0.16829189806706482 -0.038690318747227705 1.5017736033197329 -0.009348738044539995 -0.004244212730228653 -0.007936498165455967 -0.0011241624247363535 0.005685752888552471 -0.0035622702853682527 -0.01270948185445526 -0.005172643263130214 -0.009135920066109833 0.0010815358553312442 -0.002362460886699472 -0.005867765071668343 -0.007786085176395018 -0.020868864135967773 -0.010382316297264908 0.0022576579983636276 -0.057314149389360275 -0.006833382204739842 -0.01140759648454536 -0.0019410730202501813 -0.026943912136278985 -0.02231542199168161 0.0028493282970971268 -0.04222087588080917 -0.008353657829580866 -8.366180558928592E-4 -0.0012825568175107358 9.52103070675915E-5 -0.00940631147502098 0.0034151279888482247 5.025279902395306E-5 0.0015035403747418932 -0.0034210544363008186 -0.005302081982068303 -0.037591899587697826 -0.006137619738927437 -0.008118098481552266 -0.012570473514171203 -0.06329948350403553 -0.008092343371443263 -0.007395436647654484 -0.0015255790409108197 0.002324942240236819 -3.8339099597278303E-4 -0.006549906853696253 -0.007244046968864388 6.97280552202567E-4 -0.00542926919662929 -0.01844337724443956 -0.05519799661514179 -0.008200807438497121 -0.11335925831228372 -0.001712618809190669 4.4508472944227714E-5 -9.083115367017407E-4 2.935580409556065E-4 -0.002995684173211201 -0.001332389820124893 -0.005796105553423865 -0.013521867386461774 -0.011158021151529494 -0.032178812125543715 -5.744385869084434E-4 -0.035419532054200745 0.9650947877347676 0.13077896507127407 0.07332460194070681 0.1012677720557097 0.1869300125776382 -0.277143889533453 0.17925577691310698 0.1835822017019615 0.24942618813419853 0.11823538100614435 0.15305381039284868 0.16186886181921994 0.07225774403909715 -0.08428447999973865 0.15558983976331467 0.18679696356342476 0.1957517836561315 -2.7776314958395116 -0.5202753424715041 0.1436343190708171 0.2131779349668327 -0.487626181927751 0.11747277892169303 0.2582447020439021 -0.059636477964033194 0.12544421481955312 0.12998395801327806 0.13130112941086478 0.14009056331589423 0.15759533431936565 0.49702383206807693 0.15336000926872023 0.18979842866669255 0.12312253537523354 0.09413542344944296 0.2696798044346763 0.10816940915683783 0.11313583541131196 0.2073394073428155 0.35093321070698585 -0.06169248859315652 0.16920163655776888 0.06466981035073327 0.285065126816764 0.10148523086114096 0.04811727471980305 0.05232387534513496 0.127020217017295 0.04845209069305892 0.1735771178270921 -1.8187616574148364 0.15296275714329563 -0.4507716470449752 0.1551142359673059 0.17964056497539754 0.18275307997293472 0.04751623894349373 0.08567469813845453 0.428682258921148 0.22133206304150588 0.08687832563326119 0.2320445884557506 0.18372723193576868 0.07363426227005354 -0.1674713060114679 0.09961980023565405 0.06198275306613795 0.09501639540501139 0.1882468171698434 0.37777394182781887 0.15850538264298175 0.058086418901202024 0.17775467612965756 0.09900068456939026 0.23191861699326052 0.09845466168233187 0.04547960672123891 -0.8923790659520792 -0.10198334126044284 0.09689909106406121 0.3072057832683342 0.07938452279573757 0.20591974202102836 -0.5511559983126793 0.2182430381349856 0.31590901572526586 0.3383649734721806 0.17289336454210816 0.08514179203834377 0.05469978963415773 0.15385688665344002 0.18026552309023341 0.19093094921091913 0.11324315803839234 -0.5795580984270696 0.1967538188225358 0.26083601405964374 0.12575982109970585 0.09729398601846831 -0.6291482854371989 0.08749982721396161 0.05701007974633985 0.054490899082759975 0.06790192228254821 -0.029181726807383297 0.13752618433143265 0.0602739228910454 0.46399707076759206 0.13689344749775717 -0.01624446812592244 -0.0044647498132062684 0.16153112204930384 0.010886295094731512 -3.3627317173854108 0.0658939180004534 0.18757052488523832 0.01917064919907583 0.16017819674555045 0.15480928820876563 0.22839508300106487 0.07326837912165313 0.08513092544569317 -0.22692068286215525 0.2991129831141628 0.05568801193357927 0.42485347647911614 0.04319789086831937 0.09657020690758622 0.05243923808261729 -0.021808352255480647 0.029320552458221787 0.07345662480009937 0.39356621911867223 0.08755916655585026 0.126988494081901 0.17035495546298188 0.036114875803830895 0.07022863359685513 0.1630169616202963 -0.011383748198113629 0.3141176879751547 0.07500765879668056 0.10636799092038571 0.11470496769935522 -0.6710442208440968 0.3171509925045181 0.24618213264849798 0.09567867303978829 0.2546905440834144 0.09101719447230447 0.14093444290262216 0.18479626179334355 0.030145374295221246 0.027660038303918 0.05056053537723066 0.04891452780515612 0.10578136807631582 0.30756109662789594 0.06243596729240376 0.08621673925306401 0.040844614185718386 0.01484694483502396 0.2828172175530915 0.012267466198656913 0.024596349748265495 0.10331018747991347 -3.8011110213204335 0.32299605663896364 0.06790584419292205 -0.05064717429640852 0.17296147371405599 0.00961177124183182 -0.028964621193450193 -0.011912387910649328 0.02637440699367895 -0.02951281719566578 0.24345186715068196 -0.7643859806790689 0.09479121622663667 -4.403874286658796 0.07655284001634581 0.06206957130817675 0.08491276677931826 -0.08361072777122087 -0.011605941348303343 0.24970316083444136 0.14209631246217422 0.03350409646269002 0.15676889400321117 -2.0818248638715935 -0.03368966691776113 -0.01050668377591906 -0.427696999503545 -0.06438100131231964 0.1017054484204751 -0.14618933419622404 -0.003834834567020423 0.0964857341684064 -0.049959939860958716 -0.0996039603533879 0.07562667086516527 -0.04162817572039404 0.05509789437493344 0.16581509532719493 0.10132290951673839 0.045722526780361934 -0.044283891227998536 0.054574731161247204 0.041902896685353866 0.015795294690250896 -0.005120564851943079 0.10256737039299867 0.03228803683404204 -0.08880196639938345 0.09039015489242846 0.08978319797860655 -0.01775522467334801 0.09596334039042503 0.02605066426136277 0.11966590568634713 -0.2417531237906888 -0.5334355137896388 0.0635508147829109 -0.05303506665137919 -0.05646123561908427 -0.06671335759893068 -0.1847888543892564 0.03483562239661428 0.008722335912226346 0.06586212845404638 -0.005997340937993757 0.03293035603201073 0.26476217005211933 0.06881715653885756 -0.11563871413515049 0.3863184811003933 0.2411764316395147 -0.17545957025234002 0.02813215680614712 -0.04306769794561791 -0.0025139245300267064 -0.023011949001139363 -0.11948676197620149 -0.16285495562433522 -0.021769693666240136 0.07134374106253513 0.041808241181194784 0.07167419544000478 0.1914497330875518 0.22308448563817534 0.0449495553856378 0.010510263860576668 0.09829511257156494 0.019361210072647773 0.16890880728212776 0.05762550932818873 0.1381812920628113 0.0064669915049407846 0.06096221882630102 0.009651903927321898 0.05493620185699764 0.04372142842420263 0.43652620346321114 0.03850293041206088 -0.054752081001762785 0.01973623205249148 0.10186646819850258 -0.02544140778465238 0.03039100135361368 0.027098790967870892 0.09847376873167428 -3.8374705727784125E-4 -0.06812285230971134 0.09458259375476957 -0.05771693158355745 0.0076002558014897584 0.0666677480611951 0.02257905689123407 0.08663331580889436 0.026606900720771855 0.07795044995162519 0.09287633346379941 0.15641741219583238 0.034436462148889194 0.039782462053353534 -0.03219166375830808 -0.09440988323492921 0.020534398545122606 0.005754517253291105 0.004992903177552547 0.0369284152122799 0.021145180676674424 -0.026257315185334452 0.11540446065750763 -0.06830820848177747 0.333406673229167 1.057850724699354 0.027126453297889395 0.26717057375113823 0.01027510064519236 -0.023588908529566823 0.013856028661229734 -0.012951062283588227 0.07734022194891471 0.1271877172433032 0.09163787994947019 0.08991537553631535 -0.15232151547559822 0.058095576211175726 0.06637192100845828 -0.05184612350556159 0.02494412644200659 0.004969510880859562 0.03760185344953558 0.029976633349174952 0.08734042539807418 0.15214135024836756 0.03766528084594522 0.09458848666639273 0.40856616685701325 -0.21994334922572226 0.08052443886963648 -0.11159495561797192 0.04522329696609538 0.04062281822452711 0.03342089935118902 0.11756065093825885 -0.030016891585676983 0.048178137791970645 0.03650946183403823 0.08100592409751935 -0.004165903478770864 -0.06340798134129227 0.06213800617321897 -0.04958218220448526 0.03991676941254394 -0.08920348567762733 -0.09976806939361908 -0.6385740635647487 0.024078810338239224 0.09856047873408971 -0.5050581852271784 -0.10951574023381105 -0.26619557076574274 -0.47600489868152157 -0.040778276270906036 -0.14643142640876985 -0.07199114406415731 0.025602093759803015 0.007455099542486785 0.05502999740025877 0.09056148047898231 0.00517546393463487 0.17098740370692403 0.09221546663713742 -0.18256662611702995 0.7589397032074752 0.16732823269900687 -0.13293705445385587 0.013114621371336097 -0.037144505535185696 0.03831503642088621 -0.019640878897753372 -0.0508190110470498 -0.12735286512432434 0.051999377417307056 0.07087700124133475 0.012967123616663216 0.06538672330692906 0.09622013613444932 0.464070814780837 0.04129183063765285 0.008938339865904673 0.10237758829280746 0.026416322763675844 0.13065174472971616 -0.1494299808095589 -0.05034376616388819 0.17462225136857265 -0.021979714574938965 -0.020938172445265062 -0.137670918555235 0.0013526816754881152 -0.3241430491179725 -0.18086606713509557 -0.023398574236127238 -0.10024488700081555 -0.008821691468659206 -0.02710390353424586 -0.3547775041931832 -0.06769197015165514 -0.22929548365217406 -0.03509426841439849 -0.21255345982455648 0.22948801900752017 0.11103422399086554 -0.01829421722656027 0.004209131893254706 -0.019667157369806232 0.031254878142479826 -0.027941184493288047 -0.07875233926089655 0.02807566431390155 -0.013222069066323673 -0.14190976076314918 -0.22006131373230486 0.33857000602993637 -0.15386601511884213 -0.011679818418744969 -0.006050052314760255 -0.17735515107433789 -0.04086139617837812 0.03516734535249071 0.006152894626802044 -0.15774448036637537 0.2996544299606649 0.0407754198682079 -0.1370511003055226 -0.05910980410767377 -0.07930134265160109 -0.08476872768595141 -0.05298651834687654 -0.015608646926119274 -0.6770591338690827 0.04560017677589306 0.04251824629019837 -0.06962908484097599 0.014096718734180336 -0.04646614597927391 0.1946451258693425 -0.08457732718408915 0.0010228225921379592 0.029967348513402242 -0.05697795073826506 -0.12179316089378611 -0.06098274415546133 -0.1066214734620594 6.302258421009699E-4 -0.002019616420851183 -0.08660931080092427 0.07681053583798675 -0.17191468069644955 -0.09049619801083653 -3.089624731867949E-4 0.08815919195702081 -0.004874802792068866 -0.027948054820411128 -0.03181156871325483 0.18424488882561288 -0.20747656105533024 0.005116823099438288 -0.17785986375100757 -0.07313748342196105 -0.023267578536927815 -0.021416731234229464 -0.012540300571202756 -0.07978619277101727 -0.018531660519663505 -0.014764064351923843 -0.002950235234376954 -0.0407293910704727 -0.06208071441824067 0.20713121401177598 -0.06818715602519627 -0.08459089156821527 -0.09993377777192033 -0.05876257701773781 -0.025543377798994633 -0.07043996724522973 -0.026205008449721016 -0.010390189998004761 -0.012003271334491295 -0.11461242077350299 -0.15248847317980613 -0.005775987796651976 -0.10209899395128327 -0.16389274449091273 -0.07964589299994011 -0.08882944702929163 -0.16383988534504032 -0.030084560132563467 -0.02720960660579321 -0.01753971651998435 -0.0018188324256094642 -0.037605188381912395 -0.027347322151445527 -0.07256034067208132 -0.13588573746819982 -0.13968728024277025 -0.0071378736841283125 -0.013782965880729067 -0.18228913844233507 0.030999410624352068 0.15439174799533326 -0.04007324188729288 0.043077442963475675 -0.20631246445021462 0.025720582115072704 0.21018548611050608 -0.5254090721068936 0.07677798152613499 -0.09123682158215268 0.012944977088517723 0.007665499568559108 0.15303720612712127 -0.06323038873595783 -0.2998577069672149 -0.07590131721687612 -0.23709599675229318 -0.008882489534355106 -0.007364536224015992 -0.019197798825938677 -0.05920520442629805 0.05027782828707632 0.07237699432958827 -0.1261744906077231 -0.13766714297661817 -0.01778841532728603 -0.11475933431693815 -0.14578428020763468 -0.21951090453963068 -0.17684102382064512 0.06879649453211648 -0.006313499753594686 0.025507788422858942 0.059410492263039925 -0.02256913847341032 0.20367883709529594 -0.003831345522976375 -0.3060314768773654 0.09198818314604751 0.025993457041775248 -0.25657234028767656 -0.011912527618013211 -0.06922870687883323 0.014580929093913092 -0.04947137042586804 -0.028538692336130596 -0.16995327662921347 0.038511187885024833 0.040371292195555894 -0.04959453566082436 0.037304694104059136 0.09881101922938258 0.2547542760752032 0.004613796807809262 0.003755045174682153 0.025602819976981654 -0.07528887806731564 0.0380497055000726 0.08282949025719936 0.0906985899005147 -0.039755748227347475 0.043679675018046586 0.21600860000371266 -0.06834105029072218 0.022720300516512755 -0.061010483118081965 0.0746646341656577 0.0414139125840724 0.03368322166915655 -0.024776225415701545 2.2946108904736695 -0.08916492433176265 0.2257310450562214 -0.010843243738930433 0.0976503575790646 0.05847215896537721 0.1341106341365202 -0.02241079103703628 0.12207038512293458 0.11318548407333243 0.21215158949951035 0.07784967070471857 0.013385640032411708 -0.09439365417512376 -0.03710738618310956 -0.06739682839577209 -0.03179036173264065 0.00939210923423816 0.08619829279258125 -0.0023413486378612387 0.02026318669871521 -0.220247047592416 0.06968254313470759 -0.14523630292595793 -0.02263780085829055 0.13443515512710383 -0.10593283480030415 0.04803062106432893 -0.06625007395477366 0.09783211913654494 -0.036282738339541216 0.11940747057644986 0.038727461152493745 -0.0019057124425982373 0.04839667159526392 0.024138652677493502 0.05282462985227883 -0.32144402253586096 -0.24737806022461967 -0.2152207380005934 0.01397093313767761 0.06488756412396919 -0.08478727320617424 0.06609837799468617 0.02105876915286064 -0.10702487993160914 0.010949889743418362 0.5661072398343644 0.15992410812683902 0.04839285206786683 -0.10539544578730689 0.010400695188093485 -0.02207515466771388 0.01727162985355128 -0.062351425082842755 0.971366922669072 0.05216232448725 0.2750072709802086 -0.06595793753385862 0.030027268845586524 0.04297981581376548 0.03988922586915538 0.05994125627514395 0.05803723345702764 0.02748997396453684 0.08361643300019804 -0.0033302381592601846 -0.040646490921403586 -0.18874720257379266 -0.10127127938420315 -0.11515961892027411 0.1907752921873726 -0.010698220831333571 0.017902677784916183 -0.03683992479046496 -0.01686411031327732 -0.14365247886124638 0.024118370922952825 -0.1896936541330063 -0.18613568496954921 0.04695156488544846 -0.13373987720693073 -0.06708056183859974 -0.10538343162483912 0.08561422625987021 -0.07038903986288755 0.029530087473781778 0.015298046239964417 0.01075193845360472 0.024801774842966036 -0.02833916573275436 0.023625919060901203 0.18176189370674897 -0.22483876968870148 -0.11788618519320357 0.005320004692459775 0.01837222011457787 -0.22249541608933443 0.044984851620160346 -0.019606553062701492 0.07379137891445933 0.1070979282643774 -0.09012656518215138 0.005230255523362457 -0.03315808502018309 0.05460904378358589 0.04602281585852794 -0.14779527961864136 0.006995374917229886 -0.21134165230245577 0.018737954820659427 -0.07638824508753143 0.03214308306579774 0.26947879422265064 -0.049127244760889345 -0.08602634987465474 0.017571427250963608 0.12472110694104002 -0.36722039971095083 -2.257503156526931 -0.020929534377473375 -0.1560961880193864 -0.050367446477006 -0.18941628119025705 -0.08254191464535725 0.006446282832557626 0.01119495288273927 0.06983215924031044 -0.4128952138780597 0.05096112238422924 0.2956670401973581 0.14661646628447284 0.017925490902207387 1.6967983206899944 0.29020476524933814 -0.08867429398020289 0.03337002110588043 -0.027124407849246697 -0.09255494833278881 -0.018362845276778533 0.02770885174097225 -0.3182180837214324 -0.09251061802798842 0.1058781328294802 0.10985794370533249 0.08497878348316598 0.14377040543794609 -0.05737668397563014 0.07465484644837393 0.010394643362078144 0.13945037027288745 -0.03549161745772622 -0.14968268887480235 -0.046494697667934536 -0.044215544680819716 -0.07850443150538348 -0.05217860632290935 -0.08510223641414584 -0.019839109449674187 -0.06273623098972 -0.013854826800851146 -0.0812896504834936 -0.2095624141323088 0.008402729544526949 -0.13390218274410137 0.019084197141633136 -0.10077063904642823 -0.10013570125030075 -0.011672594633574817 -0.1434732402390353 0.002211087392876242 -0.018771358155106693 -0.03330561864502413 -0.041108054721781584 -0.05843723106845321 -0.12040864908554298 -0.08617144532929283 -0.05275965221984158 -0.08443806389406051 -0.018064846517531118 -0.04082465472447175 -0.0144950093937862 -0.05392920286439329 -0.03705410219237665 -0.05490423679628555 -0.16167254388902247 0.9214975465843844 0.01972881170170171 -0.2157985061316466 -0.12027457491562916 -0.10131551123988215 -0.20588312612461532 -0.055795580873595346 -0.030637693280465134 -0.09277143465829298 0.008378073539363862 -0.009780943056195316 -0.08988239962641492 -0.013573396730277408 -0.13646468415015914 1.5055113527583426 -0.11976355787918957 -0.0015416842404280756 -0.03311548091340187 -0.09016961124546478 -0.05544125413259563 0.07917307689591874 -0.019084692046116958 0.10929914841598186 -0.06744251954005649 -0.01472075488037212 -0.08758988894287989 -0.020035999629326704 -0.047477078981195284 0.14083958429446178 -0.0191723317657369 0.21393580521826863 -0.06290479226411574 -0.006487697414951254 0.01911217330198663 0.022439490151440738 0.16499947913128227 0.0013959211104749892 9.420649252074981E-4 0.022076798493087843 -0.03304068027288825 -0.046108155275844415 -0.07746227043182222 -0.08820559364383687 -0.11676836767956338 0.04423849445658516 -0.018490630352851794 -0.06377676719616311 -0.03932698697644713 -0.027807858868983237 -0.01154750856457825 0.010244025692913156 -0.1555364415608732 -0.10167975427505903 0.023663235141994407 -0.11489549481233659 -0.14119390456598227 -0.1034330728318744 0.01472964126060329 -0.07660337993279383 0.018566415995744306 -0.02304660273288605 0.019257491907383933 0.004257822098171737 -0.03915879907951878 -0.0032858040523606963 0.05292843936468203 -0.21018293893399462 0.07864521276676893 0.001990058123398135 4.228509127321357E-4 0.06409127711201267 -0.03283846072247385 0.029059834445170792 0.20164394190842622 -0.01790152071819425 0.052120029389086796 0.054546567361960056 0.16479177446383012 0.015111604296564433 -0.07843772057501024 0.11069354149973851 -0.056115981434014674 -0.09596708168859694 -0.7076781570543258 0.04888907750631139 0.14511037686492484 0.07109059399247972 0.1090023071502914 0.21389693319471081 0.3690040908803331 -0.07775568652646252 0.10375348295979626 -0.02392831702641217 0.2538404880138758 -0.10197382822423927 0.04402043985984702 0.010665664139763192 0.06550411375336569 0.056833180436526916 0.04136657814282898 0.18934133072586837 -0.27464697948722055 0.650907311688056 2.3492041116408284 -0.819332221854401 1.9597718593656512 0.04148300480530397 -0.010687128222884376 0.06934606097115172 -0.00902233964440655 0.10474504911897707 0.06847654414837234 0.17385639454271642 0.18056574582059293 0.1509607389469836 0.07839431806085954 0.12104296638886847 0.004900861333074454 0.06992786361613422 0.007014839385240877 0.18229286819524546 -0.19169185869244973 -0.05228269428010252 0.0542523456445116 0.10697008652643702 -0.042224304562257106 -0.04971385904966448 0.010358507086874982 0.13875546312082612 -0.11634055526529345 0.03558142246282507 -0.1303104691289983 -0.04975641885582821 0.010114030673581121 0.018302110378155042 0.026575224434539288 -0.053656690704831825 0.013729951545062897 0.034463134733418076 0.043934494984272855 0.001605165925636655 -0.025224470152482435 0.1770571681897067 -0.03950597127960596 -0.05555046907722887 -0.0859066162319366 -0.023847828606242436 -0.030417556307610828 -0.03268822725992176 -0.010749243126900133 0.06936738702935014 0.013847595871024425 -0.09619616242687949 -0.14411230927119334 0.028104905987157335 -0.07857080190654216 -0.024131743035422357 -0.25076191111233137 -0.013802326318177585 -0.11260862481022196 0.01628756763496663 0.0034487574456199214 0.02507545115319027 0.013381128558147763 -0.01737724335807512 -0.052162222255017425 -0.01938657092817959 -0.09274499349079365 -0.08515415565221851 0.007616104129323753 0.009633147042721932 -0.26483673733571467 -0.19879929021772305 1.4238327589475994E-4 0.11396694397677405 0.20110966931011376 -0.05597759912101968 0.048263756794431026 -0.14780698196449232 -0.5621283904069705 0.21536162057170372 0.09550532250599571 0.20764019389139887 0.06681078392022297 0.08609735136604282 -0.11581525604553182 0.23219398839087632 0.03999489060475923 0.11309622885111092 0.04707377228966226 0.030239210609256825 -0.05743906427531586 0.07395904856360569 0.11880068444066605 -5.225721319476959 0.03725240392047025 0.1665499982798631 0.21231334695169318 0.10699147225531373 -0.4892343930814836 0.10922836696776557 -6.334039126264546E-4 -0.10568626071016125 0.14937971988581575 0.007812089263996131 0.1527549235272721 0.026834649247875396 -0.13063416296138908 4.364714268219542E-4 0.0032337561437712423 0.44090547851999595 -0.2281368173945357 0.10773036188587272 0.12615948041087702 0.1591584724445461 -0.42699349054560937 -0.28904693007764 -0.49682345624362756 0.023251445233720382 0.11088885349860637 -0.004940127638996325 -0.06657569167904381 0.04184954548708038 0.016186984652162832 0.06633878555453507 -0.009897581689908322 0.0155882433706487 -0.2757952340679073 -0.2302471164837537 -0.09886965041631517 0.13287741440141843 0.10615576438816886 0.10014787032868379 -0.0654587542426357 0.19661661669925212 0.030122019545569846 0.1544064798478829 0.035166839057009014 0.00946768135396222 -0.11210213717911 -0.03444147462240532 -0.09196681330465917 0.14669243334916993 0.006946534401587659 0.04997356349712068 -0.3867660088569271 0.017270629170419476 -0.03746297449286369 0.08792088221507527 -0.18634061685238146 0.1381617052363962 0.10803682984917312 -0.09094693910593098 0.030043003653362176 -0.05018406658581783 -0.020736181654013305 -0.038031754015714764 0.0295691768504569 0.1023000298705178 -0.00706093331863866 0.062440483113329295 0.03631430497251405 0.0964454525208061 -0.1247457472853454 0.11062558237287666 -0.07989048901397953 0.011321127771416162 0.06749976422193012 -0.10309037431876333 -0.03289979313170944 -0.08303104670763217 -0.029589785645311232 -0.09639304855365945 -0.012542881044753493 0.014834607604547396 -0.11407226761514355 -0.0265554861139165 -0.066194296998543 -0.07472789615230725 -0.035973391724375296 -0.12413509231992516 -0.00181444427684494 -0.032454931431502576 -0.032030701338837016 -0.048168803838350274 -0.10242634690545688 -0.15805503207102944 -0.15197858237586143 -0.11663614742207383 -0.006366544000920526 -0.023801968457915202 -0.058269614104848926 0.04842143332649169 -0.05106368727217001 -0.07591970456382212 -0.042245690441510754 -0.20385593807720118 -0.08622939243428848 -0.0068556629359259 -0.2190631913469269 -0.1663134999510303 -0.11850375036958607 -0.002997393570807993 -0.07253996999336396 0.015020914147989032 -0.07419227512031325 0.046672145383818316 -0.001976189151353979 -0.08492161197423904 -0.009921208716038705 -0.10851158458298019 1.2128592355365742 -0.1320249966477302 -0.0027995470601199133 -0.027679403508577907 -0.13821784544333082 -0.007594203072553822 0.10726631528885673 -0.14422708477427634 -0.007637571561308471 0.15991293704347467 0.1941226923019058 0.04733754788581554 0.07535257559726122 0.0702084721078931 0.0809956195911445 0.04080028049752232 0.2962898133378505 0.08457017567366393 0.10954847042915039 0.06415159511138922 0.03926756170552259 0.2309175937683957 0.03679763459801728 0.04254828786429114 0.04772348286098313 0.09209747116001925 -0.08305174322794719 0.06571205027608866 0.039968934804320094 0.15044706727319315 0.058626002062601115 -0.011756886442069535 -0.020854200652745278 0.07805662153248215 -0.001976376380525735 -0.028529246780962962 0.06772173804616446 0.05917313517944984 0.009922472960231882 0.08167835468005522 0.10337346078999997 0.08430559267787115 0.0407366942489808 0.042960264200469216 0.30198024142869667 0.09226977818187732 -0.0031850012876248274 0.07442242288433576 0.06134011425063121 0.049201377991189045 -0.007939439280538904 3.296315448195481E-4 -0.06356535569821586 -0.15426954682490035 0.03180134413428023 -0.20854307869536481 -0.04294025376398453 0.0021414500488119064 0.003880095378166161 0.013723956801381923 -0.032166400016528436 0.033403485110132324 0.010159926379033443 0.02420094178143 -0.011099369587333258 -0.029167236190873563 0.0070763231446493435 -0.04131390247423479 -0.054434637507157733 -0.04863931269327993 -0.03167326013498866 0.0015742444735149996 -0.03205562361026454 -0.010485760347608265 0.04414590728242688 0.007615854097652312 -0.08396900895023633 -0.09758066327251025 0.01666288231914395 -0.06795712696779492 -0.0706824555967526 0.12608377716950483 -0.03529708122764095 -0.1576095553692544 0.007068631148064 0.0036374221984767172 0.009256815649026664 0.007546121825516129 -0.016644937840653965 0.01319377022479785 -0.010783680701037076 -0.10052999277282583 -0.04668041908014759 0.006590376681250346 0.0030961612691214977 0.03430191767681156 0.05676316170998051 -0.058699654157812794 0.06222030796937981 0.19928374194490459 -0.04114887476595804 0.02976414642093908 0.04230186902279885 0.03806134982892019 -0.02255316060102525 -0.0076055931107856444 0.036883111941786985 0.05917714933496558 0.007339407754662702 -0.013898642455899904 -0.029206675811614083 -0.03474992478514892 -0.051389574882847636 -0.03584763099872304 -0.007382835534623995 -0.03899918830373227 -0.009493322360072777 -0.005922168010010426 0.07068325597235514 0.027829163520198045 -0.09767336062756367 -0.1302627575443369 0.04033400592306059 -0.06805014565807993 0.21947092501878962 -0.06228258193816935 0.010667630910812404 -0.0890286673754333 0.028319851582422395 0.03339881672946363 0.057438668472309745 0.021321179945319298 -0.010059010968934894 -0.028847116330007003 0.02209323894249939 -0.0983613448175188 0.005110114661398723 0.011805683611383873 0.019522328245515523 -0.06421280793203189 -0.019027716493585527 -0.01513218868589492 -0.17784422202665723 0.022549488636122474 0.0315824701471079 0.014908471737100531 -0.016757398126063607 -0.004960621491041481 0.03870623514463509 -0.032755520629451786 0.003715638422070677 -0.021600599179237054 -0.06808261522290356 -0.1397933116282967 -0.1385899127958855 -0.05945134336193589 -0.24965639632938397 -0.012768565693322513 -0.0017504825300896651 0.3919085885876143 -0.03360429962718153 0.010879454194509253 -0.019097352367508758 -0.23255312869657438 -0.059159098282947804 0.02667974531340459 -0.1887118692846528 -0.07162914556812093 -0.0958251536292308 -0.01756940933113428 -0.05714043031779318 0.002228462955592358 0.017357057091905485 0.00485594439851811 0.019367999246977827 -0.07513180087998474 4.0017404028660304E-4 0.009536732683509644 0.23269108873512406 -0.10765973866711773 0.00203212025515927 0.002567277320922643 -0.11189692710509022 0.08456221145534416 -0.17436278034240843 -0.002392399507165143 0.05294059101336455 0.055795381082330814 0.07758298361320304 0.01859446298213421 0.02233453050621175 0.08547566826062358 0.1006310106498455 0.05391032154284277 0.019316091645138242 0.2293086833761714 -0.0018786479898124085 -0.01162798170482446 -0.011456942787171947 0.02696245558527473 -0.1269350738582689 0.019522272658867953 0.017673603921765885 0.1358272884839206 0.050425474604285314 -0.06153527902961419 -0.061776477625779924 0.07280341411389135 -0.044370690932784604 -0.13585709778196137 -0.03805255644746579 0.03656252800987939 -0.04387883204380007 0.09055317665880719 0.051169596860187405 0.059186140501357766 0.032235155563341986 0.019896334195685268 -0.01465384135836128 0.07498158080178001 -0.05513848563444679 0.03763912412825916 0.029620684767887193 0.039872745224111564 -0.3047154321919883 0.9980463035182193 0.003114238121858717 0.22647323768445288 0.1893763638258741 0.25895298040106646 -0.1470706972181685 0.18737471634625888 0.177689516048438 0.3654410225285334 0.1342195540308748 0.12528787292964066 0.04505554637224334 0.05681399955945828 0.012298098082307165 -0.07375796824051369 0.03794018938882932 0.16149452817456947 -0.04337399565137153 0.0753949275339659 -0.626830071777198 0.18512048281422697 -0.05443851448004279 0.20174852321849696 0.22509386739704226 0.008256192545975267 0.0950289941598155 0.007374008462674242 0.03984571898359784 0.002989440950769316 0.1147528812098472 0.13117888077305218 0.03708090474882054 0.10024726944110256 0.12069056400750003 0.08417283315512342 -1.4656248302393127 -0.527846682592174 -0.5515821823952273 0.02520796405236331 0.13214540399845767 -0.28102274773188046 -0.18883400595021727 0.008094969984186257 0.012164266447980493 7.655505050074224E-4 -0.010436204058748962 -0.008197493774416852 -0.02414286005030881 0.011376794047928561 -0.019249282604736764 -0.05102860976956615 -0.18882601590012185 -0.1329788887284056 -0.15813426326519597 0.16902852026839535 -0.025084912711379612 -0.03699494734922958 -0.11025548005271989 -0.061475563672186505 -0.040448676475139604 -0.014745757210172957 -0.25994833928237154 -0.04754146837652159 9.459075453764523E-4 -0.1546451326437177 -0.0696230722749067 -0.10982914429078568 0.028097021134926722 -0.08154284945516345 0.022646765293508994 0.026816365165359173 -0.05437535751263162 7.852573768742527E-4 -0.08224828996321708 -0.031923928647899835 0.018780164156331217 -0.04976250313546987 -0.07763656560408237 -0.003503319047308759 -0.007823740427127622 0.13846775578752285 0.15295439133615124 0.11066572148733378 0.14965013460862944 -0.1608805515943177 -2.7663566353131244 0.14240038411036296 0.21847475795586543 0.12945467838150262 0.07756957994470334 -3.2662894797531643 0.06968490820194805 0.12367966282111505 -0.1067536190928641 0.08239164938405591 0.09072283412101033 0.15661267772013918 0.08447138464024916 0.11187969495573243 0.11143248416425447 0.006607130229117726 -0.012605256028451724 0.15589377866125279 0.017645499581805314 -1.2326177986801004 0.12105150643423786 0.022411762500029037 0.03474194975345844 0.12588317773539884 0.19634829318746497 0.10114288670274643 0.08409776615622662 0.09850912320364442 -0.564789526592903 0.04424595276819604 -0.04374485322594051 -0.37960533540888064 0.04719813436895294 0.1016368021198338 0.024443432593587403 -0.053727630250970694 -0.035216592125537786 0.020108032520602493 0.13439589428814086 -0.06263807007803575 -0.07963224620221035 -0.02376663200018353 -0.04927248367118519 -0.04633306207290623 -0.09411082367754477 0.2589312579491776 0.06379750750323183 0.009168313251826366 0.05262859567372702 0.16554834140368252 0.07346428036640863 0.10365794217996677 0.014416851694397827 -0.09669636830444817 0.26300855609023316 0.03842926455549152 -0.01751157400240665 0.03781069226368317 -0.029359834158580823 -0.002415118670590099 -0.019288526418449137 -0.008195461520465167 -0.13632872818894523 0.015205832523487792 0.08330270036754249 0.04843654250856624 0.09201854714238551 0.07441193098463542 0.12040000871749028 0.004764373960387675 0.009310704284164022 0.0759502179187059 0.010245985972214874 0.1416843505526874 -0.06110574772913036 0.01768662555801617 0.11723486209195476 0.09616146280282527 0.025559086755143675 0.1914835383826556 -0.09942516217141328 0.22629531184937723 0.07753289317974822 -0.11838577437337947 -0.009213177025793282 -0.006707462678373905 -0.19543849055421422 -0.022793927119938762 0.0317498697274933 -0.05196568955551265 0.9643930305738675 2.3110398894044235 -0.010500841704290812 0.26362830153598643 -0.05624438566522736 -0.06681043786263587 -0.06751823071733605 -0.039571809209824324 0.01715004072010362 -0.06824756311984036 0.021541035833975392 0.03992607726502838 0.020260321797207045 -0.0034254509349660764 -0.04223275396259935 -0.12027177368086459 -0.0722431462655341 9.270170268416468E-4 -0.02182948827494541 -0.054476931068034654 -0.1283384917568948 0.011888965770704106 -0.03601331233357476 -0.04607517511434398 -0.02478303850171392 -0.03493381910307202 -0.10218746147706605 -0.010162563308089574 0.009452790528313545 -0.0984008488895972 -0.010957390368571403 -0.016071663737738322 -0.016365267999410748 -0.025415903001768294 -0.010705870773701448 0.05466915806349771 -0.031561601978829436 0.8896914184914744 0.030425427381263165 -0.06691142561440491 -0.08183017121671006 -0.07336470592269792 -0.0960531195788718 -0.046272867254665805 -0.02261223585198592 -0.04130729955484079 -0.017379017420647715 0.027056726489782145 -0.02524025675227384 -0.0020974487178498967 -0.08263928784441874 0.17752717107077315 -0.07782034385237964 0.0012424935864275022 0.008926074026668576 -0.07046633888232348 0.011079071484784018 0.04605718137720694 0.03988706871081055 0.06068141116380395 0.20334317956531453 -0.11522243385512948 -0.011175253983045069 0.09012048377941209 -0.06757201088563525 -0.014147635545739905 -0.022228695365480715 -0.044377506014434645 -0.045866645966434166 0.014538766853071856 -0.009603691923769267 -0.026392037829011932 1.05946152950341 0.05122210747034707 -0.258597888822705 -0.08172705194290246 -0.08553548741303782 -0.16178202538330655 -0.04787088217807539 -0.05284029989606457 -0.08532607832203709 0.018319916650534746 0.01298134248529756 -0.05712584392033289 -0.002342696688958745 -0.08590496913480944 0.010454005865648713 -0.09100732005586162 -4.174515299450716E-4 -0.01511883980041077 0.04869045079324551 0.0507157994856261 0.08701993114642949 0.017578740091669817 0.0014835235265473546 -0.08220973433440713 -0.03146667352859817 -0.04668275750574639 0.01734620353276742 0.0015870851652198628 0.04294858609507873 0.031451148345730956 -9.850717271789671E-4 -0.13646688007702418 0.07224483921876639 -0.10444470102439164 -0.17097720417161258 0.07376027344739368 -0.06911711793295326 -0.06842300742647141 -0.05928742044513812 0.056818125727547415 -0.04519705832142609 0.021489224590027712 0.010974325188528963 0.19273374012158906 0.045216354730033874 0.0017726880498448521 0.04802105811542693 -0.0016549068529007741 0.15189625954141245 0.06386653083797025 0.010024603381373483 0.044580689558234805 -0.01715880076164883 -8.774768899621326E-5 -0.04132972418769734 -0.06700041316919893 -0.11972179709298918 -0.09632646188523053 -0.1267343415420894 -0.21913671393851275 -0.03685729404669462 0.006478057173219082 -0.12842520972746824 -0.03688138108457571 0.016486710696657945 -0.016618398053554945 -0.17182911620167576 -0.17275062712848244 -0.006830497648238927 -0.13083600944627488 0.1437848187324682 -0.1603893340933646 -0.048681399451092504 -0.1265077187147567 -0.021604366541260567 -0.02050450934445737 -0.035168767137037524 -0.00247037468762606 -0.054381479757002256 0.02703624758344584 -0.0961148006826203 -0.1677121709245358 -0.032427192848200864 -0.00386614931015202 -0.014233307877892827 0.021194260395918867 -0.03912717008784389 -0.41111181240648265 -0.11378512885196933 -0.05835161556273236 0.01972801467473032 -0.03989038253720202 -0.01533189947213932 -0.020796621023200287 0.03988916130883328 -0.04925879597224788 0.027855264585979256 -0.020736717418363266 -0.13102158930815216 0.48842360909064053 -0.021002728561339945 -0.3520216694079042 -0.0823370117976624 -0.09970005215231549 -0.1443068780707246 -0.050058230715998936 -0.12355183317016999 -0.07302180620304775 0.029090266535537774 -0.002507313583663805 -0.07660167886348264 -1.842358661395345E-4 -0.06145396562924467 0.26582363649096974 -0.1001219086888489 -3.440695248144065E-4 -0.04264735660945795 -0.018456432836405922 -0.12331234714623869 -0.15666511796851684 -0.18470100298820774 -0.05662947127392887 -0.11231257128550366 -0.01982332132034967 -0.036351300795680816 0.08640709306755587 -0.06519667138124548 -0.03267319671396674 -0.03641027591482097 -0.3050611706617455 1.1986965268871026 0.006313468659941572 -0.3957427625777521 -0.1156104401682814 -0.11135492963283707 -0.18522614833219728 -0.06140130849365215 -0.005746554645282967 -0.14827343389083994 0.041743057655594405 -0.0025516376319226373 -0.12002066015514219 -0.01863158445631274 -0.16393045855607985 0.7522389578986461 -0.18147342542842462 -0.0019553152988873715 -0.029275886571877203 -0.1592709480371189 -0.08566156015259088 -0.05547539348162361 0.019961345213404386 -0.015277924285262206 -0.005078382423738128 0.009080548718895824 0.0317854560264586 -0.008923665472072904 0.06975403934969764 0.02843045767962379 -0.062047406220681146 0.37257994030932384 0.08888799538954338 -0.16369693461143686 -0.03203296609447795 -0.06570108869982236 -0.0013255340928090378 -0.03608785376543284 -0.016080353243728467 -0.0575773672991872 0.03017939491639048 0.033944751413526986 0.0010545286301860853 0.019553317847592788 -0.013493818785564052 0.18628422112255236 -0.040219944168513586 0.003725050505382841 0.031089251306556046 -0.052686293540386064 -0.015192166246831904 0.07787210237730846 -0.0010038780458006687 0.0023542616658142434 0.03112313217200574 0.022503416670689544 -0.00310609237128063 0.11636898817087951 0.07158501323117153 -0.06923999424645057 0.48613026794630115 -0.05840106834112744 -0.26785119016520154 -0.006922343091342155 -0.04040986537068892 0.022360729108133953 -0.02322960569531755 0.08962240368500768 -0.042130391322595204 0.058696882469588756 0.07078968377906207 0.015821255475632175 0.04337623718240708 0.035312968577562234 0.0981212861055336 0.008559969323563855 0.005962162192639481 0.09232171177312541 0.04016928336343877 0.0392737735886921 0.07386960797657705 0.055112467183251655 -0.24493125929968593 0.08566212434353622 0.04392896345737427 0.22433227840233935 0.08406921049854309 -0.029328572743970504 -0.00797237781154129 0.10533834840607713 -0.008711301741737138 -0.28358237621872956 -0.1291689524865594 0.09023776607032431 -0.013557349969540902 0.11593586515852454 0.12246543673982972 0.11515743492894263 0.05199893577665348 0.05521665867948738 0.03058948057642933 0.1702712292755748 -0.010958413055909645 0.14031338745889085 0.04175256156710717 0.06461452429953965 0.1936876807939199 -0.041969496405867314 0.005625170371195907 0.0483622597839141 -0.021429825081391955 0.00118478795917393 0.11412590515467944 -0.1470694596661068 -0.1740117608503676 1.819648265415861 -0.08357623845524408 -0.19801862617469107 0.009742369164165576 -0.035421655448535004 0.01660381454518946 -0.01897437109000491 0.046863265918129296 -0.039925286014475835 0.1876608385532598 0.06916269856746413 -0.1456815312760919 0.0558226322910511 0.08843011283453674 0.27274677548799875 0.00978089187876898 0.007048115623712925 0.027914226151062104 0.02744786591180727 0.01028827725718626 0.06601260496880532 0.26993875918407384 0.08776097377987081 0.15026553751528168 -0.04976279502092468 -1.470343635288509 0.3744366599228554 -0.044909776096434 -0.2208413209901075 0.04491619989497637 -0.02451476918996147 0.049083091430806525 -0.016727968533716248 0.03193288954422042 -0.16899341455435737 0.08795453543633606 0.09599156305112684 0.059927571185921166 0.07071334135201507 0.12777045457070363 0.33530429510285 0.031027864482915286 0.009286613992847727 0.07636046080646489 0.01082241218091193 0.06546553975740513 0.02171379226258789 0.021033227432877614 -0.1744781343990909 0.0762863761845949 -0.11447916376170772 -0.0475127018011681 0.08380014049687126 -0.06151643531362312 0.04180046181123072 -0.041597793730450174 0.00555193081046815 -0.03414671586646684 4.394635752793914E-4 0.20591602328647463 0.10672697731002556 0.05994218635480671 0.030719541009244067 0.16140388885879867 -0.10518592265468457 0.026092484603321017 -0.17047093364650617 0.013696253576457115 0.0563082687406254 0.019931003793491827 -0.0024416565010208897 0.0010707351758635567 0.027981503469760943 0.009572398494691433 -0.020395563853116628 -0.024875123286459196 0.013622182187674945 -0.015454074904551796 -0.011875386052665433 -0.08549699858961651 -8.634612931030774E-4 -0.24369353238926986 0.012390156291210827 0.012747923246439377 0.014961836943327167 0.005668874167464814 5.8910579901814993E-5 0.02632754420971456 0.007335136350882357 -0.022601926554511844 -0.0029018221139457795 0.07201289489394211 0.006143313367228307 -0.0369152321681531 -0.012857419772431771 0.06145335389360062 0.013896293074100022 -0.10317616091628895 -0.134522232211017 0.024387233327118323 -0.08164977848246831 0.08460439471370511 -0.04980297570688565 -0.028881931039048382 -0.11567897426540333 0.010779707982521581 0.0023766574251662285 0.022414793142852413 0.012001269263818518 -0.019593796644193355 -0.025722866377428953 -0.013248127770422004 -0.11896869177922682 -0.07083464102778626 0.00809234701521688 0.007391083758470473 0.009721598930611763 0.11594786573227925 0.06538920970716211 -0.23009794441081777 0.573475643646028 0.10403837668435403 -0.13171591947074135 -0.002062337500323956 -0.05787379015440027 -0.056748136986774736 -0.034388016121661785 -0.019109376781536052 0.010685174672968421 -0.09951948531662283 0.058515821228110255 0.022447325769854132 0.06661989972502408 0.08274781634344591 0.10729793363057998 -0.05286050138388697 0.008155462142670435 0.0593269827684592 0.044234041324273166 0.060121376568391456 -0.09145551019216709 -0.048657408763348856 0.05916260765279247 0.03326693017865833 -0.007230210094800114 -0.029919200204850296 -0.008857737825695551 -0.016740920875214085 0.020901988611344346 0.07998329161094775 0.058895630427849954 -0.011157916167226344 0.03766943211030615 0.02123711865282926 0.014544942265105979 -0.031106475307788758 -0.013735659176070293 0.001767355853624337 -0.01560363771507155 -0.006628008096252885 -0.21880142333283845 -0.2934232617662509 -0.007996987404330047 -0.20762194471530024 -0.2055378630103358 -0.16556996482438296 0.08071311766929787 -0.0871801331989998 -0.03507670127189222 -0.059362253579061386 0.031752083045632123 0.005991757734545534 -0.06432131309327481 -0.017577786059547927 0.11351841224345036 -0.08336131823787192 0.05083583489024792 -0.002812357083895041 -0.019132625837690195 0.2772846209334329 1.33506362862171 -0.02978562793544152 0.6102847065482957 -0.058193095040560805 -0.06005286579059533 -0.09354666439699043 -0.03616556518660742 -0.03441932066078702 -1.1028954248712945E-4 0.02519571818164137 0.021699062016533342 -0.05186681327527443 0.0031746364886093147 -0.05121157592637589 -0.3064161191387206 -0.06233708642445578 1.4556100189188901E-4 0.023330482648968334 -0.3139495866314974 -0.3402197228189856 -0.19358566598905438 0.09632728471158335 0.018487727180061694 0.11593244552399776 0.007034846279032355 0.11730777041071185 0.3166221456018577 0.23637973756476566 0.2640788263163275 -1.4874596838931282 0.12198947723477344 0.19845920028359026 0.2206050768552123 0.11380728258621071 0.008412877671720633 -0.004951266999358178 -0.6673965283354192 1.1748898001730015 0.11697495780316536 0.034197788213321485 -0.05835204929324639 0.006796020443860386 -0.1451693304976458 -0.6738058364001143 -0.3849994130141627 0.2560564093426179 -0.6499205623647843 0.1396282872749097 0.1391755686311303 -1.513699518529575 0.19881102830369848 0.009520222550874936 0.21746650434358994 1.1376261959490954 -0.07099557281367395 -0.07885068210060744 -0.11548113115065314 -0.04284680697390037 -0.047065868785270595 -0.040961440094940293 -0.012583490581123869 0.009820927772667177 -0.009295791037887262 -0.006864580831458297 -0.07001353755456954 -0.1486293805738145 -0.0908854560505915 -9.994385050780645E-4 -0.04333187669479464 0.06450111186985359 0.007877828254477994 0.12195099508524619 8.089929347066586E-4 0.2024292055700908 0.13132267822690136 0.17632929455038895 0.2664711161662906 -0.6164116573459597 0.09365775045292316 0.16055535549514036 0.011440555977141676 0.09559046223611942 0.007034177558608011 0.05799778782527701 -0.08697079997718901 0.05875364336286194 -0.05619308433597912 0.05811394019022515 0.0459376272498893 0.10354870919731805 0.03396112267914491 0.010417298554876301 0.012898413409671065 0.06165842483477045 -0.07305805196230848 0.06102188815763063 0.01976732393081032 0.03789578215245145 0.07373085864828548 0.009045156846495817 0.0928605393230796 0.07478790383786268 0.09593296873250476 0.035425613854233234 0.035697227694017224 0.08983584233182557 0.0987408359218849 0.004743884752603054 0.09105278247667428 0.06098209106525021 0.04609262749392223 -0.040384482676657 0.048430029514759235 -0.009079468556744035 0.06293544459167442 0.04697167498945518 0.02020267185986427 0.029995002383857425 -0.21333959925468446 0.4207171684362679 -0.11391748744903153 0.009178259663180071 0.05119133379685744 0.050708583781888826 0.05155537577211264 0.056689533189457124 0.019185867077067785 0.021448669630072997 0.10640794272057166 0.05979869814910271 0.003668125194161094 0.05190935396972754 0.12785631960769425 0.02547699086004365 -0.0575190962003956 0.0011529827620027364 0.023821477890001237 -0.01803900585926897 0.012822016231395101 -0.03186790740283279 0.15734681136586717 -0.04604191208989755 0.0016726582257003083 0.0040984990447678156 0.1246657866578117 0.008803558210769162 -0.18792280924104363 -0.009736360395084133 0.023055084449682593 0.2687763891432237 -0.054846581316345296 8.487167068042279E-5 -0.011155249099705888 0.004708080980792709 -0.1065025884991705 0.008664978979562737 -0.02665655905681265 0.49612719536847927 -0.1155957866282981 7.25179925220333E-4 -0.010228419490263822 -0.1252820274356071 -0.008570433548442261 -0.033636571234930315 -0.10528974898153672 -0.04533258939042855 -4.1046360203334225E-4 -0.06474932342841547 0.03217392522106894 0.01842791858740822 -0.06945900429821669 -0.015502160186885088 0.0033238046374936482 0.07667137006802796 -0.05673151760080803 -0.1021916615301733 -0.04485757189989965 0.0013254938018190177 -8.457073994439005E-4 -0.011817784339693181 0.15075411394566998 0.006015990145292993 0.0292568864278631 0.0418214297384731 0.01540102027393746 0.13845279054943105 0.012237773649057761 0.044582301395807544 -5.556527540175524E-4
label 1 2 3 6 7 8 9 10 11 12 13 14 15 16 17 18 19 20 37 38 39 40 41 42 43 44 45 46 47 48 49 50 51 52 53 54 55 56 58 59 60 61 62 63 64 65 66 70 71 72 73 74 75 76 77 78 79 80 81 82 83 84 85 87 88 89 90 91 92 93 94 95 96 97 98 99 100
probA -1.9641407623096998 -2.3992887919607107 -2.0138649953573835 -2.0104082533686367 -1.8922055394970434 -1.9756431504246206 -1.9622524978654168 -2.0647513256623236 -1.9746996364175706 -1.946446848592072 -1.9087901546412447 -1.9955344769087389 -2.0857144532513545 -1.9704882952508267 -2.099636290728786 -1.9893560233724858 -2.0177712727087656 -1.9820616674819527 -1.9244201399505267 -2.011990612162051 -1.9952373479151713 -1.9540126319241575 -2.0642712374359555 -2.022578537729145 -1.7544214651069054 -2.0520991399198922 -2.1982752886427606 -1.970924419556037 -2.0380652693226766 -2.140273981967286 -1.977508675782566 -2.061418377627221 -2.013586102059206 -1.8976229280942618 -2.1049805300567908 -1.9545959786503013 -2.029109664903511 -1.9601244427469768 -1.8856843677108348 -1.8929634500320525 -1.8692978793634634 -2.1744967576694223 -1.9683246958708822 -1.9878547997446894 -2.0423328023317926 -1.9930308964238839 -1.9811738689633591 -2.0841476799747434 -1.9722819127025242 -2.0556786880509077 -2.100492415443479 -1.9640011265609747 -2.095584305084353 -2.014980392953213 -1.9305071485525356 -2.0272644315149844 -2.1896874072308528 -2.11622564025023 -2.160865342207724 -1.967410663881467 -2.2897416581392678 -1.772596239988875 -1.9623491032318583 -2.1332643487762235 -1.965193822677361 -1.9733182871676775 -1.969025815318879 -2.0378528263327507 -2.0077187452991616 -2.020273091343269 -2.0084571028604925 -1.8620321260465627 -1.9601711674532412 -1.8872017296095538 -1.951418011522986 -2.1162140158922864 -2.006214861860015 -2.051470003258123 -1.4280241954998631 -2.0040524739047663 -1.9599734604582342 -1.968031859812416 -1.9932315971061276 -1.9632905798498288 -1.9552147758254013 -2.039904008303214 -1.966669842711357 -1.98394733151553 -1.8484263999135306 -2.047413185999076 -1.7309516725067855 -2.016449013046013 -1.973815315590481 -1.946570481791218 -2.0666792091757724 -2.0742549228594753 -1.852180460239497 -2.047188712569114 -1.9840488267263383 -1.502900522838591 -1.9852227381439682 -2.0892437474277923 -1.9723801268255272 -1.9139838353771825 -1.9776711194218028 -1.9691320086319304 -1.9354521176777146 -1.9151277801251612 -2.042048212670708 -1.7881525188189704 -1.9782815303110994 -1.9107670662709635 -1.9448089936556103 -2.0581096257807037 -2.0315796656023255 -1.8348606019866105 -1.944538760985097 -1.9974688924265185 -1.9427292179221105 -1.963387577012603 -2.1499941848002355 -1.8615232792793854 -1.9361401397058504 -1.9732994381978548 -1.9333092312277442 -1.9762917718503057 -1.9542054928807722 -1.9571828620180538 -1.9704652296732925 -1.9647434293272323 -1.983765201000432 -1.9867427623779226 -2.131709643717332 -1.3939595328724341 -1.8697300222085345 -2.0119540215330423 -2.0456457104429164 -2.040141236097602 -2.0054875173754647 -2.0091058094212855 -2.0541539899490364 -1.9373264904522502 -2.0446056641587935 -2.1342689708897984 -2.1584359100666664 -1.9949163725953991 -1.9066199824394172 -2.055274831745427 -1.9790444912927143 -1.9551323045281093 -1.1206234268848823 -2.1546740280039254 -2.0585041267308126 -2.0947221392336797 -1.9036101916469537 -1.4051866830071942 -1.8097795039382993 -1.9779860054455736 -1.968499505659155 -1.70269257844131 -0.6553673723134683 -1.8169529158949487 -2.1629407385391852 -1.9988885451532103 -2.1649628510842667 -2.268125757149033 -1.7146452558310956 -2.054085426769794 -1.9601598671496496 -1.9376267306833264 -2.1113765448490462 -1.461069984965649 -2.004481840476242 -2.055190821653768 -2.1585566997613395 -2.189266213347778 -2.0117116507538313 -2.05307230014068 -1.828012322813243 -2.185379670737695 -1.3959381349085918 -2.2853668717117 -1.9033124488151367 -2.1044944354835016 -1.946290861250738 -2.2021174565141917 -2.0583736809053743 -2.0510439384429406 -1.728761742144477 -1.9288247212235028 -2.3331235019361243 -1.9711594446244967 -2.0904431667839667 -2.015286417812157 -2.0919091361950213 -1.8579261732274286 -1.9347041704715824 -1.555362663224897 -1.9709465205184944 -1.9441463798949463 -1.9741764437000406 -1.85165947975209 -1.985994319360363 -2.001502431026675 -1.9533298752484083 -1.7503540702624751 -1.735338387833556 -2.3527029373699264 -1.939342334780929 -1.4969532340586262 -1.4443274749375712 -1.768760678608429 -1.932682389012571 -1.8869985582274977 -1.9506848470565952 -2.216317085625748 -2.328827625816098 -1.88228920904702 -1.8342552662873488 -1.978507077240215 -1.958442252558049 -1.9643631312947596 -1.9436333004893398 -1.9734290562511194 -2.1019422415622624 -1.947465803568398 -1.971712534840947 -1.9932157005510351 -1.9647898877856775 -1.9477899999793709 -1.9629878856283558 -1.9486638062037418 -2.1538207954953963 -2.380492573188737 -1.9195728288466147 -2.0363235805891975 -2.1586970863776624 -1.7828880806668452 -1.9486589496037876 -1.9479583432907368 -2.0441326250167933 -1.796406302636468 -1.9230938787157899 -2.16393999655044 -2.021228628443562 -1.99720656062774 -1.827003904232531 -2.006919284224072 -2.01566505905062 -2.010792372780306 -1.9417363046120746 -2.070090121175813 -2.0190770374600033 -1.969270180258974 -1.9817509166186362 -1.8618928164560504 -0.8953258596144187 -1.9624313758494356 -1.8717005713356383 -2.0197498423365885 -1.935433293801868 -2.0178399886551404 -1.9895597556506306 -2.007210490360752 -1.97466808400305 -1.9599367835847052 -1.9621889711858824 -1.983716283819426 -2.0908844289185446 -1.902605112759265 -2.082893459946298 -1.9271364167381169 -2.0704947594708627 -1.9639936649066088 -1.9337308145851002 -2.039324917770827 -1.9212690912771566 -2.033995567817655 -1.9900151673943347 -1.6520355627514303 -2.0978980929037085 -1.9763857635003563 -1.5983973762988328 -2.2348052503350146 -1.8432019397934767 -2.0507400937512807 -1.972072854439475 -1.960846767516658 -1.8713047818602342 -1.992100349002537 -1.9540255334291394 -1.9818721137902748 -1.9545684094565512 -1.7751547831241399 -1.9168510539490715 -1.9390372622881535 -1.9511264791276255 -1.9735644000409536 -2.034792136046526 -2.1124301018573446 -1.9519670122124508 -1.4945227882888976 -2.064432877474265 -1.9960667667806486 -1.3555288208831615 -0.652158179637182 -1.5401760975501744 -1.9241467529566816 -2.1554539076365744 -2.038305508570638 -2.0268695861999384 -2.0501658403196736 -1.974829678307552 -2.301031925385484 -2.217442344261849 -1.965443292163647 -2.1268838823197784 -1.931954449456558 -1.9777868068626312 -2.5230714116549837 -2.058277428572533 -2.075688379993191 -1.4599077911397393 -2.307310859653445 -1.5342750320808796 -2.145806453808064 -2.118236312206203 -1.425503354934687 -2.3004624097259407 -1.9916469435923079 -1.3985486599801065 -1.953590549890863 -1.976664849306709 -2.1506908401331257 -1.9452040755496478 -2.258011152583932 -1.7872791592326263 -1.7023554979560305 -1.847182981620542 -2.0744311809783706 -1.284054059222562 -0.9561966501336748 -2.215797325406118 -1.9718581592245634 -2.1724062097994654 -1.9208103545453181 -1.2721150952556426 -2.1140882213938594 -1.9642374481745473 -1.793839244415624 -2.1708490435394574 -2.0438360941185176 -2.173878382737927 -1.9335594480167386 -1.5557327934459075 -1.7550560277842853 -1.5980736767902477 -1.0713498332098075 -2.1031045257089067 -2.010903479127672 -2.1034706188989585 -2.1557053748109363 -1.4333358695598337 -2.0429486828741887 -2.1259465575396335 -1.487791344562554 -1.9950415786450486 -1.060269894544084 -1.9971368953381372 -1.7724361729533538 -2.1017857519016867 -2.0356387448394013 -2.113465647210299 -1.7728451692683704 -2.102457749130191 -2.2168627537176957 -1.893254071903536 -2.3613051895559414 -2.1965567304359817 -2.006692337606877 -2.048076155808975 -1.8652778113646453 -2.0566382316741394 -1.9758518217995076 -1.9478714185448063 -2.126140106444796 -1.9614882436043255 -1.9012196256006024 -1.972426899578631 -2.045671090949329 -2.0784748736334664 -1.962570939576723 -1.9405937701578186 -1.9570798970425258 -2.1306627401580984 -2.039395589739987 -1.6575604763913094 -2.042993424379766 -2.0441388614041456 -1.65303506184855 -1.7932122409423576 -1.560140332537973 -1.8990921948147803 -1.9880985368154889 -1.9173757257701263 -2.050217732280055 -1.9222951044909677 -1.8032908627083273 -1.978124418481433 -1.9617970005631757 -1.9332175667733966 -1.9803017537219698 -2.059893314065415 -1.9640371041408282 -2.143944135215406 -1.8211773281039116 -2.0627803026920617 -2.098476256064614 -1.8546340238952892 -2.0447323247167652 -1.9416525455528326 -1.9314379580955905 -2.2122975627295816 -1.834128793405333 -1.914040390171166 -2.030423601775487 -1.7212490233499544 -1.9874245372368018 -1.9554326133110147 -1.7061368494737856 -1.9764172566882365 -1.8677050532704182 -2.074840177124871 -1.9827590539767401 -1.9863932462572658 -1.8352097188925713 -1.9876681525541937 -1.822761778757186 -1.9010255436768326 -1.9969750573001515 -2.021481868272298 -1.9534306167788678 -1.906858883646755 -1.9992605470136793 -1.9470010237327013 -2.083799027283405 -1.7624319150992878 -2.0737569530586164 -1.8591594881594984 -1.969586169649967 -2.095020186362508 -2.0733391582423075 -1.9537326719919426 -2.011932438750819 -2.0469439641822285 -2.005131423377877 -1.4613076046989522 -1.9715084450357514 -1.9452925764160527 -1.951177946715699 -1.9907841030308515 -2.3382952626711138 -2.0581601460377583 -1.950084439647362 -1.985189087114951 -1.9832989584811893 -1.9441050529696753 -2.0168203361018757 -1.975492380899886 -1.5977924907171839 -1.9847251881156007 -1.8981373610940626 -2.088155146835079 -1.9937849077956995 -1.9836596685647854 -2.005936708117205 -2.0466533791414565 -1.9532928290394425 -1.9705880819519588 -1.9745022140984696 -2.0065320916587956 -2.0472452701709694 -2.0538113227043193 -2.1015115135526954 -2.260520751828552 -2.0685454383576523 -1.9597191559944136 -1.9670301341192427 -1.7316544845282402 -1.994940559374319 -1.9726439392952464 -1.9480447657651352 -2.0221089823394727 -1.9946831025772689 -2.004376395985861 -2.142191639078709 -2.0327426297986646 -1.9942110229423176 -2.0787263258929247 -2.004797094954759 -1.9524116222409142 -1.9724388397553425 -1.9689101618365452 -1.9677727061284778 -1.9877510961687663 -1.9612609282498845 -2.013490149977485 -2.25368453202246 -1.9818663174724491 -1.9494211072308762 -1.9442253058036434 -1.9035349806200288 -1.9667997370462995 -1.9472580382039442 -1.7987029792589673 -1.858416577444079 -2.1364185272419327 -2.0390758091415906 -2.145513673170327 -1.9681091309365768 -2.078274684175773 -1.950378494438947 -1.948911558938705 -1.8820428439095351 -1.97710000153025 -2.175896908601867 -1.9864618899408684 -1.9404282125187111 -2.200984111394817 -1.9670128710525194 -2.1558839740973745 -1.827323498125026 -1.9650118631047446 -2.0420674626100626 -1.9660570937953443 -1.921134024466729 -1.9948975307363264 -2.0354705672335434 -2.0619202393901506 -1.9381243786349813 -1.9241611211514642 -1.9875231160537812 -2.0296281203472955 -2.0536888229771924 -1.9830343521911011 -1.9213739956223341 -1.954890396117999 -1.9882271700409577 -1.963066154579733 -1.9553829476453095 -1.9677583913693517 -2.0573827457450027 -1.9389180230415712 -1.9647839192384562 -2.0798277122938806 -1.959761211841805 -1.9957572836875808 -2.0992585024481247 -2.040053904321079 -1.992476488832893 -2.0962667515507993 -2.177463381329916 -1.72214892771653 -1.9780734481953206 -2.182071925817192 -1.9565344583760942 -1.9650075042716986 -1.9432594454785432 -1.9390064327255356 -2.0001514246738905 -2.03145554735795 -2.034585590900465 -1.9496760460183378 -1.8585248865326909 -1.9676962076269247 -1.9578374029119539 -1.722150053493666 -1.9434540286689779 -1.9499974423148505 -2.027649682712261 -1.415156375935637 -1.984493102102111 -2.006329709996881 -1.4660465164102618 -0.40045735502211083 -2.020909704005146 -1.898921588385927 -1.8886577387972359 -2.179508555647418 -2.1909352037132814 -1.9178415576791736 -1.4538210793177853 -1.8314728030503695 -2.055069231549659 -1.9648519700901523 -1.9538346088468799 -2.1390959816749695 -2.0430814091781726 -2.1209079580200467 -2.0460664901975045 -1.9490005650972173 -2.454681839960493 -1.9486250850003677 -2.0854224877948226 -1.9664464241934967 -1.7215809650149967 -1.3135266210494199 -1.9734806134084217 -2.422743634930602 -1.9846365782133097 -2.0667554308856046 -2.0176824028915537 -1.8722475391074225 -2.010924142262362 -2.3027855274092026 -1.8497717227011552 -2.057329751754773 -2.199493512256843 -1.8495080991956396 -1.2372090737127557 -1.9701586241551485 -1.9549172282243534 -1.9775116098353924 -1.622183298871326 -2.2441791814856122 -2.093874875305429 -2.0122862340124925 -1.7646904038403728 -1.974326823994686 -1.9275546195300337 -2.003493633286918 -1.9665617739929815 -2.182332635610725 -1.5366209159488597 -1.9449122313317733 -1.7522527190884358 -1.579781499713604 -2.1059565379243015 -2.0780474994270723 -2.061964961697049 -1.940142583525091 -1.9971860024468169 -2.058437952061745 -2.088804986476749 -1.8836730257703085 -2.0446778488207356 -2.0603939315552107 -1.9889155522786381 -2.0390084329595157 -2.1886774857153912 -1.7485539701737407 -1.977327960289764 -2.042597893414281 -2.0175799992391505 -1.9621757283671881 -1.9885345735033813 -1.9451369344931135 -1.959443380163099 -1.9389452922185215 -1.9936672202620034 -1.9281115822436024 -1.9439706770051148 -1.9864920179239454 -2.049092130583875 -1.9248506703420933 -2.0966435421194345 -2.062723186113607 -1.9700841120531534 -1.7962365697752256 -1.8860544319852885 -1.9294627733373608 -2.044156963580841 -2.2968388051767388 -2.003443818420034 -1.9982638601932583 -2.082321773637871 -1.9879824092211398 -1.9483837932728425 -1.9639902851677038 -1.944956516236473 -2.015668490458683 -1.968598739801137 -1.9364968909193538 -1.96515684207434 -1.9449990508048105 -2.024718831467554 -1.8980893899543232 -1.9603756732368212 -1.9851974622771056 -1.9311004342128046 -2.3249971628093618 -2.090300881595435 -1.991835304185521 -1.9667241144924845 -1.9293539781044888 -1.9870856754181063 -2.044056034434599 -2.0343685200744193 -1.9667376171938629 -1.9501697485098481 -2.015598517847023 -1.6608021277754106 -1.9762863258723953 -2.27005776154488 -1.9599571117922765 -1.9976238483161004 -2.0368233671233633 -1.965606037220627 -1.9793309284921006 -2.0308194528713694 -2.0213294815698184 -2.1297786175329296 -1.962752396684594 -1.9460931154562247 -1.9542308687424779 -1.877781030590788 -1.9710815152592454 -1.544670130460587 -1.9635404980683657 -1.9518794001124222 -1.955132395990108 -1.9529764098690237 -1.9494203259654082 -1.9541476350827105 -1.9477196380481505 -1.951124746029075 -1.95510309073693 -1.9475302357943858 -1.9552005322225972 -1.9593849787971847 -1.9630373234212386 -2.012340591362766 -1.957263524302318 -1.947990083398207 -2.025888735847999 -1.954501497418739 -1.9627440167541323 -1.9478635327748324 -1.945498507678073 -1.9692970899237638 -1.9475838579357243 -1.9343541098537227 -1.9623771007518844 -1.9478551882186563 -1.9502576001633638 -1.9493823746199865 -1.9762105463149966 -1.9487037942175969 -1.952629173817545 -1.9482804881681464 -1.9500109416614357 -1.9526651716456094 -1.9407058572102318 -1.965712335934968 -1.9524659027816684 -1.961872557556011 -1.9101259617142774 -1.9706511294817755 -1.9611791770656593 -1.9490907884994606 -1.9536505449045953 -1.9495114345081848 -1.968215924419303 -1.971816894228 -1.9474631772318522 -1.9625992504485383 -1.9856331130544342 -1.9729939748528762 -1.9549932587824206 -1.940682603716782 -1.9519194257414947 -1.9506598732513112 -1.949965640238 -1.9470284906164186 -1.9491165377684267 -1.964122379612362 -1.962063382740568 -1.9553021682391643 -1.9652684804729967 -1.9895920655885697 -1.9481246085936572 -0.8128186226858143 -1.5004145764371706 -2.019968060844392 -1.9933686609734593 -1.6999162350238834 -1.888049002067888 -2.1538648234781963 -1.85267384057432 -1.2568683226951767 -2.0265308166391924 -1.802763948724256 -1.7784480224649561 -1.9347823204973371 -1.782553784120117 -2.450248898455854 -0.9859493055261621 -1.8403913284860045 -1.8757223149748907 -1.987984390975403 -2.0584391673043623 -2.0796433164665973 -1.768862721986715 -2.333160065953791 -1.4578610515837769 -2.054960075280107 -1.49253775886456 -1.5727059978502564 -1.8276750709338374 -1.8292730765066336 -1.9387884262550248 -1.5082983089071265 -1.3082145659280424 -2.2946125070848655 -2.092674688572125 -1.9306192746322448 -1.923398430526651 -2.253904761099104 -1.9176166179973821 -2.011464303375801 -1.0082756720602684 -0.7113131995009999 -2.356549832119149 -1.7271966862042833 -1.9799031496523216 -2.434517310432873 -1.9019423954461654 -1.961135542172132 -1.788060069025853 -1.8788628535658776 -2.1697525897573318 -0.9982854235838227 -1.9388656981218397 -1.8385575373258711 -1.3576447249006307 -1.9041660467092363 -1.8675874433974766 -1.879078732455906 -1.9969218955141417 -2.1676994567514214 -0.6915311372838131 -2.121986067708299 -1.8360063889782718 -1.2653251502501432 -1.6346300366476239 -2.0508998905922766 -0.5114170590932102 -1.9841877353080561 -2.335154662705041 -1.8087725608444039 -1.8166660796642318 -1.0309366472107404 -2.064425167938408 -1.6505779062869095 -1.455703425954114 -2.313129478219195 -1.7942639148930195 -2.133728333267822 -2.0259914268226384 -2.1184486724233422 -2.225054232482067 -1.669406009303914 -1.1787082032798541 -2.2862184467142335 -1.9759254464718374 -1.9579078008147746 -1.6150690919574189 -2.06596710903186 -2.3448976353877318 -2.1053333156634664 -2.109978741231318 -1.8833059218022978 -2.1079497508589524 -2.0522930971667304 -1.6143482863879501 -1.6630850747404626 -1.9643560149164647 -1.8614234122156248 -1.706100833106011 -1.8696903228132968 -1.823619259716936 -2.116287455121054 -1.8339137777112222 -1.9492880433397386 -1.9855363277664408 -1.951979914047275 -2.338752520732806 -1.3979774785081043 -2.1106397605488034 -0.8290615395712876 -1.9227834911035753 -1.6855104970462296 -1.4701691360803355 -1.7360417964999282 -1.803417100787327 -2.131197755928682 -1.1188764454148745 -1.5400741896972119 -1.740392441043892 -2.12080488269046 -2.0826944410521513 -2.3734994039608805 -1.9708270022194205 -2.360046709241286 -1.9552061209260359 -1.31033924408155 -1.556016754211719 -0.748608071166438 -1.9842916031296922 -2.0668999631108202 -2.007186615519509 -2.120826355174035 -1.9449783088447512 -2.0848749123848944 -0.9099195704155161 -1.9222656596873144 -2.4431946970916743 -2.1865560783269355 -2.0526308951577352 -2.165541750154222 -1.8936448449014565 -2.242289147512072 -0.7214374517016635 -1.3065739450460625 -1.775754156393201 -2.032152938138524 -0.731047170860502 -1.2402751419897753 -1.097765550327174 -1.9051615875058825 -0.6538128946767363 -1.96578784825525 -1.7926553754981214 -0.3813100544415293 -2.1354789625850685 -2.1123245605004555 -2.062826610996129 -2.132795077614238 -1.9059589837927813 -1.7110280580643102 -2.0005933925105626 -2.0538748546234094 -2.0739010604084163 -2.1157183550046668 -0.7031660459674125 -2.1147902820936393 -2.197045342122554 -1.7885038723556337 -1.9432974709342343 -1.0319341912355242 -2.0096171327766834 -2.188626431535749 -2.166389935819358 -2.204861673015468 -2.1084005250140403 -1.919452807797853 -2.1019698279600854 -2.1770365599063557 -1.0593859389101357 -1.0244790326842108 -1.8084566956819041 -1.0783129444985715 -2.093945015998532 -2.0870732422649385 -2.0432619766520332 -1.961434266890303 -2.1713212773795925 -1.566077944053182 -1.5831168728636429 -1.9552081711070513 -1.2408660313120836 -2.166321492301381 -2.202425190389111 -1.7550604683162894 -1.9728278575659546 -2.044796937490057 -1.9523498413691118 -2.257922346806818 -1.1516788680102243 -1.921299926685331 -1.9975884998492404 -2.003902036475354 -1.989162515015065 -1.1641194753800632 -1.9690527887786327 -2.0046138283557577 -2.2851394172078434 -2.070198315990461 -1.8228474651935092 -1.9843327661876489 -2.011917760808359 -1.9935670090021322 -1.7037143200864922 -1.777249100387871 -1.9879479212122606 -1.900258329565061 -1.9563722537835395 -1.8187312074370474 -1.964838775780132 -2.0884289061464285 -1.9989392840846527 -1.9468280035285708 -2.128381359138763 -1.926634263894806 -2.076843041900315 -2.2352496421063366 -1.9665492437838965 -2.1686783263804656 -2.113711080893019 -2.0713159156467666 -1.9502472450081438 -2.2111627803873235 -2.0030961372634204 -2.090558236140267 -1.4588406054414418 -2.101828026324616 -1.5467171570870235 -1.9787443197516221 -1.3258395947356667 -1.0274585321216745 -2.2516351911136865 -2.2915422495932254 -2.146006283363936 -2.0127794514225834 -2.092957492723907 -1.9544614176835333 -2.0761015501149975 -2.0913900435551875 -1.8514955692558626 -1.9762193415229632 -1.5181258045337513 -2.148386147629671 -1.512326560311436 -1.9752718748357174 -1.8026702922462086 -2.0001805897932505 -1.934968023516446 -1.9650446314775847 -1.8450260580268016 -2.092511179936777 -1.8607271635257705 -1.4538914504512574 -1.9158477546409296 -1.9427066355218172 -2.307564653700723 -1.9747232757470634 -2.0746677264349076 -2.107432574888705 -2.05976051598656 -1.988629103707535 -2.043335426591667 -2.1178149464171665 -2.0592730715522607 -1.987649179854336 -1.6934693390468158 -2.046436754268109 -1.8775398575935736 -2.1101637071908628 -2.1153762350074974 -2.0208350552026166 -2.058340128810319 -2.078713580202062 -1.899858988192919 -1.99520596117582 -1.9150518933148537 -2.0226343963427738 -2.0183106707739054 -2.0399888097436407 -2.0170634498782674 -2.0603631605292096 -2.181989215265387 -1.9701095420758135 -1.9724540949409703 -1.603681377834828 -2.0383958178814754 -1.959673864463514 -1.94583787531145 -1.9625361485119437 -2.035683710475373 -2.066859743059298 -1.9538832925231397 -2.045046470809558 -2.1057641575275405 -1.9244286844080112 -1.940401880154287 -2.0663323143633927 -1.9355965943581548 -1.9766740314894384 -2.0571815723524285 -1.9937871875429953 -1.9645717726942507 -1.9950278061040638 -2.0573735480851956 -1.798817943690276 -1.9532085258345924 -2.0417925826407806 -1.9777421208611807 -2.032670647191157 -1.8867713917624696 -1.8486250955331671 -1.9452200356884475 -2.012564285502685 -1.9788155955962095 -2.222658289681115 -2.071461154177605 -2.226567623239921 -2.10042872872227 -1.976928985850162 -1.867453858595356 -2.0039347149629334 -1.9846149262123343 -1.902534671809805 -1.935092997871465 -1.8900674980724717 -1.2538548583837836 -1.9625896973306354 -1.97917195884764 -1.9920278508809557 -2.0758165818907703 -1.9645185245777024 -2.0028852810193936 -1.9071442982905313 -2.045075915691696 -1.9691103415279054 -2.0735783610870886 -2.037883224809118 -1.9648195285848853 -1.8463335055251608 -1.987055740390044 -1.9636697329155812 -2.0371392160048636 -1.976597701043892 -1.8976084768464518 -2.0263977591086464 -1.9681932337805126 -1.6830532409640844 -2.2263426541130307 -1.8922982504849257 -1.942225948929791 -1.9290868882519143 -1.2777319689804407 -1.8467767760009752 -1.997811098106157 -1.0600667977324945 -2.0096752561198854 -2.0762016098321987 -2.11933412540827 -2.0265763672770603 -1.9103746975812692 -2.120867136622723 -1.9641314099961404 -1.5192906852837982 -1.9692658425414113 -1.8646702367018828 -1.9565132026910435 -2.10432197356099 -1.9822506435460439 -1.9857826278691977 -2.0636777889269564 -1.951867834043272 -1.992089653847758 -1.9731711423629172 -1.9764450581417137 -1.8000611350669775 -2.018237648543223 -1.2790738479261052 -2.153295937456617 -1.99404929671321 -2.0825729747230093 -2.008128357687842 -1.9889974369239938 -1.8775825763616762 -2.057027359148168 -1.8278592297403755 -1.950396341362486 -2.402817876938175 -2.0085760461631987 -1.9044382559417725 -2.0314973402113794 -1.9820529585277 -2.0512246287103846 -1.974391807524465 -1.9639561568194932 -1.965488987949912 -1.9814312533659373 -2.0350123237578996 -2.105884421597279 -2.1323956436479015 -2.446555612846569 -1.5043703386163665 -1.9750627145489723 -1.984907059470526 -2.179107091940812 -1.9893665257159874 -1.9772332369311973 -1.9716143266913428 -1.0260249251047313 -2.2047162857550537 -1.9796546115097011 -1.589814132466132 -1.9854932379880335 -2.121563450524949 -2.03387640231294 -1.972854813651022 -1.9684549972059633 -2.2170909493539397 -2.0082873578836096 -1.9656814729838956 -1.9533747072125045 -1.9866656334829504 -2.0596411169832725 -1.951247859019418 -1.9717257680598805 -1.9550077183373589 -1.9771078107740505 -1.9735420729297122 -1.9417381884881832 -1.9685493923343973 -1.8601937196016736 -1.9513348085219921 -1.9610594328037896 -1.960864724428535 -1.99332751829256 -2.0804156324332976 -1.8872465625413875 -1.9534659932279885 -2.09118563491144 -1.9682710637526935 -2.033244262151185 -1.9628732501598962 -2.165107463762606 -1.5915972078175604 -1.951850488913113 -1.8149701137605871 -1.96896963642815 -1.9777020939333723 -1.9622216176930274 -1.9451999688120112 -1.8960140221071788 -1.964076648514371 -1.9547449059234505 -1.9525853689900237 -1.9624976803009346 -2.0140855512014806 -1.9641330840841746 -1.9683684048642112 -1.9666510659014633 -1.9571651595231383 -1.9640552726919283 -1.9774904419199613 -1.908380012003983 -1.9790133092585367 -1.9538112892149615 -1.965375269524857 -2.0584463871318928 -1.932070795898968 -1.957679465266938 -2.140497070644413 -1.72868717879103 -1.7155037406305198 -1.8889367834844293 -2.073179136947343 -1.963555883507635 -1.9490275598824545 -1.943583538380935 -1.9488971899301688 -1.9640002668886793 -1.9611927822160793 -1.9643191322094156 -1.9383569611453104 -2.0615658723503034 -1.95037136181167 -1.9457770264850038 -1.512360573532803 -1.9573816700774054 -2.4375055473686773 -1.9553153273827808 -2.117596371092122 -1.9323874918139436 -1.9873207241511603 -2.1261876661541947 -1.866598646191211 -2.0688675187710532 -1.9431479831418854 -1.9321273444789127 -2.020231884662226 -1.9620179495394123 -2.114025242065177 -2.222120759771935 -2.0211517930565472 -1.7929947679877818 -2.138982574744358 -2.049984344920034 -1.947529028565415 -1.9508210379873911 -2.065527599549538 -1.968374549323459 -1.9649048680853483 -2.0995464660769625 -2.0872271099765274 -2.0058541802553584 -2.0242670063012635 -1.9002065761368376 -2.058451231917123 -2.0511336503973654 -1.9794545180903622 -2.0610324295277893 -2.194582708699961 -1.9442930365077717 -1.826089055772255 -1.9913818825416183 -1.0539719234633667 -2.5043441645252633 -2.018479760069429 -2.479981666927932 -2.0105945317433385 -1.833526615869009 -2.0316803510973793 -1.9763411120940493 -1.9803694204790785 -2.0181343616272764 -1.9468596231896416 -2.007697297262895 -2.0622542312940735 -2.076162519879552 -1.472098094514413 -2.192110752893093 -1.9616092682333803 -1.9601361288300054 -1.9910894249120006 -2.0842807502471428 -1.7805562488090614 -1.926266401510979 -1.9778385637352311 -2.1784464618752826 -1.9045549716925363 -1.9522069170532421 -1.9530605893250346 -1.9890103637799292 -1.759952178951083 -1.8195407880916987 -1.854731713546888 -2.0073281759578507 -1.8402979237425188 -1.5980253682114778 -2.025965447654519 -1.8709034350945923 -1.926564537806503 -1.9709195801178443 -1.984196071194642 -1.9482352670646048 -1.9472749537181182 -1.8309091334728413 -1.6347525901134567 -2.081435468679891 -2.360751863558273 -1.9342566056359671 -1.2619229006183645 -2.334739974324396 -1.7561213784597844 -1.9877264838589517 -1.9978652072302034 -1.8152386804109726 -1.8539058665655441 -1.9310363012446288 -2.038240028276222 -2.0470709961498117 -2.0901447431417193 -2.0947991427508295 -1.7742465532703913 -1.4640271457181484 -1.9388872609878582 -1.8260551286136195 -2.055007972983585 -1.885526901969775 -2.115384340679568 -2.0599419420345977 -1.9711879548601756 -2.0554770375835356 -2.077042402035826 -1.9563986866960763 -2.1123733441319077 -2.2212215629580636 -2.0525907842826054 -1.9693267402907129 -2.0526075405103796 -1.8468875971531926 -1.9160325772698785 -2.022432679262845 -2.239426630576271 -2.1134509624429465 -2.1735922156798164 -2.1234824982218283 -1.978772826038513 -1.8970747092893967 -1.8902141868485207 -2.1117295024457414 -1.8422866795993547 -1.893156584918036 -1.9660154886839467 -1.9514546631903307 -2.119360108989489 -1.935272634912405 -1.9777771412135239 -2.038718570515016 -1.982832827139255 -1.9803715871410956 -1.9903711673629287 -1.9716365228710844 -1.8920161780998384 -1.9592686496675742 -2.024034733922874 -2.5152163491564403 -1.8134237410535747 -2.014337030239697 -2.0369985066066056 -1.9661920735799872 -2.083658894729315 -2.0744578480684632 -2.0578364439781986 -2.0504772937802884 -1.9069404426990735 -1.3765865723326607 -1.5662922315652585 -1.9289958025587177 -2.15812346784626 -2.126125194579056 -1.7849123257568345 -2.045371221651316 -2.0905437602907586 -1.954944810904929 -1.9289112241560646 -1.9617655048835647 -1.9673836350934624 -2.0763472696768157 -2.0039641088069198 -1.9695584985198196 -2.4138140056134976 -2.0684573366093693 -1.9615407202963178 -2.05495414560895 -2.0864262138005536 -1.9523757059389393 -0.7199136365092126 -2.1283645456732936 -2.1837249813217023 -2.1037300535434875 -2.041722670048939 -2.162719030294917 -2.0095783170523975 -1.8743000707854458 -1.958936939737113 -1.7098298183337497 -1.9508882664850633 -1.9907622824843016 -1.702346862879211 -1.960774197394898 -1.6362067767666004 -2.0369496172728674 -2.159638795217302 -2.0900613436686815 -1.9415818210193878 -1.9758748602715206 -1.8734701428427794 -2.0763752406518927 -2.0817271147885394 -2.002903672908807 -2.0449103072722696 -2.051360644401259 -2.2637359737140303 -1.9756097491217939 -1.9496638144088108 -2.0002834688219626 -1.841509774394317 -1.6199178841485813 -2.131687616187819 -2.173222516163319 -1.9739200311477445 -1.9644785126222764 -0.516556085248731 -1.9656534197990099 -1.9440839646245913 -2.2323079771271592 -1.9633051728802713 -2.0417769560028716 -2.0236727474842806 -1.9520327476285584 -1.8709294386129964 -1.7878421515196943 -1.8778485017983786 -1.5446039929421442 -2.040883515388083 -1.6371460210842534 -1.9489453481629855 -1.7250946140956416 -2.040416403653093 -1.6938954965806317 -1.9642401556075015 -2.0272909174162517 -1.9691247054550085 -1.978986454658367 -1.9793990913285953 -1.967439313246649 -1.9191070733403282 -1.9705642533695666 -2.0391763931684643 -1.7773435946443792 -1.9624747726068514 -1.976567188160871 -1.9928905636055185 -1.9867085894367342 -2.0247879285948205 -2.1022637160874997 -2.2607185164442845 -1.958506837940432 -2.020942806639109 -2.018561745566285 -1.9892972670636269 -2.1275246314889498 -2.080999869415345 -1.9927449247517113 -2.0550015193838225 -2.0446864711219233 -1.9612037165362841 -1.936747650955266 -1.9714827926194198 -1.9695364400719464 -1.9773072542812582 -2.0271506092843032 -1.9657522581960174 -2.041670663529707 -1.9592169377489843 -2.119034021101044 -2.0600035994831423 -1.9647015328164525 -2.121272976996609 -2.0231708952866274 -2.034527461755812 -1.9663436491161426 -1.9963426626511847 -1.9580179682990364 -1.9660876782492334 -1.959708495696684 -1.8208728187936372 -2.0360225183828127 -1.9485748188721144 -1.947823443574507 -1.968405608470173 -1.838980854187276 -1.9660763472772307 -1.972052013633097 -1.9958351999227162 -1.8610643913216236 -1.9753126787163107 -1.9433895402349557 -2.048133340902927 -1.9258934434156534 -1.9357226775509846 -1.9810654197272748 -1.9615800438176612 -1.9717109463502254 -1.9800147546749975 -1.9444270242651776 -1.9083935963875223 -1.9959813243694362 -2.1184842548253515 -1.9576953722362087 -2.0089212804844117 -2.0129095166164377 -2.0159568688991416 -2.024324249572109 -2.01272541179388 -1.872116035853948 -1.9701001554159439 -1.9564016296181739 -1.9701205000465016 -1.9862249662489622 -2.0133830746046852 -1.9654076430337504 -1.9967032677116145 -1.9570685352812776 -2.0992440540965553 -1.9831037489918808 -1.9671296119854322 -2.098176352975241 -1.8221498686653668 -2.0671866351504153 -2.041399479005465 -2.0634507855882847 -1.9653585987944928 -1.9843475364496703 -2.0410639244356408 -1.9509667741561123 -1.9298590370150215 -1.9551328686100775 -1.9835091934829865 -1.3689931244464406 -1.9693314567528126 -1.9498504526954277 -1.996385123985834 -1.896121307925278 -1.7447033394066704 -1.8474970875330308 -1.6238653871513578 -2.0358343606760805 -1.917639887124066 -2.0848135194093906 -2.119029272975857 -2.060554189166536 -1.9753329414026473 -1.984949979770019 -1.8734438407439498 -2.0583388666421594 -2.24386681014604 -1.9907438116660754 -1.9154769268453113 -2.1481731350315902 -2.050310003575341 -1.8623284238163684 -1.7890717701035739 -2.0636475569629025 -2.097270395169025 -2.329780162221249 -2.173665881250586 -2.1194656017726996 -1.8315425354218133 -1.9846224802849284 -2.089720238325141 -2.0160535705294973 -1.942685628419472 -1.623151206672411 -1.9804555142240647 -1.9633396188657188 -2.008960112705258 -2.1541027782649813 -2.131699982008483 -2.1696366775542026 -1.897983345508344 -1.4981970425378752 -1.937776461638308 -2.003093207384855 -1.962644425245168 -1.6468564189277928 -1.8860518646271494 -2.0363693474017213 -2.0686127599459394 -1.4974361251868051 -1.9577027244040812 -1.5270646748490564 -1.963357162010577 -2.1309109015152847 -1.8021966669682634 -1.9053069634853912 -1.9248468112333275 -2.0235118432423413 -1.9757487268894556 -1.9715210631388993 -1.9461018969132344 -2.264486723314373 -1.731238625140463 -1.9703629113087513 -2.312353511464944 -2.0935965614189365 -1.9857988836174227 -1.9574625621040322 -1.961731282612655 -1.9821442201727237 -2.0239983380768707 -2.0045842751245 -1.9642681972574547 -1.9897367329069837 -1.9638705159965368 -1.971986009800818 -1.891011248118812 -1.9874849773465972 -2.01835701663856 -1.9834873736003538 -1.9574216168915044 -1.9875691848825021 -1.9741290740806683 -1.9769281516215138 -1.9352366152794023 -1.945611833749476 -1.866935338130466 -1.9374814512244152 -1.9944516404409243 -1.954568983139057 -1.4853712881186802 -1.924867410270307 -1.8247156239519695 -1.979626865933265 -1.9513092706329693 -1.960617563003198 -1.9565646072116234 -1.9615916012925991 -1.961951513058724 -2.1290666839772077 -2.28559339748651 -1.6619364234360279 -1.9638021298493111 -1.980359120134734 -1.9438814021117705 -2.1096403104064336 -1.951327494785129 -1.924816208002847 -1.502687468035212 -2.227971166168187 -2.189334183397492 -2.1104289061161454 -2.143825891335458 -1.9746469946595053 -1.309504299490005 -2.3206091754997797 -2.142966904843416 -2.005975255785362 -2.080677974647103 -2.0900120903306876 -2.0928091706683154 -2.0463024573546242 -2.1082266353510275 -2.066848844799959 -1.6533877334663012 -1.4663564622789342 -2.1437025707350683 -1.9195267837824206 -2.036247645793219 -2.383309984293567 -2.1221115279685403 -1.9964592942672972 -1.9364803813059202 -1.9339085953762454 -1.1155554803850602 -2.1763859556528633 -1.9335138885756946 -1.479649062219627 -1.662967633816641 -2.177181697373372 -1.9513003871697885 -1.958814873547118 -2.00082029475285 -2.3729090763118723 -2.2005073074136807 -1.8583797306642564 -1.6485336050743122 -1.6802244346166673 -1.9636905467789487 -2.0272995306530537 -1.9630255075579697 -2.0020927271349516 -1.9787798953893592 -2.0461575651452057 -2.477775861171146 -2.006791614916999 -1.9180410550721336 -2.04122192755445 -1.7410696718868783 -2.2375205499973605 -1.915024672535052 -0.4494498899871921 -2.1677197238356776 -2.090801197990249 -1.97587259998961 -1.9651779101473985 -1.941451796619017 -1.651266867061526 -1.9887487279245626 -1.935945019577747 -2.0049059722043308 -1.9036956337626854 -1.4875669164008034 -1.8608543867769054 -1.3052156480182637 -1.9981846711845221 -2.025090222221272 -1.9321620972021338 -1.9969879818697156 -2.1858624729896725 -2.0119559077638667 -1.988070525938912 -1.4148068813015238 -2.359240041011782 -1.8452916885942252 -1.85360841781739 -2.177689932573078 -2.0336721155476836 -2.034141854400649 -2.109120743246309 -1.9806725646205785 -1.9396085987667007 -2.0152768456333248 -1.9147192347691142 -1.8774588843188664 -1.8485879831791192 -1.948562999319409 -2.226442395137428 -2.230372467475918 -1.9707828286167084 -1.9250457797850968 -2.0559241056294733 -1.9644471759374182 -1.9660645857931112 -2.1028593851942703 -2.0493199139057916 -2.129984237922736 -1.9748781977682295 -2.106834780489627 -2.02864123580463 -1.9198496444088176 -1.9917183283869824 -1.9464719898280618 -1.7373552815466806 -1.9534071365084331 -1.980593293783503 -1.9689816950371553 -2.0165330557027756 -2.0919454814116865 -2.073643242440576 -2.1221404349473008 -1.8449486293583592 -2.0081851691733914 -1.9607459343742044 -1.9192632896341517 -1.967131565041501 -1.9660068589341058 -2.078319408653602 -2.002437302224746 -1.8041013276656697 -2.2516445822590265 -1.9490131487267595 -2.0911853445944732 -2.0671843041891296 -2.057304710965718 -2.073995184913854 -1.9159527022670653 -1.9581524354438948 -1.959000101582945 -2.061061305108266 -1.9554944357873787 -1.9520068180133632 -1.9678666237938702 -1.9585539341752243 -1.7301923378078512 -1.8229619735622282 -1.9487137743631537 -1.9617723542294117 -1.983506177722646 -2.1215717362839177 -2.2201271476775593 -2.1593966932350375 -2.169316778659314 -1.753705879637899 -2.3414857783450604 -1.8689949250292857 -1.9835231025578315 -2.0674264768488952 -2.0674368664178275 -1.852637980190722 -2.0128253604754587 -2.057825750921018 -1.9549157669171573 -2.010599949217618 -1.9470673433572645 -2.131142394311706 -1.9249859868945443 -2.1906690115727896 -1.6585950634557922 -2.0984497981423975 -2.0211847139605754 -2.0979499859335577 -1.935040009891366 -1.7766104937815814 -2.040730890018809 -2.005047896003684 -1.9263551924447166 -1.9845387822163518 -2.1494108509863326 -2.2163073110433618 -2.0643721562152693 -1.997678616361105 -1.312938290707263 -1.9600922620263728 -2.0673574277452387 -1.962511078971176 -2.003809866191102 -2.0891202956617363 -1.3944372175833133 -1.9147678036871312 -2.0195290733424893 -2.115117915280101 -1.9125851820104138 -2.022561891038015 -2.06937256517734 -2.027574727906079 -1.9652348924370384 -1.8617153801644348 -1.9633224293826974 -1.2866002425154317 -2.0447452549877396 -1.9872675012766563 -2.0092905787271462 -1.9506661103235468 -1.9660023142217815 -1.9769122496654934 -1.970597864405354 -1.9427136117901453 -1.9728543488899022 -1.9532436578583536 -2.2408612929017786 -1.9289596696534455 -2.0002523268339845 -1.955184061906981 -1.9825935548518179 -1.9445234862804632 -1.986543971351119 -1.9876125985307767 -1.9335460829269333 -1.9635325489002757 -1.9907000993583388 -1.9543889321216035 -1.9604511666902182 -1.916101344197001 -2.001706440684207 -1.9508101679470304 -1.952876951159326 -2.0929826664378535 -1.9707333963244082 -1.9728350734658104 -1.9918158910236647 -1.9480123106514158 -1.9969428955224486 -1.9560324044825999 -2.071491699434192 -1.963717918900771 -2.10828298776499 -1.9860573315314096 -1.9631853025852746 -1.94617059186919 -1.9524625766789487 -2.0905934675766598 -2.02549089548848 -2.155846324067382 -2.0057317293160137 -2.039012158396299 -1.9701276308293365 -2.060108223941983 -2.0778848473632165 -1.962667861665448 -2.0060531775964945 -1.9136149479844182 -1.9880960648944344 -1.9768306461482916 -2.0442849684138213 -2.0411473188876545 -1.9242505053786338 -2.037804154048717 -1.996161709507233 -2.0961405794657173 -2.011697839826559 -1.97557678097278 -2.0545395549670937 -1.9329418225401986 -2.182467731828193 -1.8542826783483624 -1.966722359738374 -1.924472940154104 -2.0194699581962654 -1.9857373522314885 -2.107461673997161 -2.0958757759019804 -1.944892206641348 -1.9283866636308526 -1.955369259087241 -1.9793712634807086 -1.9726506003252269 -1.9535588881738226 -1.851295462928983 -1.9014671876494795 -2.1015855648468924 -1.976883188289649 -2.0190132000588856 -1.8713173458971692 -2.2394260318266688 -1.9690403781571237 -1.8477135759573964 -2.040942720885467 -2.0793406211046603 -1.9516865435488882 -1.9977313429027739 -2.119284630183724 -1.9675604772909216 -1.9623471719897634 -1.9880564397793024 -1.9557280025069375 -1.9344785010487677 -2.089286301816558 -1.8887818579663538 