svm_type c_svc
kernel_type rbf
gamma 0.01694915254237288
nr_class 77
total_sv 462
rho -7.554888725280762E-5 2.4139881134033203E-6 -8.940696716308594E-7 1.112222671508789E-4 -2.1287798881530762E-4 9.208917617797852E-6 5.453824996948242E-6 -1.7756223678588867E-4 -1.8274784088134766E-4 4.979968070983887E-5 -4.6250224113464355E-4 -9.97781753540039E-5 -0.0012666285037994385 1.1533498764038086E-5 -3.585219383239746E-5 4.649162292480469E-6 -8.940696716308594E-7 3.3795833587646484E-5 -7.599592208862305E-6 -1.71661376953125E-5 -5.185604095458984E-6 1.6629695892333984E-5 1.9669532775878906E-6 -1.5109777450561523E-5 -3.1560659408569336E-5 -1.3679265975952148E-5 9.834766387939453E-6 -1.6003847122192383E-5 2.0563602447509766E-6 -1.653134822845459E-4 -1.233816146850586E-5 -2.637505531311035E-5 4.470348358154297E-7 -7.617473602294922E-5 -2.8342008590698242E-5 1.0728836059570312E-6 -7.304549217224121E-5 4.202127456665039E-6 -4.202127456665039E-6 5.453824996948242E-6 2.3245811462402344E-6 -1.1265277862548828E-5 1.9848346710205078E-5 -1.519918441772461E-6 -1.341104507446289E-6 8.940696716308594E-7 -5.0067901611328125E-6 -1.2159347534179688E-4 -1.7076730728149414E-5 -1.0102987289428711E-5 -1.2606382369995117E-5 -1.1327862739562988E-4 -1.3947486877441406E-5 2.682209014892578E-7 -4.121661186218262E-5 3.7550926208496094E-6 5.453824996948242E-6 -4.1931867599487305E-5 2.7626752853393555E-5 1.2606382369995117E-5 -4.00543212890625E-5 -4.9620866775512695E-5 -1.671910285949707E-4 -1.385807991027832E-5 -2.9799342155456543E-4 -5.185604095458984E-6 -2.4050474166870117E-5 1.430511474609375E-6 4.1931867599487305E-5 -2.3066997528076172E-5 1.5467405319213867E-5 -1.0818243026733398E-5 2.8789043426513672E-5 -1.564621925354004E-5 3.7729740142822266E-5 9.208917617797852E-6 -4.801154136657715E-5 1.0415911674499512E-4 -1.0612607002258301E-4 -2.4944543838500977E-4 4.202127456665039E-5 7.545948028564453E-5 -1.7514824867248535E-4 8.940696716308594E-8 4.1806697845458984E-4 -7.412731647491455E-4 -1.4573335647583008E-4 -0.001903921365737915 1.3232231140136719E-5 -3.5762786865234375E-7 2.7805566787719727E-5 2.467632293701172E-5 2.5132298469543457E-4 3.7729740142822266E-5 1.5467405319213867E-5 6.866455078125E-5 -1.4036893844604492E-5 1.1479854583740234E-4 1.2883543968200684E-4 -2.110004425048828E-5 1.3330578804016113E-4 -1.316070556640625E-4 -7.778406143188477E-6 1.29014253616333E-4 -2.0492076873779297E-4 1.6987323760986328E-4 6.964802742004395E-5 6.830692291259766E-5 7.510185241699219E-6 -8.851289749145508E-5 8.592009544372559E-5 -2.1332502365112305E-4 -3.674626350402832E-5 4.157423973083496E-5 6.437301635742188E-5 8.225440979003906E-5 2.3066997528076172E-5 1.71661376953125E-4 1.1944770812988281E-4 1.0040402412414551E-4 6.0886144638061523E-5 3.460049629211426E-5 -1.1551380157470703E-4 1.5020370483398438E-5 -2.4944543838500977E-5 -2.1636486053466797E-5 1.2499094009399414E-4 1.385807991027832E-4 1.4841556549072266E-5 -3.0040740966796875E-5 1.4188885688781738E-4 3.933906555175781E-5 -4.354119300842285E-5 -7.572770118713379E-5 7.098913192749023E-5 -1.3142824172973633E-5 3.0219554901123047E-5 -1.2955069541931152E-4 4.649162292480469E-5 -2.2673606872558594E-4 9.799003601074219E-5 5.936622619628906E-5 9.79006290435791E-5 2.86102294921875E-6 -1.671910285949707E-5 1.2007355690002441E-4 6.258487701416016E-5 -2.771615982055664E-5 2.79843807220459E-5 4.063546657562256E-4 1.9043684005737305E-5 -7.599592208862305E-6 4.2825937271118164E-5 -4.8995018005371094E-5 7.277727127075195E-5 5.239248275756836E-5 -1.4662742614746094E-5 6.330013275146484E-5 4.3782591819763184E-4 -2.0617246627807617E-4 -1.0371208190917969E-5 -7.975995540618896E-4 -1.5556812286376953E-5 1.6808509826660156E-5 -7.599592208862305E-6 4.559755325317383E-6 1.169443130493164E-4 -2.3603439331054688E-5 -9.924173355102539E-6 -9.208917617797852E-6 -2.3245811462402344E-6 1.868605613708496E-5 -1.2427568435668945E-5 -7.152557373046875E-6 6.946921348571777E-5 2.995133399963379E-5 -2.2351741790771484E-5 -1.9222497940063477E-5 -1.3053417205810547E-5 9.262561798095703E-5 2.9414892196655273E-5 -1.6987323760986328E-5 2.4944543838500977E-5 -2.4139881134033203E-6 -2.4050474166870117E-5 2.0116567611694336E-5 -2.4139881134033203E-6 4.3451786041259766E-5 2.4944543838500977E-5 2.5928020477294922E-5 -1.609325408935547E-5 4.747509956359863E-5 5.7220458984375E-6 7.778406143188477E-6 6.616115570068359E-6 7.957220077514648E-6 -2.0205974578857422E-5 6.884336471557617E-6 -7.152557373046875E-6 -1.8775463104248047E-5 1.5968084335327148E-4 6.070733070373535E-5 -1.430511474609375E-6 6.195902824401855E-5 -1.4036893844604492E-5 6.768107414245605E-5 -2.378225326538086E-5 6.705522537231445E-6 6.213784217834473E-5 -1.0728836059570312E-5 1.1444091796875E-5 -4.9173831939697266E-6 -2.950429916381836E-5 -5.27501106262207E-5 -1.3947486877441406E-5 3.3080577850341797E-6 -2.682209014892578E-6 2.0456314086914062E-4 4.3720006942749023E-5 5.900859832763672E-5 -1.9311904907226562E-5 1.0013580322265625E-5 0.0 4.134178161621094E-4 1.048743724822998E-4 9.235739707946777E-5 -2.269148826599121E-4 -5.27501106262207E-6 -3.5762786865234375E-7 -1.8846988677978516E-4 -2.085864543914795E-4 -2.065300941467285E-5 -4.57763671875E-4 -9.450316429138184E-5 -0.0012480318546295166 4.738569259643555E-6 -5.498528480529785E-5 -9.298324584960938E-6 2.950429916381836E-6 1.0728836059570312E-5 1.6987323760986328E-6 -9.566545486450195E-6 -9.566545486450195E-6 1.1086463928222656E-5 -8.940696716308594E-7 -7.420778274536133E-6 -4.398822784423828E-5 -3.3348798751831055E-5 9.924173355102539E-6 -7.152557373046875E-6 2.771615982055664E-6 -1.8033385276794434E-4 -3.120303153991699E-5 -3.960728645324707E-5 -5.364418029785156E-7 -8.296966552734375E-5 -1.0907649993896484E-5 -3.4868717193603516E-6 -7.840991020202637E-5 -8.493661880493164E-6 -1.1354684829711914E-5 3.5762786865234375E-7 -1.9669532775878906E-6 -1.4841556549072266E-5 6.5267086029052734E-6 -9.47713851928711E-6 -1.6987323760986328E-6 -9.47713851928711E-6 -1.7970800399780273E-5 -1.176595687866211E-4 -3.6209821701049805E-5 -2.35140323638916E-5 -8.046627044677734E-6 -1.5342235565185547E-4 -2.8342008590698242E-5 6.884336471557617E-6 -6.070733070373535E-5 -8.940696716308594E-7 -4.738569259643555E-6 -6.946921348571777E-5 1.7881393432617188E-5 1.430511474609375E-6 -6.74128532409668E-5 -5.078315734863281E-5 -1.8194317817687988E-4 -5.453824996948242E-6 -3.2088160514831543E-4 -2.0563602447509766E-6 -2.0742416381835938E-5 -1.7881393432617188E-6 4.9173831939697266E-6 -3.781914710998535E-5 -4.470348358154297E-6 -1.0818243026733398E-5 2.4050474166870117E-5 -2.154707908630371E-5 -2.8967857360839844E-5 -1.2964010238647461E-5 1.195371150970459E-4 -1.4930963516235352E-5 -7.671117782592773E-5 1.0755658149719238E-4 3.7980079650878906E-4 0.0010020732879638672 -8.475780487060547E-5 3.129243850708008E-5 -6.609857082366943E-4 -9.289383888244629E-5 -2.753734588623047E-5 -1.2025237083435059E-4 -1.2633204460144043E-4 2.7751922607421875E-4 -9.021162986755371E-5 -2.0116567611694336E-5 8.58306884765625E-6 -1.1211633682250977E-4 -1.34199857711792E-4 3.30805778503418E-5 -4.3451786041259766E-5 2.0125508308410645E-4 -2.0384788513183594E-5 -5.981326103210449E-5 -5.9276819229125977E-5 1.1989474296569824E-4 2.6151537895202637E-4 1.303553581237793E-4 -7.456541061401367E-5 1.2552738189697266E-4 -3.781914710998535E-5 -4.5686960220336914E-5 3.4689903259277344E-5 -1.1524558067321777E-4 -5.748867988586426E-5 -1.1667609214782715E-4 -1.0022521018981934E-4 -1.5109777450561523E-5 1.4322996139526367E-4 -1.386702060699463E-4 -1.2221932411193848E-4 -1.1461973190307617E-4 -8.082389831542969E-5 6.401538848876953E-5 -9.745359420776367E-5 -1.0433793067932129E-4 -2.4139881134033203E-5 5.33759593963623E-4 1.8846988677978516E-4 -9.807944297790527E-5 6.723403930664062E-5 1.671910285949707E-5 -6.258487701416016E-6 -3.889203071594238E-5 -2.512335777282715E-5 -3.8176774978637695E-5 -2.4318695068359375E-5 8.96751880645752E-5 1.532435417175293E-4 -4.595518112182617E-5 2.2172927856445312E-4 -9.021162986755371E-5 -1.4573335647583008E-4 -8.672475814819336E-5 2.5132298469543457E-4 8.493661880493164E-6 1.6433000564575195E-4 -2.2977590560913086E-5 -8.574128150939941E-5 2.0831823348999023E-5 9.508430957794189E-4 8.538365364074707E-5 3.249049186706543E-4 3.013908863067627E-4 -3.8176774978637695E-5 2.0831823348999023E-5 3.2776594161987305E-4 1.531541347503662E-4 -7.867813110351562E-6 1.4322996139526367E-4 9.173154830932617E-5 1.4653801918029785E-4 1.042485237121582E-4 2.1466612815856934E-4 1.1980533599853516E-5 1.659393310546875E-4 7.018446922302246E-5 1.2740492820739746E-4 8.779764175415039E-5 2.6598572731018066E-4 1.3428926467895508E-4 8.45789909362793E-5 6.258487701416016E-6 1.6629695892333984E-5 8.824467658996582E-5 2.308487892150879E-4 -2.5033950805664062E-5 -8.761882781982422E-6 5.14984130859375E-5 2.0563602447509766E-4 -1.0192394256591797E-5 9.298324584960938E-6 2.034902572631836E-4 -7.510185241699219E-6 8.779764175415039E-5 2.942383289337158E-4 2.566874027252197E-4 2.6661157608032227E-4 1.0514259338378906E-4 9.146332740783691E-5 2.3916363716125488E-4 2.594590187072754E-4 1.9615888595581055E-4 1.5753507614135742E-4 9.924173355102539E-6 1.5172362327575684E-4 1.0719895362854004E-4 7.25090503692627E-5 8.225440979003906E-5 2.181529998779297E-5 1.3250112533569336E-4 2.69472599029541E-4 1.7192959785461426E-4 3.1748414039611816E-4 -2.530217170715332E-5 -4.6581029891967773E-5 3.139078617095947E-4 1.8775463104248047E-5 1.761317253112793E-5 -2.9772520065307617E-5 1.1926889419555664E-4 -1.806020736694336E-5 1.8614530563354492E-4 2.617835998535156E-4 2.194046974182129E-4 4.995167255401611E-4 2.2915005683898926E-4 5.131959915161133E-5 1.1667609214782715E-4 3.30805778503418E-5 8.153915405273438E-5 3.044307231903076E-4 3.596842288970947E-4 2.3245811462402344E-6 -2.758204936981201E-4 -2.563297748565674E-4 -3.3974647521972656E-6 -7.125735282897949E-4 -1.989305019378662E-4 -0.0016984641551971436 -2.7805566787719727E-5 7.331371307373047E-6 -8.672475814819336E-6 -1.5288591384887695E-5 2.7179718017578125E-5 -7.599592208862305E-6 -6.070733070373535E-5 -2.968311309814453E-5 -2.5033950805664062E-5 5.364418029785156E-6 -1.1265277862548828E-5 2.6285648345947266E-5 -4.756450653076172E-5 -1.0523200035095215E-4 -4.622340202331543E-5 5.0067901611328125E-6 -2.848505973815918E-4 -3.692507743835449E-5 -6.902217864990234E-5 -1.2964010238647461E-5 -1.3205409049987793E-4 -1.0022521018981934E-4 4.202127456665039E-6 -2.1529197692871094E-4 -2.199411392211914E-5 -3.039836883544922E-6 -1.189112663269043E-5 5.364418029785156E-7 -5.650520324707031E-5 1.9043684005737305E-5 1.0460615158081055E-5 2.5033950805664062E-6 -4.559755325317383E-6 2.86102294921875E-6 -1.989305019378662E-4 1.9669532775878906E-6 -9.298324584960938E-6 -6.338953971862793E-5 -1.761317253112793E-4 -3.94284725189209E-5 -2.682209014892578E-5 -1.564621925354004E-5 7.867813110351562E-6 9.834766387939453E-7 5.614757537841797E-5 3.1113624572753906E-5 2.86102294921875E-6 2.92360782623291E-5 -8.96751880645752E-5 -2.7251243591308594E-4 -4.2557716369628906E-5 -4.0715932846069336E-4 -2.2351741790771484E-6 2.771615982055664E-6 5.364418029785156E-7 1.2785196304321289E-5 4.380941390991211E-6 -1.341104507446289E-5 -2.6106834411621094E-5 -3.147125244140625E-5 -6.526708602905273E-5 -8.314847946166992E-6 -4.380941390991211E-6 -2.3487210273742676E-4 -2.5597214698791504E-4 -2.9861927032470703E-5 -6.255805492401123E-4 -1.7470121383666992E-4 -0.0015521049499511719 -1.0102987289428711E-5 -9.924173355102539E-6 7.957220077514648E-6 1.6093254089355469E-6 2.2351741790771484E-6 1.2427568435668945E-5 -4.032254219055176E-5 -2.3603439331054688E-5 -6.3478946685791016E-6 -1.1622905731201172E-6 -2.22623348236084E-5 -2.0563602447509766E-6 -5.6684017181396484E-5 -4.953145980834961E-5 -3.37064266204834E-5 -6.16908073425293E-6 -2.3925304412841797E-4 -4.693865776062012E-5 -6.392598152160645E-5 -3.5762786865234375E-7 -1.2168288230895996E-4 -7.349252700805664E-5 1.6182661056518555E-5 -1.5100836753845215E-4 1.4662742614746094E-5 6.258487701416016E-7 -9.745359420776367E-6 2.682209014892578E-6 -4.971027374267578E-5 1.3321638107299805E-5 3.5762786865234375E-7 -2.4139881134033203E-6 4.470348358154297E-7 8.404254913330078E-6 -1.7577409744262695E-4 6.3478946685791016E-6 2.1189451217651367E-5 -4.836916923522949E-5 -1.8802285194396973E-4 -4.971027374267578E-5 -1.537799835205078E-5 -5.498528480529785E-5 -1.3768672943115234E-5 -4.9173831939697266E-6 4.827976226806641E-6 9.065866470336914E-5 1.6093254089355469E-6 -3.5762786865234375E-6 -9.253621101379395E-5 -2.5704503059387207E-4 -4.318356513977051E-5 -3.890097141265869E-4 -1.3947486877441406E-5 -1.9669532775878906E-6 -3.4868717193603516E-6 -6.973743438720703E-6 -2.530217170715332E-5 -1.0102987289428711E-5 -2.9772520065307617E-5 -1.1175870895385742E-5 -6.008148193359375E-5 -3.889203071594238E-5 -6.3478946685791016E-6 4.0143728256225586E-5 3.4180283546447754E-4 1.608431339263916E-4 -1.6182661056518555E-5 7.304549217224121E-5 8.466839790344238E-5 1.0970234870910645E-4 9.450316429138184E-5 1.755058765411377E-4 1.1622905731201172E-6 1.4448165893554688E-4 5.7220458984375E-5 8.189678192138672E-5 7.045269012451172E-5 2.1216273307800293E-4 8.028745651245117E-5 6.651878356933594E-5 4.470348358154297E-7 -2.619624137878418E-5 6.133317947387695E-5 1.8140673637390137E-4 4.380941390991211E-6 -3.147125244140625E-5 -2.950429916381836E-6 1.410841941833496E-4 -7.152557373046875E-7 -1.189112663269043E-5 1.4322996139526367E-4 -1.2695789337158203E-5 6.455183029174805E-5 2.32011079788208E-4 1.9544363021850586E-4 2.4121999740600586E-4 5.8650970458984375E-5 4.890561103820801E-5 2.149343490600586E-4 2.1958351135253906E-4 1.8587708473205566E-4 1.443028450012207E-4 -9.298324584960938E-6 7.814168930053711E-5 6.48200511932373E-5 2.2172927856445312E-5 9.60230827331543E-5 -4.559755325317383E-6 8.949637413024902E-5 2.1824240684509277E-4 1.4010071754455566E-4 2.626776695251465E-4 -7.05420970916748E-5 -5.614757537841797E-5 2.875328063964844E-4 -1.1354684829711914E-5 0.0 -6.079673767089844E-6 9.512901306152344E-5 7.68899917602539E-6 1.8364191055297852E-4 1.805126667022705E-4 1.4707446098327637E-4 4.133284091949463E-4 1.7765164375305176E-4 1.7255544662475586E-5 9.754300117492676E-5 -7.152557373046875E-7 5.6862831115722656E-5 3.0604004859924316E-4 3.2070279121398926E-4 1.1587142944335938E-4 4.532933235168457E-5 -9.91523265838623E-5 6.473958492279053E-4 1.3500452041625977E-5 1.850724220275879E-5 1.564621925354004E-5 1.8158555030822754E-4 1.1846423149108887E-4 1.2069940567016602E-4 1.6987323760986328E-5 1.1068582534790039E-4 -1.475214958190918E-5 2.2897124290466309E-4 1.2409687042236328E-4 -6.821751594543457E-5 8.699297904968262E-5 -1.2829899787902832E-4 2.950429916381836E-5 2.2459030151367188E-4 -4.649162292480469E-5 5.704164505004883E-5 6.249547004699707E-5 1.6620755195617676E-4 -4.738569259643555E-6 -1.1819601058959961E-4 2.0894408226013184E-4 -1.3563036918640137E-4 -6.079673767089844E-6 2.0456314086914062E-4 1.8328428268432617E-4 2.3254752159118652E-4 6.240606307983398E-5 1.4832615852355957E-4 2.1770596504211426E-4 2.4372339248657227E-4 1.3563036918640137E-4 6.330013275146484E-5 -5.4448843002319336E-5 1.8596649169921875E-5 -2.6285648345947266E-5 1.3321638107299805E-5 -2.3245811462402344E-6 7.322430610656738E-5 5.981326103210449E-5 1.3911724090576172E-4 2.0313262939453125E-4 2.3558735847473145E-4 -2.670586109161377E-4 -2.608001232147217E-4 2.72601842880249E-4 -1.9294023513793945E-4 2.22623348236084E-5 -1.940131187438965E-5 6.633996963500977E-5 1.0102987289428711E-5 1.7273426055908203E-4 1.9821524620056152E-4 1.8596649169921875E-4 3.324151039123535E-4 1.0308623313903809E-4 1.1944770812988281E-4 1.0603666305541992E-4 -1.0773539543151855E-4 5.650520324707031E-5 1.0094046592712402E-4 2.4399161338806152E-4 -5.947351455688477E-4 -4.925429821014404E-4 6.785988807678223E-5 -3.2195448875427246E-4 -3.910660743713379E-4 -3.312528133392334E-4 -6.0439109802246094E-5 4.3272972106933594E-5 -1.2597441673278809E-4 -2.665221691131592E-4 -9.557604789733887E-5 -3.857910633087158E-4 2.3603439331054688E-5 -4.559755325317383E-5 -4.971921443939209E-4 -6.982684135437012E-5 -5.53518533706665E-4 -2.560615539550781E-4 5.3375959396362305E-5 -3.56823205947876E-4 -4.416704177856445E-5 -1.232922077178955E-4 -5.7309865951538086E-5 -2.4121999740600586E-4 -5.142688751220703E-4 5.7309865951538086E-5 -5.589723587036133E-4 -3.572702407836914E-4 -5.677342414855957E-5 -5.346536636352539E-5 2.950429916381836E-6 -2.0876526832580566E-4 4.023313522338867E-5 -5.543231964111328E-6 4.5418739318847656E-5 -1.3366341590881348E-4 -2.65270471572876E-4 -3.578066825866699E-4 -3.426969051361084E-4 -3.851652145385742E-4 -2.910196781158447E-4 -5.874037742614746E-5 -7.170438766479492E-5 -2.3746490478515625E-4 -2.2226572036743164E-4 4.0143728256225586E-5 -2.5659799575805664E-5 -7.925927639007568E-4 -8.168220520019531E-4 3.361701965332031E-5 -6.893277168273926E-4 -2.218186855316162E-4 -3.185570240020752E-4 -2.067089080810547E-4 -2.0107626914978027E-4 -5.65946102142334E-5 -2.0563602447509766E-5 -2.9772520065307617E-5 2.422928810119629E-5 -2.4309754371643066E-4 -1.609325408935547E-5 -1.245439052581787E-4 -5.144476890563965E-4 -2.0563602447509766E-4 -1.0728836059570312E-6 -5.552172660827637E-5 4.470348358154297E-7 3.0621886253356934E-4 3.407299518585205E-4 5.564689636230469E-4 3.7747621536254883E-4 4.918277263641357E-4 -2.2709369659423828E-5 4.031360149383545E-4 2.211928367614746E-4 2.6169419288635254E-4 3.491342067718506E-4 5.307197570800781E-4 2.326369285583496E-4 4.3889880180358887E-4 -2.1457672119140625E-6 1.519918441772461E-4 2.72601842880249E-4 4.432797431945801E-4 -1.3124942779541016E-4 -1.0371208190917969E-4 5.4717063903808594E-5 4.4015049934387207E-4 -4.1037797927856445E-5 1.34199857711792E-4 4.0921568870544434E-4 -1.6093254089355469E-6 3.87042760848999E-4 6.338059902191162E-4 5.219578742980957E-4 5.787312984466553E-4 2.4452805519104004E-4 1.639723777770996E-4 5.269646644592285E-4 5.354583263397217E-4 4.891455173492432E-4 4.6956539154052734E-4 -3.0487775802612305E-5 4.677772521972656E-4 4.0018558502197266E-4 2.3791193962097168E-4 7.76052474975586E-5 -1.430511474609375E-6 3.7810206413269043E-4 7.754266262054443E-4 3.4350156784057617E-4 6.828904151916504E-4 3.191828727722168E-4 2.3370981216430664E-4 6.839632987976074E-4 3.801584243774414E-4 5.391240119934082E-5 -1.5556812286376953E-4 2.9790401458740234E-4 -8.940696716308594E-5 4.264712333679199E-4 5.50389289855957E-4 4.5499205589294434E-4 0.0010586678981781006 6.368458271026611E-4 1.1596083641052246E-4 2.847611904144287E-4 2.466738224029541E-4 2.02864408493042E-4 5.395710468292236E-4 8.116364479064941E-4 -2.945065498352051E-4 3.7729740142822266E-5 1.0326504707336426E-4 5.498528480529785E-5 1.023709774017334E-4 1.4930963516235352E-5 5.7309865951538086E-5 4.738569259643555E-6 1.1801719665527344E-5 4.336237907409668E-5 1.3679265975952148E-4 1.341104507446289E-5 5.239248275756836E-5 -1.5288591384887695E-5 -2.86102294921875E-6 2.0742416381835938E-5 9.012222290039062E-5 1.5556812286376953E-5 2.682209014892578E-5 -4.470348358154297E-5 7.635354995727539E-5 -9.745359420776367E-6 2.682209014892578E-7 6.517767906188965E-5 4.112720489501953E-6 4.425644874572754E-5 1.6048550605773926E-4 1.2731552124023438E-4 1.4832615852355957E-4 2.0384788513183594E-5 -5.4448843002319336E-5 1.2284517288208008E-4 1.2642145156860352E-4 9.942054748535156E-5 8.851289749145508E-5 -1.3589859008789062E-5 7.742643356323242E-5 4.363059997558594E-5 1.0728836059570312E-5 1.863241195678711E-4 -1.7523765563964844E-5 5.391240119934082E-5 1.8972158432006836E-4 4.0858983993530273E-5 1.9732117652893066E-4 -1.9043684005737305E-5 -6.973743438720703E-6 1.9410252571105957E-4 1.5020370483398438E-5 -4.2110681533813477E-5 8.225440979003906E-6 3.6835670471191406E-5 2.5033950805664062E-5 7.939338684082031E-5 1.1095404624938965E-4 9.423494338989258E-5 3.662109375E-4 1.4698505401611328E-4 -4.774332046508789E-5 2.4318695068359375E-5 1.761317253112793E-5 -2.3245811462402344E-6 4.614293575286865E-4 2.4238228797912598E-4 0.0010534822940826416 0.0015029311180114746 0.0011571943759918213 0.001293182373046875 3.269612789154053E-4 0.0011533498764038086 7.96884298324585E-4 8.696615695953369E-4 0.0010816454887390137 0.0013812482357025146 8.348822593688965E-4 0.0013151764869689941 3.3536553382873535E-4 6.472170352935791E-4 9.05156135559082E-4 0.0012080669403076172 -5.84721565246582E-5 1.6736984252929688E-4 4.5812129974365234E-4 0.0011845529079437256 2.422034740447998E-4 6.385445594787598E-4 0.0011261701583862305 2.688467502593994E-4 0.0011326074600219727 0.001566857099533081 0.0013822317123413086 0.0014740526676177979 8.542835712432861E-4 6.53386116027832E-4 0.0013677477836608887 0.0013673901557922363 0.0013257265090942383 0.0013319849967956543 2.1949410438537598E-4 0.0013017654418945312 0.0011782050132751465 8.174479007720947E-4 -8.752942085266113E-4 3.6397576332092285E-4 0.001097649335861206 0.0018782615661621094 9.975135326385498E-4 0.0016973912715911865 0.001133948564529419 9.562969207763672E-4 0.001653134822845459 0.0012575984001159668 4.5239925384521484E-4 -9.101629257202148E-5 9.558498859405518E-4 -5.741715431213379E-4 0.0011842846870422363 0.001387953758239746 0.0012345314025878906 0.0023715198040008545 0.0016372203826904297 5.431473255157471E-4 9.199082851409912E-4 9.237527847290039E-4 7.426142692565918E-4 -1.79976224899292E-4 0.0019286870956420898 -3.039836883544922E-6 -5.185604095458984E-6 -7.957220077514648E-6 1.1453032493591309E-4 -4.559755325317383E-6 -1.7881393432617188E-7 1.7881393432617188E-5 5.185604095458984E-6 -1.233816146850586E-5 3.272294998168945E-5 -3.7550926208496094E-6 5.221366882324219E-5 1.385807991027832E-5 3.5762786865234375E-6 7.241964340209961E-6 -7.957220077514648E-5 8.368492126464844E-5 3.522634506225586E-5 -2.4139881134033203E-6 -4.202127456665039E-6 3.5762786865234375E-6 9.655952453613281E-6 -3.629922866821289E-5 3.933906555175781E-6 9.834766387939453E-6 -4.380941390991211E-6 5.185604095458984E-6 8.13603401184082E-6 6.946921348571777E-5 -6.973743438720703E-6 -1.3232231140136719E-5 -1.6987323760986328E-6 -4.291534423828125E-6 -4.228949546813965E-5 -8.851289749145508E-6 -4.559755325317383E-6 8.493661880493164E-6 7.733702659606934E-5 6.151199340820312E-5 -1.6987323760986328E-6 2.7626752853393555E-5 2.7447938919067383E-5 2.3156404495239258E-5 -2.002716064453125E-5 3.406405448913574E-5 2.512335777282715E-5 -2.244114875793457E-5 1.3232231140136719E-5 -7.37607479095459E-5 -1.7881393432617188E-7 -1.3053417205810547E-4 -6.616115570068359E-6 -2.4944543838500977E-5 -3.844499588012695E-6 1.1175870895385742E-4 1.4036893844604492E-5 6.321072578430176E-5 1.0639429092407227E-5 2.574920654296875E-5 6.705522537231445E-6 3.026425838470459E-4 4.953145980834961E-5 4.9173831939697266E-6 4.139542579650879E-5 1.8578767776489258E-4 5.373358726501465E-5 5.453824996948242E-6 5.453824996948242E-5 1.341104507446289E-6 2.2530555725097656E-5 6.249547004699707E-5 1.7434358596801758E-5 1.0192394256591797E-4 -3.5136938095092773E-5 1.2427568435668945E-5 6.097555160522461E-5 -1.1783838272094727E-4 1.2624263763427734E-4 5.9545040130615234E-5 3.790855407714844E-5 -1.1622905731201172E-6 -5.167722702026367E-5 8.0108642578125E-5 -1.0398030281066895E-4 2.2351741790771484E-6 4.023313522338867E-6 9.745359420776367E-6 2.1725893020629883E-5 2.1278858184814453E-5 1.4260411262512207E-4 3.084540367126465E-5 4.139542579650879E-5 1.4036893844604492E-5 6.4373016357421875E-6 -8.466839790344238E-5 -5.185604095458984E-6 4.380941390991211E-6 3.6656856536865234E-6 1.0326504707336426E-4 1.0013580322265625E-4 6.616115570068359E-6 -4.9173831939697266E-6 8.788704872131348E-5 -1.1712312698364258E-5 3.826618194580078E-5 4.1037797927856445E-5 3.5762786865234375E-6 3.1113624572753906E-5 1.761317253112793E-5 -1.0800361633300781E-4 9.298324584960938E-6 -1.7693638801574707E-4 4.3898820877075195E-5 3.1828880310058594E-5 3.764033317565918E-5 5.6415796279907227E-5 -8.493661880493164E-6 1.2472271919250488E-4 4.649162292480469E-5 -1.8328428268432617E-5 2.1904706954956055E-5 3.7166476249694824E-4 6.4373016357421875E-6 2.2351741790771484E-6 1.265108585357666E-4 1.8864870071411133E-5 6.616115570068359E-6 2.7447938919067383E-5 8.046627044677734E-6 -1.055002212524414E-5 3.719329833984375E-5 -1.9669532775878906E-6 5.78463077545166E-5 1.1444091796875E-5 7.152557373046875E-6 1.609325408935547E-5 -7.733702659606934E-5 9.110569953918457E-5 3.9070844650268555E-5 1.537799835205078E-5 -4.827976226806641E-6 -9.03010368347168E-6 2.9146671295166016E-5 -3.8176774978637695E-5 1.475214958190918E-5 -7.331371307373047E-6 -1.2695789337158203E-5 -6.616115570068359E-6 8.13603401184082E-6 8.895993232727051E-5 -1.0639429092407227E-5 -2.3245811462402344E-6 -1.1086463928222656E-5 -1.8775463104248047E-6 -4.5418739318847656E-5 -1.519918441772461E-5 -1.4394521713256836E-5 9.834766387939453E-6 7.921457290649414E-5 6.535649299621582E-5 5.543231964111328E-6 5.185604095458984E-6 3.960728645324707E-5 1.609325408935547E-5 -1.537799835205078E-5 5.507469177246094E-5 1.1712312698364258E-5 -9.47713851928711E-6 8.851289749145508E-6 -8.296966552734375E-5 1.9669532775878906E-6 -1.3786554336547852E-4 -2.1457672119140625E-6 -3.1560659408569336E-5 8.58306884765625E-6 9.09268856048584E-5 4.023313522338867E-6 8.45789909362793E-5 1.4573335647583008E-5 1.627206802368164E-5 1.1265277862548828E-5 3.083646297454834E-4 3.674626350402832E-5 4.0411949157714844E-5 3.2186508178710938E-6 -3.039836883544922E-5 -1.0907649993896484E-5 1.582503318786621E-5 -1.9669532775878906E-6 -1.1801719665527344E-5 -2.2172927856445312E-5 2.0563602447509766E-6 -1.2964010238647461E-5 -1.958012580871582E-5 -4.470348358154297E-6 -1.8087029457092285E-4 -1.4841556549072266E-5 -2.154707908630371E-5 -3.933906555175781E-6 -8.19861888885498E-5 -4.0143728256225586E-5 -3.039836883544922E-6 -1.0719895362854004E-4 1.4662742614746094E-5 1.2516975402832031E-5 -4.738569259643555E-6 1.2516975402832031E-6 -5.364418029785156E-6 1.9311904907226562E-5 -6.616115570068359E-6 -5.0067901611328125E-6 8.940696716308594E-6 -4.202127456665039E-6 -1.3911724090576172E-4 -1.0281801223754883E-5 1.4394521713256836E-5 -1.2606382369995117E-5 -1.0558962821960449E-4 -5.990266799926758E-6 -2.86102294921875E-6 -2.512335777282715E-5 6.973743438720703E-6 2.4139881134033203E-6 -1.582503318786621E-5 3.1381845474243164E-5 1.0818243026733398E-5 -2.950429916381836E-5 -3.674626350402832E-5 -1.639723777770996E-4 -2.22623348236084E-5 -3.1051039695739746E-4 -5.0961971282958984E-6 -2.4139881134033203E-6 3.3974647521972656E-6 6.204843521118164E-5 -1.537799835205078E-5 1.1622905731201172E-5 -7.957220077514648E-6 2.816319465637207E-5 -2.065300941467285E-5 5.0067901611328125E-5 2.092123031616211E-5 -6.499886512756348E-5 -6.267428398132324E-5 -3.218650817871094E-5 -1.3974308967590332E-4 4.470348358154297E-7 -1.430511474609375E-6 -2.1591782569885254E-4 3.933906555175781E-6 -1.2060999870300293E-4 -7.43865966796875E-5 -2.682209014892578E-7 1.4036893844604492E-5 -2.682209014892578E-7 -6.705522537231445E-6 -3.6656856536865234E-5 5.900859832763672E-6 -9.97781753540039E-5 5.0961971282958984E-6 -2.3424625396728516E-5 -1.3214349746704102E-4 -5.319714546203613E-5 -3.55839729309082E-5 -2.1904706954956055E-5 -5.59687614440918E-5 -5.632638931274414E-6 -2.110004425048828E-5 -3.844499588012695E-6 -6.80387020111084E-5 -1.1971592903137207E-4 2.110004425048828E-5 -1.4403462409973145E-4 -1.5342235565185547E-4 -7.805228233337402E-5 -1.0371208190917969E-4 -1.2516975402832031E-6 -8.592009544372559E-5 -1.379549503326416E-4 -5.7220458984375E-6 -3.3795833587646484E-5 -3.1819939613342285E-4 -2.79843807220459E-4 -1.3589859008789062E-5 -2.92360782623291E-4 -1.77919864654541E-5 -4.738569259643555E-6 -6.508827209472656E-5 -1.4027953147888184E-4 -3.451108932495117E-5 -4.881620407104492E-5 -2.199411392211914E-5 -1.4573335647583008E-5 -1.2615323066711426E-4 -1.1622905731201172E-5 -4.202127456665039E-5 -1.5154480934143066E-4 -5.14984130859375E-5 -4.6133995056152344E-5 -5.78463077545166E-5 -8.672475814819336E-6 4.291534423828125E-6 7.241964340209961E-6 -3.933906555175781E-6 1.7523765563964844E-5 -3.120303153991699E-5 2.440810203552246E-5 1.0907649993896484E-5 -6.3478946685791016E-6 1.1712312698364258E-5 -1.3965368270874023E-4 1.9937753677368164E-5 5.811452865600586E-6 8.493661880493164E-6 -4.979968070983887E-5 -5.543231964111328E-6 -6.794929504394531E-6 -7.179379463195801E-5 9.834766387939453E-7 -1.0728836059570312E-6 -3.933906555175781E-6 -6.705522537231445E-6 1.430511474609375E-5 3.406405448913574E-5 -1.564621925354004E-5 -4.112720489501953E-6 -2.0563602447509766E-6 -1.71661376953125E-5 -9.360909461975098E-5 -3.746151924133301E-5 -5.185604095458984E-6 1.0192394256591797E-5 -4.756450653076172E-5 2.3245811462402344E-5 7.152557373046875E-7 -1.8596649169921875E-5 2.2351741790771484E-5 -1.0728836059570312E-6 -4.1484832763671875E-5 1.233816146850586E-5 5.7220458984375E-6 -5.257129669189453E-5 -5.811452865600586E-6 -1.1757016181945801E-4 1.8775463104248047E-6 -2.4434924125671387E-4 -2.682209014892578E-6 -1.671910285949707E-5 5.990266799926758E-6 6.499886512756348E-5 -1.7076730728149414E-5 2.771615982055664E-5 5.0067901611328125E-6 2.002716064453125E-5 7.152557373046875E-7 1.1292099952697754E-4 1.7255544662475586E-5 -4.202127456665039E-6 4.112720489501953E-6 2.0384788513183594E-5 1.3589859008789062E-5 -1.823902130126953E-5 1.9937753677368164E-5 3.844499588012695E-5 -1.6093254089355469E-6 3.4868717193603516E-6 -5.409121513366699E-5 5.194544792175293E-5 1.5556812286376953E-5 5.364418029785156E-6 -7.063150405883789E-6 3.272294998168945E-5 -1.1712312698364258E-5 8.672475814819336E-6 -3.2186508178710938E-6 3.933906555175781E-5 1.9758939743041992E-5 3.808736801147461E-5 -3.3080577850341797E-6 2.530217170715332E-5 2.2798776626586914E-5 2.753734588623047E-5 1.7881393432617188E-5 4.380941390991211E-6 -2.0295381546020508E-5 -1.4394521713256836E-5 -1.430511474609375E-5 -2.592802047729492E-6 5.14984130859375E-5 3.281235694885254E-5 -1.7881393432617188E-7 3.2454729080200195E-5 -1.1354684829711914E-5 4.8995018005371094E-5 -6.794929504394531E-5 -9.924173355102539E-6 6.213784217834473E-5 -5.525350570678711E-5 7.331371307373047E-6 -5.891919136047363E-5 8.940696716308594E-8 -1.1354684829711914E-4 1.850724220275879E-5 1.2159347534179688E-5 0.0 1.266002655029297E-4 1.9043684005737305E-5 2.512335777282715E-5 -5.453824996948242E-6 -1.475214958190918E-5 -7.063150405883789E-6 2.479255199432373E-4 7.465481758117676E-5 -1.6987323760986328E-5 1.8596649169921875E-5 1.7881393432617188E-6 -6.160140037536621E-5 4.023313522338867E-6 3.406405448913574E-5 6.616115570068359E-6 5.990266799926758E-6 -8.484721183776855E-5 7.241964340209961E-6 -4.112720489501953E-6 2.1457672119140625E-6 -2.5391578674316406E-5 3.853440284729004E-5 8.314847946166992E-6 1.1265277862548828E-5 -2.467632293701172E-5 1.5288591384887695E-5 1.5288591384887695E-5 1.6808509826660156E-5 5.0961971282958984E-6 1.0281801223754883E-5 1.0013580322265625E-5 1.627206802368164E-5 -1.519918441772461E-6 -2.136826515197754E-5 -4.908442497253418E-5 -3.7550926208496094E-5 -3.49581241607666E-5 8.672475814819336E-6 -5.543231964111328E-5 5.453824996948242E-6 -5.364418029785156E-6 -2.9325485229492188E-5 -8.404254913330078E-6 1.806020736694336E-5 -1.062154769897461E-4 -5.1587820053100586E-5 3.209710121154785E-5 -9.334087371826172E-5 -6.3478946685791016E-6 -8.913874626159668E-5 6.4373016357421875E-6 -2.0331144332885742E-4 1.0460615158081055E-5 4.470348358154297E-6 1.6093254089355469E-6 6.946921348571777E-5 -2.4586915969848633E-5 8.851289749145508E-6 3.3974647521972656E-6 -2.047419548034668E-5 1.6093254089355469E-6 8.511543273925781E-5 2.7179718017578125E-5 -2.092123031616211E-5 2.2530555725097656E-5 -4.470348358154297E-7 7.787346839904785E-5 3.3974647521972656E-6 -5.27501106262207E-6 1.1622905731201172E-6 -6.67870044708252E-5 9.79006290435791E-5 4.094839096069336E-5 -6.4373016357421875E-6 7.68899917602539E-6 -1.5735626220703125E-5 6.4373016357421875E-6 -3.889203071594238E-5 -6.258487701416016E-7 9.834766387939453E-6 -6.5267086029052734E-6 -3.039836883544922E-6 4.827976226806641E-6 8.368492126464844E-5 -1.7881393432617188E-5 -2.2619962692260742E-5 -9.298324584960938E-6 -3.129243850708008E-6 -4.5418739318847656E-5 -3.2186508178710938E-6 -1.7881393432617188E-6 1.430511474609375E-6 1.176595687866211E-4 7.411837577819824E-5 -1.2516975402832031E-5 3.343820571899414E-5 3.5136938095092773E-5 2.9861927032470703E-5 8.940696716308594E-7 4.443526268005371E-5 1.850724220275879E-5 -4.470348358154297E-6 1.850724220275879E-5 -5.2481889724731445E-5 -7.957220077514648E-6 -1.138150691986084E-4 -4.291534423828125E-6 -2.9861927032470703E-5 -9.298324584960938E-6 1.385807991027832E-4 2.1457672119140625E-5 8.127093315124512E-5 1.1622905731201172E-5 4.291534423828125E-6 1.1980533599853516E-5 3.637075424194336E-4 5.6862831115722656E-5 -1.0639429092407227E-5 -2.5212764739990234E-5 -5.9992074966430664E-5 -2.0295381546020508E-5 -2.154707908630371E-5 -2.4139881134033203E-6 -2.097487449645996E-4 -3.3795833587646484E-5 -5.874037742614746E-5 -2.2351741790771484E-6 -1.0076165199279785E-4 -3.6835670471191406E-5 3.933906555175781E-6 -1.042485237121582E-4 4.827976226806641E-6 -1.3768672943115234E-5 -1.0728836059570312E-6 -5.364418029785156E-7 -3.281235694885254E-5 2.4139881134033203E-6 -2.1457672119140625E-6 -2.3245811462402344E-6 -8.314847946166992E-6 -7.063150405883789E-6 -1.3706088066101074E-4 -1.564621925354004E-5 -1.4126300811767578E-5 -3.522634506225586E-5 -1.7201900482177734E-4 -4.425644874572754E-5 -3.6656856536865234E-6 -5.739927291870117E-5 -1.0639429092407227E-5 -7.867813110351562E-6 -4.926323890686035E-5 5.766749382019043E-5 4.112720489501953E-6 -4.121661186218262E-5 -8.153915405273438E-5 -2.2852420806884766E-4 -2.22623348236084E-5 -3.4376978874206543E-4 -7.778406143188477E-6 -2.619624137878418E-5 1.0728836059570312E-6 -1.3500452041625977E-5 -3.3527612686157227E-5 -1.8149614334106445E-5 -2.6553869247436523E-5 1.8417835235595703E-5 -3.94284725189209E-5 -3.2275915145874023E-5 -1.806020736694336E-5 -8.431077003479004E-5 -2.753734588623047E-5 1.2695789337158203E-5 -3.844499588012695E-6 1.609325408935547E-5 -7.68899917602539E-5 -7.68899917602539E-6 -2.1189451217651367E-5 -8.046627044677734E-6 -2.3603439331054688E-5 1.609325408935547E-5 -7.599592208862305E-6 3.978610038757324E-5 -5.6236982345581055E-5 -5.185604095458984E-6 6.616115570068359E-6 1.3232231140136719E-5 2.0295381546020508E-5 8.046627044677734E-7 8.046627044677734E-7 9.387731552124023E-6 -2.3156404495239258E-5 -3.3348798751831055E-5 -2.92360782623291E-5 -6.240606307983398E-5 -7.82310962677002E-5 1.0281801223754883E-5 -8.70823860168457E-5 -1.7881393432617188E-5 -1.9222497940063477E-5 -7.05420970916748E-5 -2.86102294921875E-6 9.298324584960938E-6 -1.5780329704284668E-4 -5.84721565246582E-5 2.440810203552246E-5 -1.2060999870300293E-4 -2.3692846298217773E-5 -1.0460615158081055E-4 2.86102294921875E-6 -2.0644068717956543E-4 1.1533498764038086E-5 -1.582503318786621E-5 5.811452865600586E-6 1.537799835205078E-5 -5.060434341430664E-5 -2.1457672119140625E-6 1.0013580322265625E-5 -3.1828880310058594E-5 1.537799835205078E-5 3.406405448913574E-5 1.430511474609375E-6 1.366138458251953E-4 -1.4930963516235352E-5 1.055002212524414E-5 6.67870044708252E-5 -6.464123725891113E-5 1.6602873802185059E-4 9.486079216003418E-5 4.1931867599487305E-5 3.281235694885254E-5 -2.8073787689208984E-5 6.330013275146484E-5 -6.750226020812988E-5 -8.225440979003906E-6 -1.1980533599853516E-5 9.387731552124023E-6 5.27501106262207E-6 4.166364669799805E-5 1.5234947204589844E-4 2.3603439331054688E-5 3.0666589736938477E-5 -4.649162292480469E-6 -8.493661880493164E-6 -4.2378902435302734E-5 6.16908073425293E-6 -4.023313522338867E-6 2.22623348236084E-5 1.9043684005737305E-4 1.3563036918640137E-4 9.208917617797852E-6 1.1265277862548828E-5 9.289383888244629E-5 -2.816319465637207E-5 3.102421760559082E-5 4.228949546813965E-5 -2.2083520889282227E-5 1.5109777450561523E-5 5.319714546203613E-5 -3.933906555175781E-5 2.181529998779297E-5 -9.271502494812012E-5 2.816319465637207E-5 1.233816146850586E-5 4.8279762268066406E-5 9.995698928833008E-5 -6.794929504394531E-6 1.4027953147888184E-4 4.729628562927246E-5 4.470348358154297E-7 4.1484832763671875E-5 4.704594612121582E-4 1.9490718841552734E-5 -8.19861888885498E-5 -3.4332275390625E-5 4.425644874572754E-5 1.385807991027832E-5 -7.68899917602539E-6 -2.86102294921875E-6 9.03010368347168E-6 1.9311904907226562E-5 -5.015730857849121E-5 3.084540367126465E-5 3.933906555175781E-6 -7.322430610656738E-5 1.9222497940063477E-5 2.6911497116088867E-5 4.166364669799805E-5 -2.5212764739990234E-5 2.86102294921875E-6 4.4971704483032227E-5 4.9442052841186523E-5 2.5033950805664062E-6 -4.4971704483032227E-5 3.254413604736328E-5 -6.696581840515137E-5 -8.511543273925781E-5 -4.246830940246582E-5 -4.881620407104492E-5 0.0 -3.1381845474243164E-5 -4.8995018005371094E-5 2.7447938919067383E-5 3.477931022644043E-5 -2.2771954536437988E-4 -2.084970474243164E-4 6.008148193359375E-5 -1.9848346710205078E-4 -1.0728836059570312E-6 -1.2785196304321289E-5 -9.298324584960938E-6 -1.176595687866211E-4 1.6897916793823242E-5 4.559755325317383E-6 2.4139881134033203E-5 9.360909461975098E-5 -5.0067901611328125E-5 -1.189112663269043E-5 -8.493661880493164E-6 -8.842349052429199E-5 -1.8328428268432617E-5 5.9098005294799805E-5 3.764033317565918E-5 -2.7447938919067383E-5 -3.6388635635375977E-5 9.834766387939453E-7 1.0818243026733398E-4 4.3451786041259766E-5 -1.0460615158081055E-5 2.8342008590698242E-5 -1.850724220275879E-5 -2.5838613510131836E-5 5.543231964111328E-6 1.1622905731201172E-5 7.796287536621094E-5 3.075599670410156E-5 4.1484832763671875E-5 -2.0295381546020508E-5 2.8431415557861328E-5 1.9311904907226562E-5 1.8417835235595703E-5 2.6106834411621094E-5 1.9848346710205078E-5 -1.6361474990844727E-5 1.5556812286376953E-5 1.7344951629638672E-5 -3.88026237487793E-5 2.3433566093444824E-4 7.572770118713379E-5 -4.023313522338867E-6 1.2364983558654785E-4 -4.7832727432250977E-5 8.064508438110352E-5 -6.258487701416016E-7 -5.0961971282958984E-6 8.887052536010742E-5 4.470348358154297E-6 2.4944543838500977E-5 2.467632293701172E-5 -3.2454729080200195E-5 7.599592208862305E-6 -5.900859832763672E-6 3.567337989807129E-5 -1.9758939743041992E-5 2.6795268058776855E-4 7.322430610656738E-5 3.4242868423461914E-5 -5.194544792175293E-5 -2.288818359375E-5 -2.4050474166870117E-5 5.250871181488037E-4 1.5306472778320312E-4 -6.258487701416016E-7 -6.553530693054199E-5 4.45246696472168E-5 7.957220077514648E-6 2.3245811462402344E-6 -5.543231964111328E-6 1.9848346710205078E-5 -1.5735626220703125E-5 -2.0116567611694336E-5 -1.0371208190917969E-5 4.094839096069336E-5 3.477931022644043E-5 3.057718276977539E-5 -1.2695789337158203E-5 4.291534423828125E-5 8.046627044677734E-6 1.7076730728149414E-5 9.208917617797852E-6 3.3080577850341797E-6 -3.737211227416992E-5 -8.404254913330078E-6 -6.4373016357421875E-6 6.16908073425293E-6 4.550814628601074E-5 3.120303153991699E-5 -4.738569259643555E-6 1.958012580871582E-5 -2.682209014892578E-6 5.221366882324219E-5 -4.4971704483032227E-5 1.7255544662475586E-5 4.45246696472168E-5 -3.7282705307006836E-5 8.046627044677734E-6 -6.267428398132324E-5 -4.023313522338867E-6 -1.4322996139526367E-4 2.682209014892578E-6 1.4036893844604492E-5 -9.834766387939453E-7 1.291036605834961E-4 1.9043684005737305E-5 4.0411949157714844E-5 -4.827976226806641E-6 3.039836883544922E-6 -8.404254913330078E-6 2.389848232269287E-4 6.857514381408691E-5 -1.7622113227844238E-4 -3.8623809814453125E-5 -4.3898820877075195E-5 -3.933906555175781E-6 -8.064508438110352E-5 -1.9669532775878906E-6 4.738569259643555E-6 -5.525350570678711E-5 -1.4036893844604492E-5 -1.7970800399780273E-5 -5.7220458984375E-6 -5.900859832763672E-6 -1.0013580322265625E-5 -1.1622905731201172E-6 -6.258487701416016E-6 -3.129243850708008E-6 -1.5467405319213867E-5 -2.682209014892578E-5 -1.1846423149108887E-4 -3.549456596374512E-5 -3.549456596374512E-5 -2.1457672119140625E-6 -1.7398595809936523E-4 -3.826618194580078E-5 6.973743438720703E-6 -7.233023643493652E-5 -1.0192394256591797E-5 -1.4662742614746094E-5 -9.039044380187988E-5 -1.0639429092407227E-5 -2.771615982055664E-6 -8.699297904968262E-5 -6.026029586791992E-5 -1.8391013145446777E-4 -4.470348358154297E-7 -3.293752670288086E-4 4.291534423828125E-6 -2.0116567611694336E-5 2.771615982055664E-6 -4.291534423828125E-6 -4.935264587402344E-5 -9.119510650634766E-6 -1.0192394256591797E-5 1.850724220275879E-5 -1.9669532775878906E-5 -5.704164505004883E-5 -2.5838613510131836E-5 -4.336237907409668E-5 -2.682209014892578E-7 1.6039609909057617E-4 -1.5288591384887695E-5 -4.649162292480469E-6 1.6701221466064453E-4 4.9173831939697266E-6 8.797645568847656E-5 2.4399161338806152E-4 1.9490718841552734E-4 2.2915005683898926E-4 5.319714546203613E-5 6.526708602905273E-5 2.0447373390197754E-4 2.186894416809082E-4 1.7085671424865723E-4 1.2794137001037598E-4 3.2186508178710938E-6 1.0594725608825684E-4 9.182095527648926E-5 4.0143728256225586E-5 1.0719895362854004E-4 -1.5467405319213867E-5 1.0129809379577637E-4 2.518594264984131E-4 1.3875961303710938E-4 2.543628215789795E-4 -4.112720489501953E-5 -6.535649299621582E-5 2.773404121398926E-4 -7.063150405883789E-6 -6.16908073425293E-6 4.470348358154297E-6 8.636713027954102E-5 3.933906555175781E-6 1.6102194786071777E-4 2.1252036094665527E-4 1.5655159950256348E-4 4.3523311614990234E-4 1.9052624702453613E-4 4.228949546813965E-5 8.824467658996582E-5 -1.519918441772461E-6 5.4270029067993164E-5 3.313422203063965E-4 3.1498074531555176E-4 -2.2351741790771484E-6 2.682209014892578E-7 -7.241964340209961E-6 -9.691715240478516E-5 3.960728645324707E-5 -4.050135612487793E-5 -9.807944297790527E-5 5.0067901611328125E-6 6.973743438720703E-6 3.0219554901123047E-5 -2.8431415557861328E-5 1.4483928680419922E-5 1.9311904907226562E-5 4.166364669799805E-5 -2.3871660232543945E-5 -7.179379463195801E-5 2.682209014892578E-7 -1.0800361633300781E-4 -1.2132525444030762E-4 -5.078315734863281E-5 -4.3720006942749023E-5 8.940696716308594E-8 -5.078315734863281E-5 -6.875395774841309E-5 3.674626350402832E-5 2.4586915969848633E-5 -2.852976322174072E-4 -2.37196683883667E-4 5.015730857849121E-5 -2.4390220642089844E-4 -1.4483928680419922E-5 2.181529998779297E-5 -3.612041473388672E-5 -8.574128150939941E-5 1.0907649993896484E-5 6.705522537231445E-6 1.3679265975952148E-5 6.437301635742188E-5 -6.777048110961914E-5 8.046627044677734E-6 -9.119510650634766E-6 -1.341104507446289E-4 -2.8520822525024414E-5 3.594160079956055E-5 1.519918441772461E-5 1.958012580871582E-5 7.957220077514648E-6 -1.9222497940063477E-5 3.5136938095092773E-5 3.147125244140625E-5 -4.9173831939697266E-5 4.45246696472168E-5 4.363059997558594E-5 4.953145980834961E-5 -4.738569259643555E-6 -1.2516975402832031E-6 4.2825937271118164E-5 5.131959915161133E-5 1.0460615158081055E-5 -2.154707908630371E-5 6.705522537231445E-6 -4.13060188293457E-5 -5.990266799926758E-5 -1.0281801223754883E-5 -2.0563602447509766E-5 -5.364418029785156E-7 -7.063150405883789E-6 -2.2083520889282227E-5 2.485513687133789E-5 5.1409006118774414E-5 -1.7282366752624512E-4 -1.3750791549682617E-4 7.43865966796875E-5 -1.385807991027832E-4 9.387731552124023E-6 -2.244114875793457E-5 5.364418029785156E-6 -1.2302398681640625E-4 2.9861927032470703E-5 3.263354301452637E-5 3.254413604736328E-5 1.1757016181945801E-4 -2.199411392211914E-5 -7.241964340209961E-6 7.68899917602539E-6 -5.856156349182129E-5 8.046627044677734E-7 1.1140108108520508E-4 6.41942024230957E-5 -6.0170888900756836E-5 -3.039836883544922E-6 -1.6987323760986328E-6 -6.669759750366211E-5 3.2186508178710938E-6 6.3478946685791016E-6 1.7881393432617188E-6 -4.112720489501953E-6 -9.834766387939453E-7 1.7344951629638672E-5 -7.152557373046875E-6 4.470348358154297E-7 -7.331371307373047E-6 -2.333521842956543E-5 -1.0541081428527832E-4 -1.3500452041625977E-5 -7.778406143188477E-6 -8.672475814819336E-6 -1.0210275650024414E-4 -1.430511474609375E-6 1.0281801223754883E-5 -3.0666589736938477E-5 1.341104507446289E-6 -8.13603401184082E-6 -5.1587820053100586E-5 3.5762786865234375E-6 9.387731552124023E-6 -6.133317947387695E-5 -3.0934810638427734E-5 -1.5753507614135742E-4 -3.933906555175781E-6 -2.815425395965576E-4 1.0728836059570312E-6 7.152557373046875E-7 1.7881393432617188E-7 3.567337989807129E-5 -2.8073787689208984E-5 4.470348358154297E-7 8.940696716308594E-7 2.2530555725097656E-5 -1.6182661056518555E-5 5.2034854888916016E-5 2.4139881134033203E-6 -2.92360782623291E-5 6.580352783203125E-5 1.9222497940063477E-5 -3.129243850708008E-6 9.906291961669922E-5 8.082389831542969E-5 1.1175870895385742E-4 1.3321638107299805E-5 5.0961971282958984E-6 9.718537330627441E-5 1.0710954666137695E-4 6.580352783203125E-5 2.9593706130981445E-5 1.3768672943115234E-5 -3.039836883544922E-6 -1.5467405319213867E-5 -6.973743438720703E-6 5.2928924560546875E-5 -1.65402889251709E-5 1.77919864654541E-5 8.028745651245117E-5 5.6415796279907227E-5 1.2552738189697266E-4 -1.366138458251953E-4 -1.0442733764648438E-4 1.4099478721618652E-4 -1.0478496551513672E-4 -7.063150405883789E-6 -3.5762786865234375E-7 2.0116567611694336E-5 -4.0411949157714844E-5 7.197260856628418E-5 7.43865966796875E-5 6.553530693054199E-5 2.1922588348388672E-4 5.677342414855957E-5 -3.129243850708008E-6 2.9593706130981445E-5 -4.8279762268066406E-5 1.1086463928222656E-5 2.2208690643310547E-4 1.4260411262512207E-4 -2.8073787689208984E-5 1.627206802368164E-5 1.7881393432617188E-6 7.778406143188477E-5 4.711747169494629E-5 6.124377250671387E-5 -3.0308961868286133E-5 3.102421760559082E-5 3.2454729080200195E-5 3.477931022644043E-5 2.86102294921875E-5 3.415346145629883E-5 6.616115570068359E-6 1.8596649169921875E-5 2.4139881134033203E-6 -2.1457672119140625E-5 2.1019577980041504E-4 5.346536636352539E-5 -1.7881393432617188E-6 1.1095404624938965E-4 -4.6312808990478516E-5 1.0630488395690918E-4 -1.895427703857422E-5 3.057718276977539E-5 9.673833847045898E-5 2.86102294921875E-6 1.1444091796875E-5 6.16908073425293E-6 -1.2516975402832031E-5 8.046627044677734E-6 1.2695789337158203E-5 3.173947334289551E-5 7.420778274536133E-6 2.422928810119629E-4 8.019804954528809E-5 3.549456596374512E-5 -3.2901763916015625E-5 -5.453824996948242E-6 -3.2275915145874023E-5 4.839599132537842E-4 1.45643949508667E-4 -6.151199340820312E-5 -2.8252601623535156E-5 3.6656856536865234E-6 6.079673767089844E-6 5.364418029785156E-7 -4.738569259643555E-6 -2.2351741790771484E-6 -1.1444091796875E-5 3.129243850708008E-6 -9.47713851928711E-6 -3.039836883544922E-5 -9.548664093017578E-5 -5.015730857849121E-5 -2.7447938919067383E-5 1.2785196304321289E-5 -1.6674399375915527E-4 -2.9593706130981445E-5 -1.0639429092407227E-5 -7.43865966796875E-5 -8.58306884765625E-6 -1.1712312698364258E-5 -9.754300117492676E-5 -2.199411392211914E-5 8.046627044677734E-7 -9.870529174804688E-5 -3.165006637573242E-5 -1.6692280769348145E-4 7.778406143188477E-6 -3.185570240020752E-4 1.0907649993896484E-5 3.3974647521972656E-6 -1.3500452041625977E-5 1.7881393432617188E-6 -5.435943603515625E-5 -1.341104507446289E-5 3.2186508178710938E-6 -1.3947486877441406E-5 -2.1457672119140625E-5 -6.365776062011719E-5 -1.0371208190917969E-5 7.000565528869629E-5 1.6772747039794922E-4 1.042485237121582E-4 1.3840198516845703E-4 -2.5659799575805664E-5 -6.911158561706543E-5 1.0800361633300781E-4 1.1587142944335938E-4 1.0603666305541992E-4 8.413195610046387E-5 -3.406405448913574E-5 6.660819053649902E-5 6.866455078125E-5 -1.0102987289428711E-5 2.3093819618225098E-4 -2.1457672119140625E-6 5.042552947998047E-5 2.359449863433838E-4 1.8328428268432617E-5 1.8274784088134766E-4 9.03010368347168E-6 -1.0281801223754883E-5 1.9723176956176758E-4 2.7894973754882812E-5 -5.391240119934082E-5 2.244114875793457E-5 1.0460615158081055E-5 4.425644874572754E-5 7.411837577819824E-5 1.2382864952087402E-4 5.7131052017211914E-5 4.042088985443115E-4 1.6370415687561035E-4 -7.045269012451172E-5 5.811452865600586E-6 -1.2695789337158203E-5 -2.6732683181762695E-5 5.266964435577393E-4 2.6419758796691895E-4 6.16908073425293E-6 -2.3066997528076172E-5 -8.940696716308594E-6 1.3232231140136719E-5 8.672475814819336E-5 -2.0831823348999023E-5 -1.0639429092407227E-5 -8.13603401184082E-6 -7.957220077514648E-6 -4.747509956359863E-5 -6.16908073425293E-6 8.314847946166992E-6 1.3500452041625977E-5 1.0120868682861328E-4 7.966160774230957E-5 2.4139881134033203E-6 2.9772520065307617E-5 3.6656856536865234E-5 9.387731552124023E-6 5.990266799926758E-6 5.8650970458984375E-5 1.189112663269043E-5 -5.543231964111328E-6 3.2007694244384766E-5 -7.322430610656738E-5 -4.470348358154297E-7 -1.3259053230285645E-4 -1.519918441772461E-6 -1.1354684829711914E-5 6.616115570068359E-6 1.0630488395690918E-4 1.1980533599853516E-5 7.349252700805664E-5 2.136826515197754E-5 3.388524055480957E-5 2.592802047729492E-6 3.383159637451172E-4 5.176663398742676E-5 1.341104507446289E-6 8.672475814819336E-6 -3.147125244140625E-5 2.3066997528076172E-5 1.537799835205078E-5 7.957220077514648E-6 3.844499588012695E-6 1.341104507446289E-5 -1.68532133102417E-4 1.3768672943115234E-5 7.063150405883789E-6 -5.4001808166503906E-5 -1.2427568435668945E-4 -1.1712312698364258E-5 -2.4050474166870117E-5 -8.851289749145508E-6 1.4930963516235352E-5 -3.933906555175781E-6 3.7282705307006836E-5 6.23166561126709E-5 -3.5762786865234375E-7 1.1801719665527344E-5 -6.607174873352051E-5 -2.212822437286377E-4 -2.092123031616211E-5 -3.528892993927002E-4 4.9173831939697266E-6 -5.543231964111328E-6 4.559755325317383E-6 3.039836883544922E-5 9.834766387939453E-7 -4.9173831939697266E-6 -1.5288591384887695E-5 -1.1801719665527344E-5 -4.0411949157714844E-5 5.1856040954589844E-5 -4.380941390991211E-6 -3.4868717193603516E-6 -3.406405448913574E-5 1.341104507446289E-5 -6.258487701416016E-6 -4.649162292480469E-6 -5.364418029785156E-6 -2.2351741790771484E-6 -1.3589859008789062E-4 -2.2351741790771484E-6 1.8775463104248047E-6 -4.273653030395508E-5 -1.1587142944335938E-4 -1.940131187438965E-5 -4.9173831939697266E-6 -2.5838613510131836E-5 -3.844499588012695E-6 5.185604095458984E-6 -1.1712312698364258E-5 7.706880569458008E-5 7.599592208862305E-6 -1.3321638107299805E-5 -6.607174873352051E-5 -1.9034743309020996E-4 -1.5914440155029297E-5 -3.155171871185303E-4 -7.778406143188477E-6 -1.2069940567016602E-5 -2.0563602447509766E-6 3.477931022644043E-5 -8.404254913330078E-6 -2.771615982055664E-6 -2.2619962692260742E-5 4.738569259643555E-6 -3.299117088317871E-5 4.443526268005371E-5 4.649162292480469E-6 -3.039836883544922E-5 1.2248754501342773E-5 1.430511474609375E-6 2.2351741790771484E-6 4.9173831939697266E-6 3.7550926208496094E-6 -1.6048550605773926E-4 -2.4139881134033203E-6 1.0818243026733398E-5 -3.37064266204834E-5 -1.6164779663085938E-4 -3.218650817871094E-5 -9.03010368347168E-6 -3.4868717193603516E-5 4.738569259643555E-6 -1.341104507446289E-6 -6.884336471557617E-6 8.0108642578125E-5 3.129243850708008E-6 -1.65402889251709E-5 -7.474422454833984E-5 -2.2602081298828125E-4 -2.199411392211914E-5 -3.5691261291503906E-4 -7.867813110351562E-6 -2.199411392211914E-5 4.023313522338867E-6 1.4841556549072266E-5 -1.4573335647583008E-5 -3.6656856536865234E-6 -2.1725893020629883E-5 2.682209014892578E-7 -3.8176774978637695E-5 -1.2516975402832031E-5 -4.827976226806641E-6 2.136826515197754E-5 2.2977590560913086E-5 2.1636486053466797E-5 1.1801719665527344E-5 8.940696716308594E-7 -4.7832727432250977E-5 -1.0281801223754883E-5 -2.3066997528076172E-5 3.039836883544922E-6 1.0639429092407227E-5 1.6629695892333984E-5 9.03010368347168E-6 -8.046627044677734E-7 -1.9937753677368164E-5 4.470348358154297E-5 -7.331371307373047E-5 -3.254413604736328E-5 5.570054054260254E-5 -5.1587820053100586E-5 -1.1712312698364258E-5 -6.321072578430176E-5 1.233816146850586E-5 -1.5914440155029297E-4 1.2069940567016602E-5 4.470348358154297E-6 1.671910285949707E-5 1.2803077697753906E-4 1.7881393432617188E-6 3.1560659408569336E-5 -8.940696716308594E-8 1.1086463928222656E-5 5.364418029785156E-7 1.9186735153198242E-4 6.687641143798828E-5 -1.6003847122192383E-5 0.0 -4.2557716369628906E-5 -8.39531421661377E-5 -9.834766387939453E-6 -1.0120868682861328E-4 -9.575486183166504E-5 -3.764033317565918E-5 -1.2052059173583984E-4 1.519918441772461E-6 -5.677342414855957E-5 -1.0290741920471191E-4 3.7550926208496094E-6 -2.9772520065307617E-5 -2.219080924987793E-4 -1.7318129539489746E-4 -9.834766387939453E-6 -2.1314620971679688E-4 1.099705696105957E-5 -6.857514381408691E-5 -2.4497509002685547E-5 -2.136826515197754E-4 -1.6361474990844727E-5 -1.519918441772461E-5 -2.1904706954956055E-5 -1.2069940567016602E-5 -9.736418724060059E-5 1.7881393432617188E-6 -2.199411392211914E-5 -1.0022521018981934E-4 -5.990266799926758E-6 -3.987550735473633E-5 -3.916025161743164E-5 1.2516975402832031E-6 -1.6987323760986328E-6 -1.0192394256591797E-5 -1.3080239295959473E-4 -1.4483928680419922E-5 3.4868717193603516E-6 -1.895427703857422E-5 -1.5172362327575684E-4 -2.5928020477294922E-5 5.632638931274414E-6 -4.550814628601074E-5 7.241964340209961E-6 -5.7220458984375E-6 -3.790855407714844E-5 4.5418739318847656E-5 -1.9669532775878906E-6 -4.881620407104492E-5 -6.338953971862793E-5 -2.1708011627197266E-4 -1.1980533599853516E-5 -3.261566162109375E-4 -5.811452865600586E-6 -2.1010637283325195E-5 6.3478946685791016E-6 -3.6656856536865234E-6 -2.9414892196655273E-5 -8.940696716308594E-8 -1.189112663269043E-5 2.6553869247436523E-5 -3.316998481750488E-5 -3.3974647521972656E-6 -1.9669532775878906E-5 -2.1457672119140625E-6 -1.2427568435668945E-5 -1.4770030975341797E-4 -1.627206802368164E-5 -5.0961971282958984E-6 -2.4586915969848633E-5 -1.824796199798584E-4 -3.844499588012695E-5 3.3974647521972656E-6 -5.131959915161133E-5 -5.27501106262207E-6 -8.58306884765625E-6 -4.380941390991211E-5 3.585219383239746E-5 8.940696716308594E-7 -5.08725643157959E-5 -6.812810897827148E-5 -2.2137165069580078E-4 -1.65402889251709E-5 -3.571808338165283E-4 -8.940696716308594E-7 -1.609325408935547E-5 4.291534423828125E-6 -3.844499588012695E-6 -3.299117088317871E-5 -1.850724220275879E-5 -1.6450881958007812E-5 3.165006637573242E-5 -3.7729740142822266E-5 -5.060434341430664E-5 -1.582503318786621E-5 -6.258487701416016E-7 -1.0389089584350586E-4 -1.0728836059570312E-5 5.632638931274414E-6 -9.834766387939453E-6 -5.811452865600586E-5 1.341104507446289E-5 3.129243850708008E-6 -7.599592208862305E-6 2.5570392608642578E-5 7.778406143188477E-6 -8.046627044677734E-6 7.510185241699219E-5 6.4373016357421875E-6 -1.913309097290039E-5 -3.0934810638427734E-5 -1.6611814498901367E-4 -4.470348358154297E-7 -2.599060535430908E-4 -6.258487701416016E-7 -1.9848346710205078E-5 1.2516975402832031E-5 4.3004751205444336E-5 0.0 2.86102294921875E-5 -3.5762786865234375E-6 2.4050474166870117E-5 -1.8596649169921875E-5 1.2168288230895996E-4 1.0818243026733398E-5 -8.091330528259277E-5 -4.202127456665039E-6 1.77919864654541E-5 -1.2516975402832031E-6 2.9414892196655273E-5 5.167722702026367E-5 5.364418029785156E-6 -1.8775463104248047E-6 4.908442497253418E-5 1.0371208190917969E-5 1.0192394256591797E-5 7.206201553344727E-5 -2.2351741790771484E-6 2.5033950805664062E-6 -7.778406143188477E-6 -1.2043118476867676E-4 3.5762786865234375E-6 -2.0018219947814941E-4 8.851289749145508E-6 -1.3500452041625977E-5 2.0295381546020508E-5 7.134675979614258E-5 4.112720489501953E-6 7.456541061401367E-5 1.1175870895385742E-5 4.559755325317383E-6 4.291534423828125E-6 2.45511531829834E-4 1.9848346710205078E-5 6.160140037536621E-5 4.175305366516113E-5 3.165006637573242E-5 1.1479854583740234E-4 -3.343820571899414E-5 6.008148193359375E-5 1.767575740814209E-4 8.413195610046387E-5 1.9213557243347168E-4 -5.462765693664551E-5 -2.2619962692260742E-5 1.9696354866027832E-4 -2.0742416381835938E-5 -9.655952453613281E-6 -5.900859832763672E-6 4.979968070983887E-5 -1.1175870895385742E-5 1.0147690773010254E-4 1.417994499206543E-4 1.0639429092407227E-4 3.2275915145874023E-4 1.3741850852966309E-4 5.27501106262207E-6 5.391240119934082E-5 -7.241964340209961E-6 3.656744956970215E-5 3.3536553382873535E-4 2.2369623184204102E-4 1.8328428268432617E-5 -9.745359420776367E-6 7.966160774230957E-5 7.805228233337402E-5 -1.6987323760986328E-6 1.0728836059570312E-6 4.3898820877075195E-5 -1.8417835235595703E-5 9.298324584960938E-6 7.662177085876465E-5 -1.2248754501342773E-5 1.2516975402832031E-6 9.387731552124023E-6 -1.0514259338378906E-4 5.632638931274414E-6 -1.6289949417114258E-4 1.9669532775878906E-5 -2.0563602447509766E-6 1.77919864654541E-5 6.195902824401855E-5 -9.834766387939453E-6 7.572770118713379E-5 2.771615982055664E-5 1.6361474990844727E-5 4.559755325317383E-6 3.282129764556885E-4 1.2606382369995117E-5 6.5267086029052734E-6 1.2195110321044922E-4 9.638071060180664E-5 2.3245811462402344E-6 3.120303153991699E-5 4.738569259643555E-5 -8.58306884765625E-6 9.745359420776367E-6 6.80387020111084E-5 -4.023313522338867E-6 -4.559755325317383E-6 3.719329833984375E-5 -6.553530693054199E-5 1.4483928680419922E-5 -1.2195110321044922E-4 9.834766387939453E-6 -9.03010368347168E-6 2.22623348236084E-5 9.307265281677246E-5 7.331371307373047E-6 7.31348991394043E-5 2.6911497116088867E-5 3.6656856536865234E-5 1.2427568435668945E-5 3.676414489746094E-4 3.343820571899414E-5 6.660819053649902E-5 3.477931022644043E-5 1.9669532775878906E-6 2.7805566787719727E-5 -1.4841556549072266E-5 5.7578086853027344E-5 -4.8279762268066406E-5 -1.2874603271484375E-5 5.59687614440918E-5 -4.00543212890625E-5 8.851289749145508E-6 -4.407763481140137E-5 2.0563602447509766E-6 -1.2007355690002441E-4 1.2516975402832031E-6 2.6285648345947266E-5 1.3053417205810547E-5 1.5601515769958496E-4 2.0563602447509766E-5 4.0590763092041016E-5 -1.3142824172973633E-5 1.2516975402832031E-6 -6.4373016357421875E-6 2.752840518951416E-4 8.270144462585449E-5 4.246830940246582E-5 -2.0563602447509766E-5 2.7179718017578125E-5 1.525282859802246E-4 1.557469367980957E-4 -4.042983055114746E-4 -4.1100382804870605E-4 1.9562244415283203E-4 -3.281235694885254E-4 -3.460049629211426E-5 -8.046627044677734E-5 -6.16908073425293E-6 -1.1801719665527344E-5 1.0308623313903809E-4 1.296401023864746E-4 1.2570619583129883E-4 2.3469328880310059E-4 7.152557373046875E-7 8.252263069152832E-5 4.184246063232422E-5 -2.078711986541748E-4 -1.4483928680419922E-5 4.9620866775512695E-5 1.4930963516235352E-4 -3.522634506225586E-5 -5.882978439331055E-5 2.5928020477294922E-5 3.075599670410156E-5 -2.313852310180664E-4 -1.8712878227233887E-4 5.0514936447143555E-5 -1.9499659538269043E-4 1.0728836059570312E-6 -8.851289749145508E-6 -1.6808509826660156E-5 -1.1596083641052246E-4 1.1175870895385742E-5 2.682209014892578E-6 1.8864870071411133E-5 7.715821266174316E-5 -5.391240119934082E-5 -8.672475814819336E-6 -5.632638931274414E-6 -9.039044380187988E-5 -1.6987323760986328E-5 6.160140037536621E-5 2.6911497116088867E-5 7.063150405883789E-6 1.4841556549072266E-5 2.5480985641479492E-5 -2.3424625396728516E-5 4.0411949157714844E-5 2.3156404495239258E-5 -2.6553869247436523E-5 -1.341104507446289E-6 -1.017451286315918E-4 -7.867813110351562E-6 -1.824796199798584E-4 -3.039836883544922E-6 4.470348358154297E-7 -9.566545486450195E-6 9.164214134216309E-5 5.990266799926758E-6 4.425644874572754E-5 6.973743438720703E-6 1.8596649169921875E-5 -8.851289749145508E-6 2.2396445274353027E-4 4.0590763092041016E-5 7.241964340209961E-5 3.3974647521972656E-5 -7.599592208862305E-6 -2.4050474166870117E-5 2.7805566787719727E-5 6.079673767089844E-6 -2.4497509002685547E-5 -2.2307038307189941E-4 -1.2964010238647461E-5 -3.2705068588256836E-4 2.6017427444458008E-5 4.00543212890625E-5 6.347894668579102E-5 -3.5762786865234375E-6 4.470348358154297E-6 6.660819053649902E-5 2.1457672119140625E-5 -3.30805778503418E-5 -2.6017427444458008E-5 2.085864543914795E-4 -5.7220458984375E-6 -5.0067901611328125E-6 -1.2767314910888672E-4 -7.197260856628418E-5 -4.202127456665039E-6 -1.2990832328796387E-4 -3.0487775802612305E-5 -1.4027953147888184E-4 5.453824996948242E-6 -2.8699636459350586E-4 -7.510185241699219E-6 -1.761317253112793E-5 5.7220458984375E-6 1.71661376953125E-5 -5.4895877838134766E-5 -6.4373016357421875E-6 8.046627044677734E-7 -1.2695789337158203E-5 7.152557373046875E-7 -4.2557716369628906E-5 -2.5570392608642578E-5 4.6581029891967773E-5 2.8789043426513672E-5 -4.649162292480469E-6 4.175305366516113E-5 -9.039044380187988E-5 -2.5463104248046875E-4 -4.220008850097656E-5 -3.885626792907715E-4 -1.8417835235595703E-5 -2.682209014892578E-7 7.599592208862305E-6 1.341104507446289E-5 -4.291534423828125E-6 7.241964340209961E-6 -3.147125244140625E-5 -3.9249658584594727E-5 -5.3822994232177734E-5 1.1622905731201172E-5 4.738569259643555E-6 1.0192394256591797E-5 -3.3795833587646484E-5 -1.3768672943115234E-5 1.3303756713867188E-4 7.50124454498291E-5 5.4895877838134766E-5 8.466839790344238E-5 5.1587820053100586E-5 2.0116567611694336E-5 6.759166717529297E-5 9.924173355102539E-5 -3.585219383239746E-5 2.034008502960205E-4 8.699297904968262E-5 2.574920654296875E-5 7.94827938079834E-5 7.60495662689209E-4 -4.023313522338867E-6 -5.3375959396362305E-5 -8.940696716308594E-6 9.1552734375E-5 9.718537330627441E-5 -5.811452865600586E-6 9.655952453613281E-5 -1.6361474990844727E-5 -7.215142250061035E-5 -1.3947486877441406E-5 1.9088387489318848E-4 -1.3500452041625977E-5 1.8614530563354492E-4 2.8252601623535156E-5 -4.756450653076172E-5 5.346536636352539E-5 7.756054401397705E-4 5.060434341430664E-5 1.3232231140136719E-5 -9.72747802734375E-5 -2.739429473876953E-4 -3.9964914321899414E-5 -4.0841102600097656E-4 -9.655952453613281E-6 -1.1175870895385742E-5 -5.185604095458984E-6 8.046627044677734E-6 -1.6987323760986328E-6 -1.3053417205810547E-5 -3.165006637573242E-5 -2.950429916381836E-5 -6.213784217834473E-5 -4.0411949157714844E-5 -6.616115570068359E-6 9.906291961669922E-5 3.343820571899414E-5 4.711747169494629E-5 1.564621925354004E-5 6.115436553955078E-5 2.950429916381836E-5 6.0170888900756836E-5 9.40561294555664E-5 -2.771615982055664E-5 1.9973516464233398E-4 7.814168930053711E-5 1.7881393432617188E-6 7.233023643493652E-5 6.584823131561279E-4 -7.68899917602539E-6 -1.895427703857422E-5 1.671910285949707E-5 -8.189678192138672E-5 3.719329833984375E-5 3.719329833984375E-5 4.908442497253418E-5 1.6924738883972168E-4 1.9758939743041992E-5 3.3080577850341797E-6 8.940696716308594E-6 -2.950429916381836E-5 2.5033950805664062E-6 2.0384788513183594E-4 1.0147690773010254E-4 8.815526962280273E-5 3.039836883544922E-6 1.5780329704284668E-4 1.8391013145446777E-4 1.766681671142578E-4 4.152059555053711E-4 1.7452239990234375E-4 3.9964914321899414E-5 9.191036224365234E-5 8.761882781982422E-6 5.310773849487305E-5 2.94417142868042E-4 2.9280781745910645E-4 -1.6620755195617676E-4 3.039836883544922E-6 -2.771615982055664E-6 1.2964010238647461E-5 1.0630488395690918E-4 1.3321638107299805E-5 2.467632293701172E-5 -1.1354684829711914E-5 1.6808509826660156E-5 -6.884336471557617E-6 1.9338726997375488E-4 4.801154136657715E-5 2.7430057525634766E-4 3.376901149749756E-4 2.983510494232178E-4 5.476176738739014E-4 2.7438998222351074E-4 1.787245273590088E-4 2.0053982734680176E-4 2.154707908630371E-5 1.410841941833496E-4 1.8024444580078125E-4 4.1797757148742676E-4 -2.35140323638916E-5 5.364418029785156E-7 4.711747169494629E-5 -1.1801719665527344E-5 1.4215707778930664E-5 -5.632638931274414E-6 2.9146671295166016E-5 -1.3053417205810547E-5 4.693865776062012E-5 2.950429916381836E-6 1.537799835205078E-5 1.2069940567016602E-5 -3.325939178466797E-5 -8.314847946166992E-6 5.543231964111328E-6 4.121661186218262E-5 -2.002716064453125E-5 2.1636486053466797E-5 -7.241964340209961E-6 8.672475814819336E-6 -4.291534423828125E-5 7.778406143188477E-6 -4.112720489501953E-6 3.2454729080200195E-5 -2.2709369659423828E-5 2.1636486053466797E-5 -8.851289749145508E-6 -4.6581029891967773E-5 -4.711747169494629E-5 -8.404254913330078E-5 -1.4957785606384277E-4 -1.4653801918029785E-4 -3.325939178466797E-5 -1.9937753677368164E-5 7.063150405883789E-5 1.3321638107299805E-5 -2.0563602447509766E-5 -1.5288591384887695E-5 2.251267433166504E-4 1.3768672943115234E-5 -2.512335777282715E-5 -9.897351264953613E-5 -1.5467405319213867E-5 1.4126300811767578E-5 -3.039836883544922E-6 -1.0728836059570312E-6 7.152557373046875E-7 1.1086463928222656E-4 3.343820571899414E-5 6.794929504394531E-6 4.8422813415527344E-4 7.662177085876465E-5 1.925826072692871E-4 7.018446922302246E-5 -4.532933235168457E-5
label 1 2 3 6 7 8 9 10 11 12 13 14 15 16 17 18 19 20 37 38 39 40 41 42 43 44 45 46 47 48 49 50 51 52 53 54 55 56 58 59 60 61 62 63 64 65 66 70 71 72 73 74 75 76 77 78 79 80 81 82 83 84 85 87 88 89 90 91 92 93 94 95 96 97 98 99 100
nr_sv 6 6 6 6 6 6 6 6 6 6 6 6 6 6 6 6 6 6 6 6 6 6 6 6 6 6 6 6 6 6 6 6 6 6 6 6 6 6 6 6 6 6 6 6 6 6 6 6 6 6 6 6 6 6 6 6 6 6 6 6 6 6 6 6 6 6 6 6 6 6 6 6 6 6 6 6 6
SV
1.0 1.0 1.0 1.0 1.0 1.0 1.0 1.0 1.0 1.0 1.0 1.0 1.0 1.0 1.0 1.0 1.0 1.0 1.0 1.0 1.0 1.0 1.0 1.0 1.0 1.0 1.0 1.0 1.0 1.0 1.0 1.0 1.0 1.0 1.0 1.0 1.0 1.0 1.0 1.0 1.0 1.0 1.0 1.0 1.0 1.0 1.0 1.0 1.0 1.0 1.0 1.0 1.0 1.0 1.0 1.0 1.0 1.0 1.0 1.0 1.0 1.0 1.0 1.0 1.0 1.0 1.0 1.0 1.0 1.0 1.0 1.0 1.0 1.0 1.0 1.0 1:0.003024 2:0.001201 3:6.75E-4 4:0.001442 5:0.002548 6:0.001501 7:0.006862 8:5.56E-4 9:0.001272 10:0.001677 11:0.006253 12:0.001078 13:0.001468 14:0.008009 15:0.008147 16:0.016351 17:7.28E-4 18:0.001537 19:0.006479 20:0.019995 21:0.005323 22:0.005839 23:0.002624 24:0.001805 25:0.007093 26:0.016263 27:0.036894 28:0.008616 29:0.024631 30:7.16E-4 31:0.001513 32:0.004515 33:0.01397 34:0.004125 35:0.005269 36:0.011075 37:0.001687 38:0.008711 39:0.018673 40:0.034141 41:0.00672 42:0.020959 43:0.002284 44:0.00951 45:0.006059 46:0.008128 47:0.008634 48:0.007586 49:0.017714 50:0.00658 51:0.025751 52:0.005745 53:0.005807 54:0.012474 55:0.007315 56:0.020298 57:0.007814 58:0.407017 59:0.109317 
1.0 1.0 1.0 1.0 1.0 1.0 1.0 1.0 1.0 1.0 1.0 1.0 1.0 1.0 1.0 1.0 1.0 1.0 1.0 1.0 1.0 1.0 1.0 1.0 1.0 1.0 1.0 1.0 1.0 1.0 1.0 1.0 1.0 1.0 1.0 1.0 1.0 1.0 1.0 1.0 1.0 1.0 1.0 1.0 1.0 1.0 1.0 1.0 1.0 1.0 1.0 1.0 1.0 1.0 1.0 1.0 1.0 1.0 1.0 1.0 1.0 1.0 1.0 1.0 1.0 1.0 1.0 1.0 1.0 1.0 1.0 1.0 1.0 1.0 1.0 1.0 1:0.003024 2:0.001201 3:6.75E-4 4:0.001442 5:0.002548 6:0.001501 7:0.006862 8:5.56E-4 9:0.001272 10:0.001677 11:0.006253 12:0.001078 13:0.001468 14:0.008009 15:0.008147 16:0.016351 17:7.28E-4 18:0.001537 19:0.006479 20:0.019995 21:0.005323 22:0.005839 23:0.002624 24:0.001805 25:0.007093 26:0.016263 27:0.036894 28:0.008616 29:0.024631 30:7.16E-4 31:0.001513 32:0.004515 33:0.01397 34:0.004125 35:0.005269 36:0.011075 37:0.001687 38:0.008711 39:0.018673 40:0.034141 41:0.00672 42:0.020959 43:0.002284 44:0.00951 45:0.006059 46:0.008128 47:0.008634 48:0.007586 49:0.017714 50:0.00658 51:0.025751 52:0.005745 53:0.005807 54:0.012474 55:0.007315 56:0.020298 57:0.007814 58:0.407017 59:0.109317 
1.0 1.0 1.0 1.0 1.0 1.0 1.0 1.0 1.0 1.0 1.0 1.0 1.0 1.0 1.0 1.0 1.0 1.0 1.0 1.0 1.0 1.0 1.0 1.0 1.0 1.0 1.0 1.0 1.0 1.0 1.0 1.0 1.0 1.0 1.0 1.0 1.0 1.0 1.0 1.0 1.0 1.0 1.0 1.0 1.0 1.0 1.0 1.0 1.0 1.0 1.0 1.0 1.0 1.0 1.0 1.0 1.0 1.0 1.0 1.0 1.0 1.0 1.0 1.0 1.0 1.0 1.0 1.0 1.0 1.0 1.0 1.0 1.0 1.0 1.0 1.0 1:0.003024 2:0.001201 3:6.75E-4 4:0.001442 5:0.002548 6:0.001501 7:0.006862 8:5.56E-4 9:0.001272 10:0.001677 11:0.006253 12:0.001078 13:0.001468 14:0.008009 15:0.008147 16:0.016351 17:7.28E-4 18:0.001537 19:0.006479 20:0.019995 21:0.005323 22:0.005839 23:0.002624 24:0.001805 25:0.007093 26:0.016263 27:0.036894 28:0.008616 29:0.024631 30:7.16E-4 31:0.001513 32:0.004515 33:0.01397 34:0.004125 35:0.005269 36:0.011075 37:0.001687 38:0.008711 39:0.018673 40:0.034141 41:0.00672 42:0.020959 43:0.002284 44:0.00951 45:0.006059 46:0.008128 47:0.008634 48:0.007586 49:0.017714 50:0.00658 51:0.025751 52:0.005745 53:0.005807 54:0.012474 55:0.007315 56:0.020298 57:0.007814 58:0.407017 59:0.109317 
1.0 1.0 1.0 1.0 1.0 1.0 1.0 1.0 1.0 1.0 1.0 1.0 1.0 1.0 1.0 1.0 1.0 1.0 1.0 1.0 1.0 1.0 1.0 1.0 1.0 1.0 1.0 1.0 1.0 1.0 1.0 1.0 1.0 1.0 1.0 1.0 1.0 1.0 1.0 1.0 1.0 1.0 1.0 1.0 1.0 1.0 1.0 1.0 1.0 1.0 1.0 1.0 1.0 1.0 1.0 1.0 1.0 1.0 1.0 1.0 1.0 1.0 1.0 1.0 1.0 1.0 1.0 1.0 1.0 1.0 1.0 1.0 1.0 1.0 1.0 1.0 1:0.003611 2:0.001444 3:7.52E-4 4:0.001596 5:0.002842 6:0.001517 7:0.007224 8:6.38E-4 9:0.001332 10:0.001891 11:0.006246 12:0.001197 13:0.001506 14:0.007999 15:0.008163 16:0.016468 17:9.68E-4 18:0.001613 19:0.006373 20:0.018948 21:0.004881 22:0.005659 23:0.003018 24:0.001872 25:0.007296 26:0.016573 27:0.036869 28:0.007885 29:0.023188 30:7.16E-4 31:0.001637 32:0.004933 33:0.014217 34:0.004127 35:0.004917 36:0.01157 37:0.001774 38:0.008696 39:0.018023 40:0.033911 41:0.00676 42:0.020485 43:0.002465 44:0.009536 45:0.006039 46:0.007798 47:0.008849 48:0.007767 49:0.018012 50:0.006553 51:0.024686 52:0.006025 53:0.005666 54:0.012918 55:0.007065 56:0.020086 57:0.008304 58:0.400647 59:0.116249 
1.0 1.0 1.0 1.0 1.0 1.0 1.0 1.0 1.0 1.0 1.0 1.0 1.0 1.0 1.0 1.0 1.0 1.0 1.0 1.0 1.0 1.0 1.0 1.0 1.0 1.0 1.0 1.0 1.0 1.0 1.0 1.0 1.0 1.0 1.0 1.0 1.0 1.0 1.0 1.0 1.0 1.0 1.0 1.0 1.0 1.0 1.0 1.0 1.0 1.0 1.0 1.0 1.0 1.0 1.0 1.0 1.0 1.0 1.0 1.0 1.0 1.0 1.0 1.0 1.0 1.0 1.0 1.0 1.0 1.0 1.0 1.0 1.0 1.0 1.0 1.0 1:0.003611 2:0.001444 3:7.52E-4 4:0.001596 5:0.002842 6:0.001517 7:0.007224 8:6.38E-4 9:0.001332 10:0.001891 11:0.006246 12:0.001197 13:0.001506 14:0.007999 15:0.008163 16:0.016468 17:9.68E-4 18:0.001613 19:0.006373 20:0.018948 21:0.004881 22:0.005659 23:0.003018 24:0.001872 25:0.007296 26:0.016573 27:0.036869 28:0.007885 29:0.023188 30:7.16E-4 31:0.001637 32:0.004933 33:0.014217 34:0.004127 35:0.004917 36:0.01157 37:0.001774 38:0.008696 39:0.018023 40:0.033911 41:0.00676 42:0.020485 43:0.002465 44:0.009536 45:0.006039 46:0.007798 47:0.008849 48:0.007767 49:0.018012 50:0.006553 51:0.024686 52:0.006025 53:0.005666 54:0.012918 55:0.007065 56:0.020086 57:0.008304 58:0.400647 59:0.116249 
1.0 1.0 1.0 1.0 1.0 1.0 1.0 1.0 1.0 1.0 1.0 1.0 1.0 1.0 1.0 1.0 1.0 1.0 1.0 1.0 1.0 1.0 1.0 1.0 1.0 1.0 1.0 1.0 1.0 1.0 1.0 1.0 1.0 1.0 1.0 1.0 1.0 1.0 1.0 1.0 1.0 1.0 1.0 1.0 1.0 1.0 1.0 1.0 1.0 1.0 1.0 1.0 1.0 1.0 1.0 1.0 1.0 1.0 1.0 1.0 1.0 1.0 1.0 1.0 1.0 1.0 1.0 1.0 1.0 1.0 1.0 1.0 1.0 1.0 1.0 1.0 1:0.003611 2:0.001444 3:7.52E-4 4:0.001596 5:0.002842 6:0.001517 7:0.007224 8:6.38E-4 9:0.001332 10:0.001891 11:0.006246 12:0.001197 13:0.001506 14:0.007999 15:0.008163 16:0.016468 17:9.68E-4 18:0.001613 19:0.006373 20:0.018948 21:0.004881 22:0.005659 23:0.003018 24:0.001872 25:0.007296 26:0.016573 27:0.036869 28:0.007885 29:0.023188 30:7.16E-4 31:0.001637 32:0.004933 33:0.014217 34:0.004127 35:0.004917 36:0.01157 37:0.001774 38:0.008696 39:0.018023 40:0.033911 41:0.00676 42:0.020485 43:0.002465 44:0.009536 45:0.006039 46:0.007798 47:0.008849 48:0.007767 49:0.018012 50:0.006553 51:0.024686 52:0.006025 53:0.005666 54:0.012918 55:0.007065 56:0.020086 57:0.008304 58:0.400647 59:0.116249 
-1.0 1.0 1.0 1.0 1.0 1.0 1.0 1.0 1.0 1.0 1.0 1.0 1.0 1.0 1.0 1.0 1.0 1.0 1.0 1.0 1.0 1.0 1.0 1.0 1.0 1.0 1.0 1.0 1.0 1.0 1.0 1.0 1.0 1.0 1.0 1.0 1.0 1.0 1.0 1.0 1.0 1.0 1.0 1.0 1.0 1.0 1.0 1.0 1.0 1.0 1.0 1.0 1.0 1.0 1.0 1.0 1.0 1.0 1.0 1.0 1.0 1.0 1.0 1.0 1.0 1.0 1.0 1.0 1.0 1.0 1.0 1.0 1.0 1.0 1.0 1.0 1:0.007324 2:0.003858 3:0.001522 4:0.002924 5:0.00269 6:0.002164 7:0.00918 8:0.001341 9:0.00236 10:0.004688 11:0.013609 12:0.003647 13:0.002483 14:0.009774 15:0.011251 16:0.031994 17:0.001482 18:0.002918 19:0.004871 20:0.01318 21:0.005685 22:0.006608 23:0.003145 24:0.002507 25:0.009438 26:0.009905 27:0.019933 28:0.006948 29:0.020468 30:0.001492 31:0.002624 32:0.004929 33:0.010333 34:0.005519 35:0.00741 36:0.01016 37:0.002764 38:0.010414 39:0.013661 40:0.019429 41:0.00632 42:0.020285 43:0.004826 44:0.011765 45:0.006584 46:0.007338 47:0.015343 48:0.013254 49:0.03181 50:0.007405 51:0.021472 52:0.006339 53:0.007981 54:0.0122 55:0.006184 56:0.02025 57:0.014187 58:0.324017 59:0.155809 
-1.0 1.0 1.0 1.0 1.0 1.0 1.0 1.0 1.0 1.0 1.0 1.0 1.0 1.0 1.0 1.0 1.0 1.0 1.0 1.0 1.0 1.0 1.0 1.0 1.0 1.0 1.0 1.0 1.0 1.0 1.0 1.0 1.0 1.0 1.0 1.0 1.0 1.0 1.0 1.0 1.0 1.0 1.0 1.0 1.0 1.0 1.0 1.0 1.0 1.0 1.0 1.0 1.0 1.0 1.0 1.0 1.0 1.0 1.0 1.0 1.0 1.0 1.0 1.0 1.0 1.0 1.0 1.0 1.0 1.0 1.0 1.0 1.0 1.0 1.0 1.0 1:0.007324 2:0.003858 3:0.001522 4:0.002924 5:0.00269 6:0.002164 7:0.00918 8:0.001341 9:0.00236 10:0.004688 11:0.013609 12:0.003647 13:0.002483 14:0.009774 15:0.011251 16:0.031994 17:0.001482 18:0.002918 19:0.004871 20:0.01318 21:0.005685 22:0.006608 23:0.003145 24:0.002507 25:0.009438 26:0.009905 27:0.019933 28:0.006948 29:0.020468 30:0.001492 31:0.002624 32:0.004929 33:0.010333 34:0.005519 35:0.00741 36:0.01016 37:0.002764 38:0.010414 39:0.013661 40:0.019429 41:0.00632 42:0.020285 43:0.004826 44:0.011765 45:0.006584 46:0.007338 47:0.015343 48:0.013254 49:0.03181 50:0.007405 51:0.021472 52:0.006339 53:0.007981 54:0.0122 55:0.006184 56:0.02025 57:0.014187 58:0.324017 59:0.155809 
-1.0 1.0 1.0 1.0 1.0 1.0 1.0 1.0 1.0 1.0 1.0 1.0 1.0 1.0 1.0 1.0 1.0 1.0 1.0 1.0 1.0 1.0 1.0 1.0 1.0 1.0 1.0 1.0 1.0 1.0 1.0 1.0 1.0 1.0 1.0 1.0 1.0 1.0 1.0 1.0 1.0 1.0 1.0 1.0 1.0 1.0 1.0 1.0 1.0 1.0 1.0 1.0 1.0 1.0 1.0 1.0 1.0 1.0 1.0 1.0 1.0 1.0 1.0 1.0 1.0 1.0 1.0 1.0 1.0 1.0 1.0 1.0 1.0 1.0 1.0 1.0 1:0.007324 2:0.003858 3:0.001522 4:0.002924 5:0.00269 6:0.002164 7:0.00918 8:0.001341 9:0.00236 10:0.004688 11:0.013609 12:0.003647 13:0.002483 14:0.009774 15:0.011251 16:0.031994 17:0.001482 18:0.002918 19:0.004871 20:0.01318 21:0.005685 22:0.006608 23:0.003145 24:0.002507 25:0.009438 26:0.009905 27:0.019933 28:0.006948 29:0.020468 30:0.001492 31:0.002624 32:0.004929 33:0.010333 34:0.005519 35:0.00741 36:0.01016 37:0.002764 38:0.010414 39:0.013661 40:0.019429 41:0.00632 42:0.020285 43:0.004826 44:0.011765 45:0.006584 46:0.007338 47:0.015343 48:0.013254 49:0.03181 50:0.007405 51:0.021472 52:0.006339 53:0.007981 54:0.0122 55:0.006184 56:0.02025 57:0.014187 58:0.324017 59:0.155809 
-1.0 1.0 1.0 1.0 1.0 1.0 1.0 1.0 1.0 1.0 1.0 1.0 1.0 1.0 1.0 1.0 1.0 1.0 1.0 1.0 1.0 1.0 1.0 1.0 1.0 1.0 1.0 1.0 1.0 1.0 1.0 1.0 1.0 1.0 1.0 1.0 1.0 1.0 1.0 1.0 1.0 1.0 1.0 1.0 1.0 1.0 1.0 1.0 1.0 1.0 1.0 1.0 1.0 1.0 1.0 1.0 1.0 1.0 1.0 1.0 1.0 1.0 1.0 1.0 1.0 1.0 1.0 1.0 1.0 1.0 1.0 1.0 1.0 1.0 1.0 1.0 1:0.012319 2:0.005292 3:0.002669 4:0.003459 5:0.003404 6:0.002743 7:0.006917 8:0.001665 9:0.002519 10:0.005062 11:0.00824 12:0.004986 13:0.002707 14:0.013468 15:0.016639 16:0.028278 17:0.00271 18:0.003609 19:0.004094 20:0.01534 21:0.008687 22:0.007826 23:0.003754 24:0.003309 25:0.007217 26:0.006637 27:0.01602 28:0.007616 29:0.025079 30:0.001677 31:0.002955 32:0.00435 33:0.006567 34:0.003632 35:0.005595 36:0.01043 37:0.003045 38:0.01354 39:0.015645 40:0.016127 41:0.005219 42:0.015164 43:0.0056 44:0.018385 45:0.009634 46:0.008232 47:0.015968 48:0.009574 49:0.029096 50:0.009115 51:0.026078 52:0.004482 53:0.006687 54:0.012524 55:0.00529 56:0.016182 57:0.01427 58:0.302089 59:0.17058 
-1.0 1.0 1.0 1.0 1.0 1.0 1.0 1.0 1.0 1.0 1.0 1.0 1.0 1.0 1.0 1.0 1.0 1.0 1.0 1.0 1.0 1.0 1.0 1.0 1.0 1.0 1.0 1.0 1.0 1.0 1.0 1.0 1.0 1.0 1.0 1.0 1.0 1.0 1.0 1.0 1.0 1.0 1.0 1.0 1.0 1.0 1.0 1.0 1.0 1.0 1.0 1.0 1.0 1.0 1.0 1.0 1.0 1.0 1.0 1.0 1.0 1.0 1.0 1.0 1.0 1.0 1.0 1.0 1.0 1.0 1.0 1.0 1.0 1.0 1.0 1.0 1:0.012319 2:0.005292 3:0.002669 4:0.003459 5:0.003404 6:0.002743 7:0.006917 8:0.001665 9:0.002519 10:0.005062 11:0.00824 12:0.004986 13:0.002707 14:0.013468 15:0.016639 16:0.028278 17:0.00271 18:0.003609 19:0.004094 20:0.01534 21:0.008687 22:0.007826 23:0.003754 24:0.003309 25:0.007217 26:0.006637 27:0.01602 28:0.007616 29:0.025079 30:0.001677 31:0.002955 32:0.00435 33:0.006567 34:0.003632 35:0.005595 36:0.01043 37:0.003045 38:0.01354 39:0.015645 40:0.016127 41:0.005219 42:0.015164 43:0.0056 44:0.018385 45:0.009634 46:0.008232 47:0.015968 48:0.009574 49:0.029096 50:0.009115 51:0.026078 52:0.004482 53:0.006687 54:0.012524 55:0.00529 56:0.016182 57:0.01427 58:0.302089 59:0.17058 
-1.0 1.0 1.0 1.0 1.0 1.0 1.0 1.0 1.0 1.0 1.0 1.0 1.0 1.0 1.0 1.0 1.0 1.0 1.0 1.0 1.0 1.0 1.0 1.0 1.0 1.0 1.0 1.0 1.0 1.0 1.0 1.0 1.0 1.0 1.0 1.0 1.0 1.0 1.0 1.0 1.0 1.0 1.0 1.0 1.0 1.0 1.0 1.0 1.0 1.0 1.0 1.0 1.0 1.0 1.0 1.0 1.0 1.0 1.0 1.0 1.0 1.0 1.0 1.0 1.0 1.0 1.0 1.0 1.0 1.0 1.0 1.0 1.0 1.0 1.0 1.0 1:0.012319 2:0.005292 3:0.002669 4:0.003459 5:0.003404 6:0.002743 7:0.006917 8:0.001665 9:0.002519 10:0.005062 11:0.00824 12:0.004986 13:0.002707 14:0.013468 15:0.016639 16:0.028278 17:0.00271 18:0.003609 19:0.004094 20:0.01534 21:0.008687 22:0.007826 23:0.003754 24:0.003309 25:0.007217 26:0.006637 27:0.01602 28:0.007616 29:0.025079 30:0.001677 31:0.002955 32:0.00435 33:0.006567 34:0.003632 35:0.005595 36:0.01043 37:0.003045 38:0.01354 39:0.015645 40:0.016127 41:0.005219 42:0.015164 43:0.0056 44:0.018385 45:0.009634 46:0.008232 47:0.015968 48:0.009574 49:0.029096 50:0.009115 51:0.026078 52:0.004482 53:0.006687 54:0.012524 55:0.00529 56:0.016182 57:0.01427 58:0.302089 59:0.17058 
-1.0 -1.0 1.0 1.0 1.0 1.0 1.0 1.0 1.0 1.0 1.0 1.0 1.0 1.0 1.0 1.0 1.0 1.0 1.0 1.0 1.0 1.0 1.0 1.0 1.0 1.0 1.0 1.0 1.0 1.0 1.0 1.0 1.0 1.0 1.0 1.0 1.0 1.0 1.0 1.0 1.0 1.0 1.0 1.0 1.0 1.0 1.0 1.0 1.0 1.0 1.0 1.0 1.0 1.0 1.0 1.0 1.0 1.0 1.0 1.0 1.0 1.0 1.0 1.0 1.0 1.0 1.0 1.0 1.0 1.0 1.0 1.0 1.0 1.0 1.0 1.0 1:0.003903 2:0.001085 3:0.001052 4:0.001472 5:0.003361 6:0.001834 7:0.006299 8:6.52E-4 9:0.001361 10:0.002034 11:0.004658 12:0.001082 13:0.00143 14:0.010204 15:0.00908 16:0.014596 17:0.001225 18:0.001627 19:0.005473 20:0.024662 21:0.006385 22:0.005892 23:0.003621 24:0.00249 25:0.005873 26:0.011636 27:0.033351 28:0.009103 29:0.027559 30:5.94E-4 31:0.001318 32:0.005419 33:0.011109 34:0.002902 35:0.004771 36:0.011715 37:0.001555 38:0.009063 39:0.023873 40:0.035511 41:0.005859 42:0.01716 43:0.002445 44:0.00955 45:0.006508 46:0.008651 47:0.008202 48:0.005977 49:0.017255 50:0.006116 51:0.025509 52:0.004313 53:0.0052 54:0.013475 55:0.00579 56:0.016701 57:0.007964 58:0.408514 59:0.11398 
-1.0 -1.0 1.0 1.0 1.0 1.0 1.0 1.0 1.0 1.0 1.0 1.0 1.0 1.0 1.0 1.0 1.0 1.0 1.0 1.0 1.0 1.0 1.0 1.0 1.0 1.0 1.0 1.0 1.0 1.0 1.0 1.0 1.0 1.0 1.0 1.0 1.0 1.0 1.0 1.0 1.0 1.0 1.0 1.0 1.0 1.0 1.0 1.0 1.0 1.0 1.0 1.0 1.0 1.0 1.0 1.0 1.0 1.0 1.0 1.0 1.0 1.0 1.0 1.0 1.0 1.0 1.0 1.0 1.0 1.0 1.0 1.0 1.0 1.0 1.0 1.0 1:0.003903 2:0.001085 3:0.001052 4:0.001472 5:0.003361 6:0.001834 7:0.006299 8:6.52E-4 9:0.001361 10:0.002034 11:0.004658 12:0.001082 13:0.00143 14:0.010204 15:0.00908 16:0.014596 17:0.001225 18:0.001627 19:0.005473 20:0.024662 21:0.006385 22:0.005892 23:0.003621 24:0.00249 25:0.005873 26:0.011636 27:0.033351 28:0.009103 29:0.027559 30:5.94E-4 31:0.001318 32:0.005419 33:0.011109 34:0.002902 35:0.004771 36:0.011715 37:0.001555 38:0.009063 39:0.023873 40:0.035511 41:0.005859 42:0.01716 43:0.002445 44:0.00955 45:0.006508 46:0.008651 47:0.008202 48:0.005977 49:0.017255 50:0.006116 51:0.025509 52:0.004313 53:0.0052 54:0.013475 55:0.00579 56:0.016701 57:0.007964 58:0.408514 59:0.11398 
-1.0 -1.0 1.0 1.0 1.0 1.0 1.0 1.0 1.0 1.0 1.0 1.0 1.0 1.0 1.0 1.0 1.0 1.0 1.0 1.0 1.0 1.0 1.0 1.0 1.0 1.0 1.0 1.0 1.0 1.0 1.0 1.0 1.0 1.0 1.0 1.0 1.0 1.0 1.0 1.0 1.0 1.0 1.0 1.0 1.0 1.0 1.0 1.0 1.0 1.0 1.0 1.0 1.0 1.0 1.0 1.0 1.0 1.0 1.0 1.0 1.0 1.0 1.0 1.0 1.0 1.0 1.0 1.0 1.0 1.0 1.0 1.0 1.0 1.0 1.0 1.0 1:0.003903 2:0.001085 3:0.001052 4:0.001472 5:0.003361 6:0.001834 7:0.006299 8:6.52E-4 9:0.001361 10:0.002034 11:0.004658 12:0.001082 13:0.00143 14:0.010204 15:0.00908 16:0.014596 17:0.001225 18:0.001627 19:0.005473 20:0.024662 21:0.006385 22:0.005892 23:0.003621 24:0.00249 25:0.005873 26:0.011636 27:0.033351 28:0.009103 29:0.027559 30:5.94E-4 31:0.001318 32:0.005419 33:0.011109 34:0.002902 35:0.004771 36:0.011715 37:0.001555 38:0.009063 39:0.023873 40:0.035511 41:0.005859 42:0.01716 43:0.002445 44:0.00955 45:0.006508 46:0.008651 47:0.008202 48:0.005977 49:0.017255 50:0.006116 51:0.025509 52:0.004313 53:0.0052 54:0.013475 55:0.00579 56:0.016701 57:0.007964 58:0.408514 59:0.11398 
-1.0 -1.0 1.0 1.0 1.0 1.0 1.0 1.0 1.0 1.0 1.0 1.0 1.0 1.0 1.0 1.0 1.0 1.0 1.0 1.0 1.0 1.0 1.0 1.0 1.0 1.0 1.0 1.0 1.0 1.0 1.0 1.0 1.0 1.0 1.0 1.0 1.0 1.0 1.0 1.0 1.0 1.0 1.0 1.0 1.0 1.0 1.0 1.0 1.0 1.0 1.0 1.0 1.0 1.0 1.0 1.0 1.0 1.0 1.0 1.0 1.0 1.0 1.0 1.0 1.0 1.0 1.0 1.0 1.0 1.0 1.0 1.0 1.0 1.0 1.0 1.0 1:0.003111 2:9.78E-4 3:8.25E-4 4:0.001285 5:0.002702 6:0.001636 7:0.005809 8:5.4E-4 9:0.001199 10:0.001825 11:0.005178 12:9.02E-4 13:0.001194 14:0.008934 15:0.008328 16:0.015005 17:9.82E-4 18:0.00146 19:0.005376 20:0.022745 21:0.005975 22:0.005618 23:0.00305 24:0.002284 25:0.005612 26:0.011644 27:0.032918 28:0.008502 29:0.025797 30:5.0E-4 31:0.001192 32:0.005204 33:0.011434 34:0.0031 35:0.004926 36:0.01049 37:0.001644 38:0.008031 39:0.022165 40:0.034165 41:0.00589 42:0.017748 43:0.002412 44:0.009505 45:0.006163 46:0.00799 47:0.007743 48:0.006763 49:0.017828 50:0.006308 51:0.024222 52:0.004731 53:0.005626 54:0.011731 55:0.005676 56:0.017229 57:0.007151 58:0.441239 59:0.099777 
-1.0 -1.0 1.0 1.0 1.0 1.0 1.0 1.0 1.0 1.0 1.0 1.0 1.0 1.0 1.0 1.0 1.0 1.0 1.0 1.0 1.0 1.0 1.0 1.0 1.0 1.0 1.0 1.0 1.0 1.0 1.0 1.0 1.0 1.0 1.0 1.0 1.0 1.0 1.0 1.0 1.0 1.0 1.0 1.0 1.0 1.0 1.0 1.0 1.0 1.0 1.0 1.0 1.0 1.0 1.0 1.0 1.0 1.0 1.0 1.0 1.0 1.0 1.0 1.0 1.0 1.0 1.0 1.0 1.0 1.0 1.0 1.0 1.0 1.0 1.0 1.0 1:0.003111 2:9.78E-4 3:8.25E-4 4:0.001285 5:0.002702 6:0.001636 7:0.005809 8:5.4E-4 9:0.001199 10:0.001825 11:0.005178 12:9.02E-4 13:0.001194 14:0.008934 15:0.008328 16:0.015005 17:9.82E-4 18:0.00146 19:0.005376 20:0.022745 21:0.005975 22:0.005618 23:0.00305 24:0.002284 25:0.005612 26:0.011644 27:0.032918 28:0.008502 29:0.025797 30:5.0E-4 31:0.001192 32:0.005204 33:0.011434 34:0.0031 35:0.004926 36:0.01049 37:0.001644 38:0.008031 39:0.022165 40:0.034165 41:0.00589 42:0.017748 43:0.002412 44:0.009505 45:0.006163 46:0.00799 47:0.007743 48:0.006763 49:0.017828 50:0.006308 51:0.024222 52:0.004731 53:0.005626 54:0.011731 55:0.005676 56:0.017229 57:0.007151 58:0.441239 59:0.099777 
-1.0 -1.0 1.0 1.0 1.0 1.0 1.0 1.0 1.0 1.0 1.0 1.0 1.0 1.0 1.0 1.0 1.0 1.0 1.0 1.0 1.0 1.0 1.0 1.0 1.0 1.0 1.0 1.0 1.0 1.0 1.0 1.0 1.0 1.0 1.0 1.0 1.0 1.0 1.0 1.0 1.0 1.0 1.0 1.0 1.0 1.0 1.0 1.0 1.0 1.0 1.0 1.0 1.0 1.0 1.0 1.0 1.0 1.0 1.0 1.0 1.0 1.0 1.0 1.0 1.0 1.0 1.0 1.0 1.0 1.0 1.0 1.0 1.0 1.0 1.0 1.0 1:0.003111 2:9.78E-4 3:8.25E-4 4:0.001285 5:0.002702 6:0.001636 7:0.005809 8:5.4E-4 9:0.001199 10:0.001825 11:0.005178 12:9.02E-4 13:0.001194 14:0.008934 15:0.008328 16:0.015005 17:9.82E-4 18:0.00146 19:0.005376 20:0.022745 21:0.005975 22:0.005618 23:0.00305 24:0.002284 25:0.005612 26:0.011644 27:0.032918 28:0.008502 29:0.025797 30:5.0E-4 31:0.001192 32:0.005204 33:0.011434 34:0.0031 35:0.004926 36:0.01049 37:0.001644 38:0.008031 39:0.022165 40:0.034165 41:0.00589 42:0.017748 43:0.002412 44:0.009505 45:0.006163 46:0.00799 47:0.007743 48:0.006763 49:0.017828 50:0.006308 51:0.024222 52:0.004731 53:0.005626 54:0.011731 55:0.005676 56:0.017229 57:0.007151 58:0.441239 59:0.099777 
-1.0 -1.0 -1.0 1.0 1.0 1.0 1.0 1.0 1.0 1.0 1.0 1.0 1.0 1.0 1.0 1.0 1.0 1.0 1.0 1.0 1.0 1.0 1.0 1.0 1.0 1.0 1.0 1.0 1.0 1.0 1.0 1.0 1.0 1.0 1.0 1.0 1.0 1.0 1.0 1.0 1.0 1.0 1.0 1.0 1.0 1.0 1.0 1.0 1.0 1.0 1.0 1.0 1.0 1.0 1.0 1.0 1.0 1.0 1.0 1.0 1.0 1.0 1.0 1.0 1.0 1.0 1.0 1.0 1.0 1.0 1.0 1.0 1.0 1.0 1.0 1.0 1:0.005626 2:0.001948 3:0.00119 4:0.00177 5:0.003659 6:0.002314 7:0.007955 8:9.83E-4 9:0.001938 10:0.002714 11:0.007738 12:0.00206 13:0.001844 14:0.008913 15:0.009111 16:0.017315 17:0.001275 18:0.001962 19:0.004503 20:0.014986 21:0.005745 22:0.006094 23:0.003887 24:0.002655 25:0.008088 26:0.011812 27:0.02712 28:0.007143 29:0.02197 30:8.57E-4 31:0.001674 32:0.00426 33:0.011748 34:0.004695 35:0.005833 36:0.011803 37:0.002214 38:0.008979 39:0.013608 40:0.02734 41:0.006159 42:0.019705 43:0.003425 44:0.009926 45:0.006163 46:0.006451 47:0.009403 48:0.008761 49:0.018111 50:0.006427 51:0.020894 52:0.005545 53:0.006101 54:0.01334 55:0.006303 56:0.019306 57:0.009739 58:0.413799 59:0.123111 
-1.0 -1.0 -1.0 1.0 1.0 1.0 1.0 1.0 1.0 1.0 1.0 1.0 1.0 1.0 1.0 1.0 1.0 1.0 1.0 1.0 1.0 1.0 1.0 1.0 1.0 1.0 1.0 1.0 1.0 1.0 1.0 1.0 1.0 1.0 1.0 1.0 1.0 1.0 1.0 1.0 1.0 1.0 1.0 1.0 1.0 1.0 1.0 1.0 1.0 1.0 1.0 1.0 1.0 1.0 1.0 1.0 1.0 1.0 1.0 1.0 1.0 1.0 1.0 1.0 1.0 1.0 1.0 1.0 1.0 1.0 1.0 1.0 1.0 1.0 1.0 1.0 1:0.005626 2:0.001948 3:0.00119 4:0.00177 5:0.003659 6:0.002314 7:0.007955 8:9.83E-4 9:0.001938 10:0.002714 11:0.007738 12:0.00206 13:0.001844 14:0.008913 15:0.009111 16:0.017315 17:0.001275 18:0.001962 19:0.004503 20:0.014986 21:0.005745 22:0.006094 23:0.003887 24:0.002655 25:0.008088 26:0.011812 27:0.02712 28:0.007143 29:0.02197 30:8.57E-4 31:0.001674 32:0.00426 33:0.011748 34:0.004695 35:0.005833 36:0.011803 37:0.002214 38:0.008979 39:0.013608 40:0.02734 41:0.006159 42:0.019705 43:0.003425 44:0.009926 45:0.006163 46:0.006451 47:0.009403 48:0.008761 49:0.018111 50:0.006427 51:0.020894 52:0.005545 53:0.006101 54:0.01334 55:0.006303 56:0.019306 57:0.009739 58:0.413799 59:0.123111 
-1.0 -1.0 -1.0 1.0 1.0 1.0 1.0 1.0 1.0 1.0 1.0 1.0 1.0 1.0 1.0 1.0 1.0 1.0 1.0 1.0 1.0 1.0 1.0 1.0 1.0 1.0 1.0 1.0 1.0 1.0 1.0 1.0 1.0 1.0 1.0 1.0 1.0 1.0 1.0 1.0 1.0 1.0 1.0 1.0 1.0 1.0 1.0 1.0 1.0 1.0 1.0 1.0 1.0 1.0 1.0 1.0 1.0 1.0 1.0 1.0 1.0 1.0 1.0 1.0 1.0 1.0 1.0 1.0 1.0 1.0 1.0 1.0 1.0 1.0 1.0 1.0 1:0.005626 2:0.001948 3:0.00119 4:0.00177 5:0.003659 6:0.002314 7:0.007955 8:9.83E-4 9:0.001938 10:0.002714 11:0.007738 12:0.00206 13:0.001844 14:0.008913 15:0.009111 16:0.017315 17:0.001275 18:0.001962 19:0.004503 20:0.014986 21:0.005745 22:0.006094 23:0.003887 24:0.002655 25:0.008088 26:0.011812 27:0.02712 28:0.007143 29:0.02197 30:8.57E-4 31:0.001674 32:0.00426 33:0.011748 34:0.004695 35:0.005833 36:0.011803 37:0.002214 38:0.008979 39:0.013608 40:0.02734 41:0.006159 42:0.019705 43:0.003425 44:0.009926 45:0.006163 46:0.006451 47:0.009403 48:0.008761 49:0.018111 50:0.006427 51:0.020894 52:0.005545 53:0.006101 54:0.01334 55:0.006303 56:0.019306 57:0.009739 58:0.413799 59:0.123111 
-1.0 -1.0 -1.0 1.0 1.0 1.0 1.0 1.0 1.0 1.0 1.0 1.0 1.0 1.0 1.0 1.0 1.0 1.0 1.0 1.0 1.0 1.0 1.0 1.0 1.0 1.0 1.0 1.0 1.0 1.0 1.0 1.0 1.0 1.0 1.0 1.0 1.0 1.0 1.0 1.0 1.0 1.0 1.0 1.0 1.0 1.0 1.0 1.0 1.0 1.0 1.0 1.0 1.0 1.0 1.0 1.0 1.0 1.0 1.0 1.0 1.0 1.0 1.0 1.0 1.0 1.0 1.0 1.0 1.0 1.0 1.0 1.0 1.0 1.0 1.0 1.0 1:0.005297 2:0.001913 3:0.00107 4:0.001736 5:0.003763 6:0.002398 7:0.007921 8:0.001013 9:0.002105 10:0.002692 11:0.007697 12:0.002139 13:0.00186 14:0.008842 15:0.008892 16:0.017472 17:0.001234 18:0.002008 19:0.004317 20:0.014696 21:0.005737 22:0.005949 23:0.004103 24:0.002681 25:0.008301 26:0.011577 27:0.027122 28:0.006908 29:0.021354 30:8.85E-4 31:0.001646 32:0.004284 33:0.011758 34:0.004679 35:0.005635 36:0.01206 37:0.002443 38:0.009086 39:0.013157 40:0.027378 41:0.006097 42:0.019777 43:0.003342 44:0.010012 45:0.006322 46:0.006292 47:0.009408 48:0.008221 49:0.017774 50:0.006656 51:0.020661 52:0.005638 53:0.006237 54:0.013606 55:0.006399 56:0.01994 57:0.009784 58:0.411736 59:0.126289 
-1.0 -1.0 -1.0 1.0 1.0 1.0 1.0 1.0 1.0 1.0 1.0 1.0 1.0 1.0 1.0 1.0 1.0 1.0 1.0 1.0 1.0 1.0 1.0 1.0 1.0 1.0 1.0 1.0 1.0 1.0 1.0 1.0 1.0 1.0 1.0 1.0 1.0 1.0 1.0 1.0 1.0 1.0 1.0 1.0 1.0 1.0 1.0 1.0 1.0 1.0 1.0 1.0 1.0 1.0 1.0 1.0 1.0 1.0 1.0 1.0 1.0 1.0 1.0 1.0 1.0 1.0 1.0 1.0 1.0 1.0 1.0 1.0 1.0 1.0 1.0 1.0 1:0.005297 2:0.001913 3:0.00107 4:0.001736 5:0.003763 6:0.002398 7:0.007921 8:0.001013 9:0.002105 10:0.002692 11:0.007697 12:0.002139 13:0.00186 14:0.008842 15:0.008892 16:0.017472 17:0.001234 18:0.002008 19:0.004317 20:0.014696 21:0.005737 22:0.005949 23:0.004103 24:0.002681 25:0.008301 26:0.011577 27:0.027122 28:0.006908 29:0.021354 30:8.85E-4 31:0.001646 32:0.004284 33:0.011758 34:0.004679 35:0.005635 36:0.01206 37:0.002443 38:0.009086 39:0.013157 40:0.027378 41:0.006097 42:0.019777 43:0.003342 44:0.010012 45:0.006322 46:0.006292 47:0.009408 48:0.008221 49:0.017774 50:0.006656 51:0.020661 52:0.005638 53:0.006237 54:0.013606 55:0.006399 56:0.01994 57:0.009784 58:0.411736 59:0.126289 
-1.0 -1.0 -1.0 1.0 1.0 1.0 1.0 1.0 1.0 1.0 1.0 1.0 1.0 1.0 1.0 1.0 1.0 1.0 1.0 1.0 1.0 1.0 1.0 1.0 1.0 1.0 1.0 1.0 1.0 1.0 1.0 1.0 1.0 1.0 1.0 1.0 1.0 1.0 1.0 1.0 1.0 1.0 1.0 1.0 1.0 1.0 1.0 1.0 1.0 1.0 1.0 1.0 1.0 1.0 1.0 1.0 1.0 1.0 1.0 1.0 1.0 1.0 1.0 1.0 1.0 1.0 1.0 1.0 1.0 1.0 1.0 1.0 1.0 1.0 1.0 1.0 1:0.005297 2:0.001913 3:0.00107 4:0.001736 5:0.003763 6:0.002398 7:0.007921 8:0.001013 9:0.002105 10:0.002692 11:0.007697 12:0.002139 13:0.00186 14:0.008842 15:0.008892 16:0.017472 17:0.001234 18:0.002008 19:0.004317 20:0.014696 21:0.005737 22:0.005949 23:0.004103 24:0.002681 25:0.008301 26:0.011577 27:0.027122 28:0.006908 29:0.021354 30:8.85E-4 31:0.001646 32:0.004284 33:0.011758 34:0.004679 35:0.005635 36:0.01206 37:0.002443 38:0.009086 39:0.013157 40:0.027378 41:0.006097 42:0.019777 43:0.003342 44:0.010012 45:0.006322 46:0.006292 47:0.009408 48:0.008221 49:0.017774 50:0.006656 51:0.020661 52:0.005638 53:0.006237 54:0.013606 55:0.006399 56:0.01994 57:0.009784 58:0.411736 59:0.126289 
-1.0 -1.0 -1.0 -1.0 1.0 1.0 1.0 1.0 1.0 1.0 1.0 1.0 1.0 1.0 1.0 1.0 1.0 1.0 1.0 1.0 1.0 1.0 1.0 1.0 1.0 1.0 1.0 1.0 1.0 1.0 1.0 1.0 1.0 1.0 1.0 1.0 1.0 1.0 1.0 1.0 1.0 1.0 1.0 1.0 1.0 1.0 1.0 1.0 1.0 1.0 1.0 1.0 1.0 1.0 1.0 1.0 1.0 1.0 1.0 1.0 1.0 1.0 1.0 1.0 1.0 1.0 1.0 1.0 1.0 1.0 1.0 1.0 1.0 1.0 1.0 1.0 1:0.010405 2:0.002869 3:0.001694 4:0.002636 5:0.004513 6:0.002374 7:0.009386 8:0.001677 9:0.002369 10:0.003264 11:0.008175 12:0.00303 13:0.002647 14:0.008088 15:0.008237 16:0.016877 17:0.001712 18:0.002852 19:0.006494 20:0.011698 21:0.005136 22:0.006111 23:0.00475 24:0.002969 25:0.00916 26:0.018404 27:0.027578 28:0.006542 29:0.019308 30:0.001789 31:0.002579 32:0.005997 33:0.018427 34:0.006075 35:0.006223 36:0.011353 37:0.002648 38:0.007836 39:0.010293 40:0.026762 41:0.008106 42:0.022195 43:0.004325 44:0.010623 45:0.00535 46:0.006009 47:0.009586 48:0.009317 49:0.018753 50:0.006567 51:0.019236 52:0.006568 53:0.00643 54:0.012101 55:0.008047 56:0.021308 57:0.008718 58:0.365787 59:0.140036 
-1.0 -1.0 -1.0 -1.0 1.0 1.0 1.0 1.0 1.0 1.0 1.0 1.0 1.0 1.0 1.0 1.0 1.0 1.0 1.0 1.0 1.0 1.0 1.0 1.0 1.0 1.0 1.0 1.0 1.0 1.0 1.0 1.0 1.0 1.0 1.0 1.0 1.0 1.0 1.0 1.0 1.0 1.0 1.0 1.0 1.0 1.0 1.0 1.0 1.0 1.0 1.0 1.0 1.0 1.0 1.0 1.0 1.0 1.0 1.0 1.0 1.0 1.0 1.0 1.0 1.0 1.0 1.0 1.0 1.0 1.0 1.0 1.0 1.0 1.0 1.0 1.0 1:0.010405 2:0.002869 3:0.001694 4:0.002636 5:0.004513 6:0.002374 7:0.009386 8:0.001677 9:0.002369 10:0.003264 11:0.008175 12:0.00303 13:0.002647 14:0.008088 15:0.008237 16:0.016877 17:0.001712 18:0.002852 19:0.006494 20:0.011698 21:0.005136 22:0.006111 23:0.00475 24:0.002969 25:0.00916 26:0.018404 27:0.027578 28:0.006542 29:0.019308 30:0.001789 31:0.002579 32:0.005997 33:0.018427 34:0.006075 35:0.006223 36:0.011353 37:0.002648 38:0.007836 39:0.010293 40:0.026762 41:0.008106 42:0.022195 43:0.004325 44:0.010623 45:0.00535 46:0.006009 47:0.009586 48:0.009317 49:0.018753 50:0.006567 51:0.019236 52:0.006568 53:0.00643 54:0.012101 55:0.008047 56:0.021308 57:0.008718 58:0.365787 59:0.140036 
-1.0 -1.0 -1.0 -1.0 1.0 1.0 1.0 1.0 1.0 1.0 1.0 1.0 1.0 1.0 1.0 1.0 1.0 1.0 1.0 1.0 1.0 1.0 1.0 1.0 1.0 1.0 1.0 1.0 1.0 1.0 1.0 1.0 1.0 1.0 1.0 1.0 1.0 1.0 1.0 1.0 1.0 1.0 1.0 1.0 1.0 1.0 1.0 1.0 1.0 1.0 1.0 1.0 1.0 1.0 1.0 1.0 1.0 1.0 1.0 1.0 1.0 1.0 1.0 1.0 1.0 1.0 1.0 1.0 1.0 1.0 1.0 1.0 1.0 1.0 1.0 1.0 1:0.010405 2:0.002869 3:0.001694 4:0.002636 5:0.004513 6:0.002374 7:0.009386 8:0.001677 9:0.002369 10:0.003264 11:0.008175 12:0.00303 13:0.002647 14:0.008088 15:0.008237 16:0.016877 17:0.001712 18:0.002852 19:0.006494 20:0.011698 21:0.005136 22:0.006111 23:0.00475 24:0.002969 25:0.00916 26:0.018404 27:0.027578 28:0.006542 29:0.019308 30:0.001789 31:0.002579 32:0.005997 33:0.018427 34:0.006075 35:0.006223 36:0.011353 37:0.002648 38:0.007836 39:0.010293 40:0.026762 41:0.008106 42:0.022195 43:0.004325 44:0.010623 45:0.00535 46:0.006009 47:0.009586 48:0.009317 49:0.018753 50:0.006567 51:0.019236 52:0.006568 53:0.00643 54:0.012101 55:0.008047 56:0.021308 57:0.008718 58:0.365787 59:0.140036 
-1.0 -1.0 -1.0 -1.0 1.0 1.0 1.0 1.0 1.0 1.0 1.0 1.0 1.0 1.0 1.0 1.0 1.0 1.0 1.0 1.0 1.0 1.0 1.0 1.0 1.0 1.0 1.0 1.0 1.0 1.0 1.0 1.0 1.0 1.0 1.0 1.0 1.0 1.0 1.0 1.0 1.0 1.0 1.0 1.0 1.0 1.0 1.0 1.0 1.0 1.0 1.0 1.0 1.0 1.0 1.0 1.0 1.0 1.0 1.0 1.0 1.0 1.0 1.0 1.0 1.0 1.0 1.0 1.0 1.0 1.0 1.0 1.0 1.0 1.0 1.0 1.0 1:0.007557 2:0.001993 3:0.00122 4:0.002212 5:0.003459 6:0.001881 7:0.008458 8:0.001392 9:0.001922 10:0.002641 11:0.007566 12:0.002081 13:0.002105 14:0.007115 15:0.007705 16:0.015631 17:0.001513 18:0.002447 19:0.005794 20:0.010499 21:0.00461 22:0.005581 23:0.003685 24:0.002607 25:0.008653 26:0.018687 27:0.025478 28:0.005788 29:0.017873 30:0.001548 31:0.002063 32:0.005288 33:0.01898 34:0.005657 35:0.005426 36:0.0097 37:0.002245 38:0.007081 39:0.009848 40:0.025202 41:0.007926 42:0.021553 43:0.004082 44:0.009928 45:0.005154 46:0.005612 47:0.007947 48:0.009546 49:0.018204 50:0.006139 51:0.018042 52:0.006537 53:0.006263 54:0.01048 55:0.0079 56:0.021294 57:0.007488 58:0.433194 59:0.111522 
-1.0 -1.0 -1.0 -1.0 1.0 1.0 1.0 1.0 1.0 1.0 1.0 1.0 1.0 1.0 1.0 1.0 1.0 1.0 1.0 1.0 1.0 1.0 1.0 1.0 1.0 1.0 1.0 1.0 1.0 1.0 1.0 1.0 1.0 1.0 1.0 1.0 1.0 1.0 1.0 1.0 1.0 1.0 1.0 1.0 1.0 1.0 1.0 1.0 1.0 1.0 1.0 1.0 1.0 1.0 1.0 1.0 1.0 1.0 1.0 1.0 1.0 1.0 1.0 1.0 1.0 1.0 1.0 1.0 1.0 1.0 1.0 1.0 1.0 1.0 1.0 1.0 1:0.007557 2:0.001993 3:0.00122 4:0.002212 5:0.003459 6:0.001881 7:0.008458 8:0.001392 9:0.001922 10:0.002641 11:0.007566 12:0.002081 13:0.002105 14:0.007115 15:0.007705 16:0.015631 17:0.001513 18:0.002447 19:0.005794 20:0.010499 21:0.00461 22:0.005581 23:0.003685 24:0.002607 25:0.008653 26:0.018687 27:0.025478 28:0.005788 29:0.017873 30:0.001548 31:0.002063 32:0.005288 33:0.01898 34:0.005657 35:0.005426 36:0.0097 37:0.002245 38:0.007081 39:0.009848 40:0.025202 41:0.007926 42:0.021553 43:0.004082 44:0.009928 45:0.005154 46:0.005612 47:0.007947 48:0.009546 49:0.018204 50:0.006139 51:0.018042 52:0.006537 53:0.006263 54:0.01048 55:0.0079 56:0.021294 57:0.007488 58:0.433194 59:0.111522 
-1.0 -1.0 -1.0 -1.0 1.0 1.0 1.0 1.0 1.0 1.0 1.0 1.0 1.0 1.0 1.0 1.0 1.0 1.0 1.0 1.0 1.0 1.0 1.0 1.0 1.0 1.0 1.0 1.0 1.0 1.0 1.0 1.0 1.0 1.0 1.0 1.0 1.0 1.0 1.0 1.0 1.0 1.0 1.0 1.0 1.0 1.0 1.0 1.0 1.0 1.0 1.0 1.0 1.0 1.0 1.0 1.0 1.0 1.0 1.0 1.0 1.0 1.0 1.0 1.0 1.0 1.0 1.0 1.0 1.0 1.0 1.0 1.0 1.0 1.0 1.0 1.0 1:0.007557 2:0.001993 3:0.00122 4:0.002212 5:0.003459 6:0.001881 7:0.008458 8:0.001392 9:0.001922 10:0.002641 11:0.007566 12:0.002081 13:0.002105 14:0.007115 15:0.007705 16:0.015631 17:0.001513 18:0.002447 19:0.005794 20:0.010499 21:0.00461 22:0.005581 23:0.003685 24:0.002607 25:0.008653 26:0.018687 27:0.025478 28:0.005788 29:0.017873 30:0.001548 31:0.002063 32:0.005288 33:0.01898 34:0.005657 35:0.005426 36:0.0097 37:0.002245 38:0.007081 39:0.009848 40:0.025202 41:0.007926 42:0.021553 43:0.004082 44:0.009928 45:0.005154 46:0.005612 47:0.007947 48:0.009546 49:0.018204 50:0.006139 51:0.018042 52:0.006537 53:0.006263 54:0.01048 55:0.0079 56:0.021294 57:0.007488 58:0.433194 59:0.111522 
-1.0 -1.0 -1.0 -1.0 -1.0 1.0 1.0 1.0 1.0 1.0 1.0 1.0 1.0 1.0 1.0 1.0 1.0 1.0 1.0 1.0 1.0 1.0 1.0 1.0 1.0 1.0 1.0 1.0 1.0 1.0 1.0 1.0 1.0 1.0 1.0 1.0 1.0 1.0 1.0 1.0 1.0 1.0 1.0 1.0 1.0 1.0 1.0 1.0 1.0 1.0 1.0 1.0 1.0 1.0 1.0 1.0 1.0 1.0 1.0 1.0 1.0 1.0 1.0 1.0 1.0 1.0 1.0 1.0 1.0 1.0 1.0 1.0 1.0 1.0 1.0 1.0 1:0.005942 2:0.00131 3:0.001939 4:0.00156 5:5.47E-4 6:9.92E-4 7:8.04E-4 8:7.85E-4 9:7.88E-4 10:9.73E-4 11:8.11E-4 12:0.001213 13:5.97E-4 14:0.017993 15:0.022609 16:0.009462 17:0.002101 18:0.001209 19:8.33E-4 20:0.008458 21:0.019191 22:0.009331 23:7.11E-4 24:0.001108 25:9.52E-4 26:5.85E-4 27:0.003742 28:0.004769 29:0.035707 30:7.51E-4 31:8.11E-4 32:0.001025 33:4.23E-4 34:0.001042 35:0.002892 36:0.003929 37:8.35E-4 38:0.019298 39:0.010317 40:0.003589 41:0.003004 42:0.008173 43:0.001486 44:0.023207 45:0.022733 46:0.005737 47:0.007369 48:0.001372 49:0.011059 50:0.009636 51:0.035619 52:0.001579 53:0.003414 54:0.005328 55:0.002652 56:0.008521 57:0.005826 58:0.559249 59:0.082103 
-1.0 -1.0 -1.0 -1.0 -1.0 1.0 1.0 1.0 1.0 1.0 1.0 1.0 1.0 1.0 1.0 1.0 1.0 1.0 1.0 1.0 1.0 1.0 1.0 1.0 1.0 1.0 1.0 1.0 1.0 1.0 1.0 1.0 1.0 1.0 1.0 1.0 1.0 1.0 1.0 1.0 1.0 1.0 1.0 1.0 1.0 1.0 1.0 1.0 1.0 1.0 1.0 1.0 1.0 1.0 1.0 1.0 1.0 1.0 1.0 1.0 1.0 1.0 1.0 1.0 1.0 1.0 1.0 1.0 1.0 1.0 1.0 1.0 1.0 1.0 1.0 1.0 1:0.005942 2:0.00131 3:0.001939 4:0.00156 5:5.47E-4 6:9.92E-4 7:8.04E-4 8:7.85E-4 9:7.88E-4 10:9.73E-4 11:8.11E-4 12:0.001213 13:5.97E-4 14:0.017993 15:0.022609 16:0.009462 17:0.002101 18:0.001209 19:8.33E-4 20:0.008458 21:0.019191 22:0.009331 23:7.11E-4 24:0.001108 25:9.52E-4 26:5.85E-4 27:0.003742 28:0.004769 29:0.035707 30:7.51E-4 31:8.11E-4 32:0.001025 33:4.23E-4 34:0.001042 35:0.002892 36:0.003929 37:8.35E-4 38:0.019298 39:0.010317 40:0.003589 41:0.003004 42:0.008173 43:0.001486 44:0.023207 45:0.022733 46:0.005737 47:0.007369 48:0.001372 49:0.011059 50:0.009636 51:0.035619 52:0.001579 53:0.003414 54:0.005328 55:0.002652 56:0.008521 57:0.005826 58:0.559249 59:0.082103 
-1.0 -1.0 -1.0 -1.0 -1.0 1.0 1.0 1.0 1.0 1.0 1.0 1.0 1.0 1.0 1.0 1.0 1.0 1.0 1.0 1.0 1.0 1.0 1.0 1.0 1.0 1.0 1.0 1.0 1.0 1.0 1.0 1.0 1.0 1.0 1.0 1.0 1.0 1.0 1.0 1.0 1.0 1.0 1.0 1.0 1.0 1.0 1.0 1.0 1.0 1.0 1.0 1.0 1.0 1.0 1.0 1.0 1.0 1.0 1.0 1.0 1.0 1.0 1.0 1.0 1.0 1.0 1.0 1.0 1.0 1.0 1.0 1.0 1.0 1.0 1.0 1.0 1:0.005942 2:0.00131 3:0.001939 4:0.00156 5:5.47E-4 6:9.92E-4 7:8.04E-4 8:7.85E-4 9:7.88E-4 10:9.73E-4 11:8.11E-4 12:0.001213 13:5.97E-4 14:0.017993 15:0.022609 16:0.009462 17:0.002101 18:0.001209 19:8.33E-4 20:0.008458 21:0.019191 22:0.009331 23:7.11E-4 24:0.001108 25:9.52E-4 26:5.85E-4 27:0.003742 28:0.004769 29:0.035707 30:7.51E-4 31:8.11E-4 32:0.001025 33:4.23E-4 34:0.001042 35:0.002892 36:0.003929 37:8.35E-4 38:0.019298 39:0.010317 40:0.003589 41:0.003004 42:0.008173 43:0.001486 44:0.023207 45:0.022733 46:0.005737 47:0.007369 48:0.001372 49:0.011059 50:0.009636 51:0.035619 52:0.001579 53:0.003414 54:0.005328 55:0.002652 56:0.008521 57:0.005826 58:0.559249 59:0.082103 
-1.0 -1.0 -1.0 -1.0 -1.0 1.0 1.0 1.0 1.0 1.0 1.0 1.0 1.0 1.0 1.0 1.0 1.0 1.0 1.0 1.0 1.0 1.0 1.0 1.0 1.0 1.0 1.0 1.0 1.0 1.0 1.0 1.0 1.0 1.0 1.0 1.0 1.0 1.0 1.0 1.0 1.0 1.0 1.0 1.0 1.0 1.0 1.0 1.0 1.0 1.0 1.0 1.0 1.0 1.0 1.0 1.0 1.0 1.0 1.0 1.0 1.0 1.0 1.0 1.0 1.0 1.0 1.0 1.0 1.0 1.0 1.0 1.0 1.0 1.0 1.0 1.0 1:0.007445 2:0.001441 3:0.0026 4:0.001837 5:9.44E-4 6:0.001287 7:9.89E-4 8:9.82E-4 9:8.59E-4 10:9.52E-4 11:6.83E-4 12:0.001244 13:9.27E-4 14:0.020176 15:0.017162 16:0.008116 17:0.002609 18:0.00138 19:0.001018 20:0.016113 21:0.020802 22:0.007976 23:0.001135 24:0.001425 25:0.00102 26:7.51E-4 27:0.004651 28:0.007315 29:0.037381 30:9.33E-4 31:0.00118 32:0.001287 33:6.06E-4 34:0.001246 35:0.003337 36:0.005028 37:9.25E-4 38:0.020839 39:0.018765 40:0.005298 41:0.003413 42:0.009403 43:0.001536 44:0.016796 45:0.023344 46:0.008735 47:0.007705 48:0.001256 49:0.010178 50:0.008024 51:0.036884 52:0.001744 53:0.003725 54:0.006477 55:0.003137 56:0.009465 57:0.006001 58:0.51603 59:0.095485 
-1.0 -1.0 -1.0 -1.0 -1.0 1.0 1.0 1.0 1.0 1.0 1.0 1.0 1.0 1.0 1.0 1.0 1.0 1.0 1.0 1.0 1.0 1.0 1.0 1.0 1.0 1.0 1.0 1.0 1.0 1.0 1.0 1.0 1.0 1.0 1.0 1.0 1.0 1.0 1.0 1.0 1.0 1.0 1.0 1.0 1.0 1.0 1.0 1.0 1.0 1.0 1.0 1.0 1.0 1.0 1.0 1.0 1.0 1.0 1.0 1.0 1.0 1.0 1.0 1.0 1.0 1.0 1.0 1.0 1.0 1.0 1.0 1.0 1.0 1.0 1.0 1.0 1:0.007445 2:0.001441 3:0.0026 4:0.001837 5:9.44E-4 6:0.001287 7:9.89E-4 8:9.82E-4 9:8.59E-4 10:9.52E-4 11:6.83E-4 12:0.001244 13:9.27E-4 14:0.020176 15:0.017162 16:0.008116 17:0.002609 18:0.00138 19:0.001018 20:0.016113 21:0.020802 22:0.007976 23:0.001135 24:0.001425 25:0.00102 26:7.51E-4 27:0.004651 28:0.007315 29:0.037381 30:9.33E-4 31:0.00118 32:0.001287 33:6.06E-4 34:0.001246 35:0.003337 36:0.005028 37:9.25E-4 38:0.020839 39:0.018765 40:0.005298 41:0.003413 42:0.009403 43:0.001536 44:0.016796 45:0.023344 46:0.008735 47:0.007705 48:0.001256 49:0.010178 50:0.008024 51:0.036884 52:0.001744 53:0.003725 54:0.006477 55:0.003137 56:0.009465 57:0.006001 58:0.51603 59:0.095485 
